{"learner":{"attributes":{"scikit_learn":"{\"_estimator_type\": \"classifier\"}"},"feature_names":["price_to_ma7_ratio","price_to_ma14_ratio","price_to_ma30_ratio","return_1d","return_3d","return_7d","return_14d","volatility_5d","volatility_10d","volatility_20d","usd_brl_lag_1","usd_brl_return_7d","usd_brl_volatility_14d","wti_lag_1","wti_return_7d","wti_volatility_14d","crush_spread","crush_spread_ma7","crush_spread_lag_1","cftc_noncomm_net","cftc_noncomm_net_chg_1w","cftc_long_short_ratio","cftc_percentile_52w","wasde_soyoil_stock_to_use","wasde_world_production","month","week_of_year","quarter","is_planting_season","is_flowering_season","is_harvest_season","days_to_next_harvest","dxy_close","dxy_lag_1","dxy_return_7d","dxy_volatility_14d","canola_close","canola_lag_1","sunflower_close","market_avg_price_30d","price_vs_market_avg","fed_rate","fed_rate_chg_1m","fed_rate_chg_3m","vix_close","vix_lag_1","vix_return_7d","vix_regime","momentum_accel_7d","price_above_200d_ma","wasde_release_day","is_wasde_week","days_to_wasde","days_since_wasde","is_cftc_release_day","days_to_cftc"],"feature_types":["float","float","float","float","float","float","float","float","float","float","float","float","float","float","float","float","float","float","float","float","float","float","float","float","float","int","int","int","int","int","int","int","float","float","float","float","float","float","float","float","float","float","float","float","float","float","float","float","float","int","int","int","int","int","int","int"],"gradient_booster":{"model":{"gbtree_model_param":{"num_parallel_tree":"1","num_trees":"180"},"iteration_indptr":[0,1,2,3,4,5,6,7,8,9,10,11,12,13,14,15,16,17,18,19,20,21,22,23,24,25,26,27,28,29,30,31,32,33,34,35,36,37,38,39,40,41,42,43,44,45,46,47,48,49,50,51,52,53,54,55,56,57,58,59,60,61,62,63,64,65,66,67,68,69,70,71,72,73,74,75,76,77,78,79,80,81,82,83,84,85,86,87,88,89,90,91,92,93,94,95,96,97,98,99,100,101,102,103,104,105,106,107,108,109,110,111,112,113,114,115,116,117,118,119,120,121,122,123,124,125,126,127,128,129,130,131,132,133,134,135,136,137,138,139,140,141,142,143,144,145,146,147,148,149,150,151,152,153,154,155,156,157,158,159,160,161,162,163,164,165,166,167,168,169,170,171,172,173,174,175,176,177,178,179,180],"tree_info":[0,0,0,0,0,0,0,0,0,0,0,0,0,0,0,0,0,0,0,0,0,0,0,0,0,0,0,0,0,0,0,0,0,0,0,0,0,0,0,0,0,0,0,0,0,0,0,0,0,0,0,0,0,0,0,0,0,0,0,0,0,0,0,0,0,0,0,0,0,0,0,0,0,0,0,0,0,0,0,0,0,0,0,0,0,0,0,0,0,0,0,0,0,0,0,0,0,0,0,0,0,0,0,0,0,0,0,0,0,0,0,0,0,0,0,0,0,0,0,0,0,0,0,0,0,0,0,0,0,0,0,0,0,0,0,0,0,0,0,0,0,0,0,0,0,0,0,0,0,0,0,0,0,0,0,0,0,0,0,0,0,0,0,0,0,0,0,0,0,0,0,0,0,0,0,0,0,0,0,0],"trees":[{"base_weights":[-3.780005E-5,-4.4994226E-1,5.249443E-1,-7.547462E-1,3.6699408E-1,1.0902537E0,-3.948069E-1,1.395885E-1,-9.230186E-1,1.3877026E0,-3.0398998E-1,1.4069936E0,3.5834455E-1,2.5401412E-2,-1.7611343E0,7.921557E-1,-1.60252E0,9.1187376E-1,-1.0241914E0,-1.2423681E0,1.6863244E0,8.742466E-1,-6.9992954E-1,9.6015885E-2,1.5902401E0,-1.3449099E0,1.1192952E0,1.0827241E0,-5.153407E-1,-1.06258824E-1,-5.436065E-1,-4.681493E-1,1.3392327E0,-5.364668E-1,7.954245E-2,1.6560333E0,-3.8250473E-1,4.397701E-1,-1.1563771E0,-5.3900387E-2,-4.4924808E-1,1.9175701E0,5.9587544E-1,1.2483127E0,-4.1446358E-1,-1.1525854E0,1.6867827E-1,5.211811E-1,-9.473758E-1,-9.371009E-1,1.6829027E0,1.5387762E-2,-1.4741637E0,-1.1842754E0,1.4935757E0,-1.4310916E-1,1.6727526E0,-8.5591173E-1,1.5505311E0,4.3179002E-1,-3.004188E-1,4.467015E-1,-3.2078606E-1,1.3395406E-1,5.3586465E-1,3.5749358E-1,-4.1513297E-1,-2.6899967E-2,-3.8003278E-1,1.5458347E-1,5.9773064E-1,-1.0167301E-1,4.0116936E-1,4.565793E-1,-3.2078606E-1,2.540605E-1,-3.4346217E-1,-4.4875202E-1,4.3896583E-1,3.2774356E-1,-3.0278438E-1,1.04505986E-1,-4.5985827E-1,-4.5601156E-1,2.1298529E-1,5.2523905E-1,-3.0035302E-1,-4.9670625E-1,-1.3985342E-1,-4.9208748E-1,2.1298529E-1,5.060177E-1,-3.4346217E-1,-2.4957876E-1,3.7889484E-1,5.7591313E-1,-3.6748976E-1,2.2055016E-1,-3.171241E-1,-1.8734322E-1,5.6302315E-1],"categories":[],"categories_nodes":[],"categories_segments":[],"categories_sizes":[],"default_left":[0,0,0,0,0,0,0,0,0,0,0,0,0,0,0,0,0,0,0,0,0,0,0,0,0,0,0,0,0,0,0,0,0,0,0,0,0,0,0,0,0,0,0,0,0,0,0,0,0,0,0,0,0,0,0,0,0,0,0,0,0,0,0,0,0,0,0,0,0,0,0,0,0,0,0,0,0,0,0,0,0,0,0,0,0,0,0,0,0,0,0,0,0,0,0,0,0,0,0,0,0],"id":0,"left_children":[1,3,5,7,9,11,13,15,17,19,21,23,25,27,29,31,33,35,37,39,41,43,45,47,49,51,53,55,57,-1,-1,59,61,-1,-1,63,-1,65,67,-1,-1,69,71,73,75,77,79,-1,81,83,85,-1,87,89,91,93,95,97,99,-1,-1,-1,-1,-1,-1,-1,-1,-1,-1,-1,-1,-1,-1,-1,-1,-1,-1,-1,-1,-1,-1,-1,-1,-1,-1,-1,-1,-1,-1,-1,-1,-1,-1,-1,-1,-1,-1,-1,-1,-1,-1],"loss_changes":[2.0441757E2,1.1632895E2,2.0810162E2,5.12583E1,8.761598E1,5.690381E1,8.775959E1,6.342134E1,5.4041885E1,4.1896164E1,3.6830215E1,4.128647E1,1.0018837E2,6.7924355E1,1.9319153E0,2.851083E1,5.7559814E0,2.7301231E1,5.3067078E1,1.2879963E0,1.0440048E1,1.0145107E1,2.3260227E1,3.969458E1,3.70047E1,4.400627E0,4.761342E1,2.9309341E1,5.6652946E1,0E0,0E0,1.46461115E1,1.18583145E1,0E0,0E0,1.0893631E0,0E0,3.3481506E1,2.9254608E1,0E0,0E0,2.904541E0,7.028084E0,1.1601229E1,5.800545E0,3.6931797E1,2.3922659E1,0E0,1.1329609E1,6.8328323E0,2.8410797E1,0E0,3.2478943E0,8.065977E0,2.5466766E1,1.4591734E1,2.1824303E1,2.2590446E1,9.320408E0,0E0,0E0,0E0,0E0,0E0,0E0,0E0,0E0,0E0,0E0,0E0,0E0,0E0,0E0,0E0,0E0,0E0,0E0,0E0,0E0,0E0,0E0,0E0,0E0,0E0,0E0,0E0,0E0,0E0,0E0,0E0,0E0,0E0,0E0,0E0,0E0,0E0,0E0,0E0,0E0,0E0,0E0],"parents":[2147483647,0,0,1,1,2,2,3,3,4,4,5,5,6,6,7,7,8,8,9,9,10,10,11,11,12,12,13,13,14,14,15,15,16,16,17,17,18,18,19,19,20,20,21,21,22,22,23,23,24,24,25,25,26,26,27,27,28,28,31,31,32,32,35,35,37,37,38,38,41,41,42,42,43,43,44,44,45,45,46,46,48,48,49,49,50,50,52,52,53,53,54,54,55,55,56,56,57,57,58,58],"right_children":[2,4,6,8,10,12,14,16,18,20,22,24,26,28,30,32,34,36,38,40,42,44,46,48,50,52,54,56,58,-1,-1,60,62,-1,-1,64,-1,66,68,-1,-1,70,72,74,76,78,80,-1,82,84,86,-1,88,90,92,94,96,98,100,-1,-1,-1,-1,-1,-1,-1,-1,-1,-1,-1,-1,-1,-1,-1,-1,-1,-1,-1,-1,-1,-1,-1,-1,-1,-1,-1,-1,-1,-1,-1,-1,-1,-1,-1,-1,-1,-1,-1,-1,-1,-1],"split_conditions":[1.723E1,2.090272E-2,5.4654E1,5.199E1,4.687E2,2E-1,3.78E0,4.051714E1,2.8365334E1,7.3E1,1.9642857E-1,-1E-2,9.549E1,1.69E2,9.31073E-1,2.1E1,1.2927701E-2,1.2926574E-2,4.311E2,9.891285E-1,1.0269928E0,4.1925064E-3,9.52381E-2,4.596E2,-1.0079764E-1,-2.3201439E-1,-2.7E-1,0E0,3.7142172E-2,-1.06258824E-1,-5.436065E-1,4.896E2,2.0527E4,-5.364668E-1,7.954245E-2,3.8014E0,-3.8250473E-1,1.3677781E0,-6E-2,-5.3900387E-2,-4.4924808E-1,2.7639334E1,5.3341724E-3,6.4098335E1,1.356E1,3.594623E0,6.2896824E-1,5.211811E-1,-1.5291793E-2,5.3152E0,7.918371E-3,1.5387762E-2,2.1966252E-2,5.166288E-2,1.0510794E0,2.6576659E-2,1.2177569E2,-7.484565E-2,1.5542414E-2,4.3179002E-1,-3.004188E-1,4.467015E-1,-3.2078606E-1,1.3395406E-1,5.3586465E-1,3.5749358E-1,-4.1513297E-1,-2.6899967E-2,-3.8003278E-1,1.5458347E-1,5.9773064E-1,-1.0167301E-1,4.0116936E-1,4.565793E-1,-3.2078606E-1,2.540605E-1,-3.4346217E-1,-4.4875202E-1,4.3896583E-1,3.2774356E-1,-3.0278438E-1,1.04505986E-1,-4.5985827E-1,-4.5601156E-1,2.1298529E-1,5.2523905E-1,-3.0035302E-1,-4.9670625E-1,-1.3985342E-1,-4.9208748E-1,2.1298529E-1,5.060177E-1,-3.4346217E-1,-2.4957876E-1,3.7889484E-1,5.7591313E-1,-3.6748976E-1,2.2055016E-1,-3.171241E-1,-1.8734322E-1,5.6302315E-1],"split_indices":[45,15,39,13,36,41,41,17,39,31,22,42,33,31,0,26,34,40,36,0,2,35,23,37,14,46,42,43,15,0,0,37,20,0,0,10,0,21,43,0,0,39,3,39,45,21,22,0,6,10,35,0,15,11,2,15,16,40,7,0,0,0,0,0,0,0,0,0,0,0,0,0,0,0,0,0,0,0,0,0,0,0,0,0,0,0,0,0,0,0,0,0,0,0,0,0,0,0,0,0,0],"split_type":[0,0,0,0,0,0,0,0,0,0,0,0,0,0,0,0,0,0,0,0,0,0,0,0,0,0,0,0,0,0,0,0,0,0,0,0,0,0,0,0,0,0,0,0,0,0,0,0,0,0,0,0,0,0,0,0,0,0,0,0,0,0,0,0,0,0,0,0,0,0,0,0,0,0,0,0,0,0,0,0,0,0,0,0,0,0,0,0,0,0,0,0,0,0,0,0,0,0,0,0,0],"sum_hessian":[8.634728E2,4.6506207E2,3.9841068E2,3.3874893E2,1.26313156E2,2.4663518E2,1.517755E2,5.3670612E1,2.850783E2,4.9676517E1,7.663664E1,1.7149632E2,7.5138855E1,1.16827194E2,3.4948303E1,3.9441658E1,1.4228952E1,1.4478583E1,2.7059973E2,4.7429843E0,4.4933537E1,1.8971937E1,5.7664703E1,2.1218615E1,1.5027771E2,2.2966028E1,5.2172825E1,3.9192028E1,7.763516E1,1.4977845E0,3.345052E1,1.1982276E1,2.7459383E1,1.2980799E1,1.2481537E0,1.0983753E1,3.4948306E0,2.2217136E1,2.483826E2,1.2481537E0,3.4948306E0,3.644609E1,8.487446E0,1.4728214E1,4.243723E0,3.7694244E1,1.9970459E1,7.988184E0,1.323043E1,4.9926147E0,1.452851E2,1.997046E0,2.0968983E1,6.989661E0,4.5183167E1,1.2980799E1,2.621123E1,6.715067E1,1.0484491E1,2.2466767E0,9.7355995E0,2.621123E1,1.2481537E0,1.4977845E0,9.485969E0,1.5976368E1,6.240769E0,2.346529E1,2.2491731E2,2.2466767E0,3.4199413E1,3.994092E0,4.4933534E0,1.3480061E1,1.2481537E0,1.4977845E0,2.7459383E0,3.370015E1,3.994092E0,1.1233384E1,8.737076E0,4.243723E0,8.986707E0,3.7444613E0,1.2481537E0,1.420399E2,3.2451997E0,1.7224522E1,3.7444613E0,5.741507E0,1.2481537E0,4.243723E1,2.7459383E0,8.986707E0,3.994092E0,2.4463814E1,1.7474153E0,7.2392917E0,5.991138E1,1.2481537E0,9.236338E0],"tree_param":{"num_deleted":"0","num_feature":"56","num_nodes":"101","size_leaf_vector":"1"}},{"base_weights":[-2.548359E-3,-2.376234E-1,5.741134E-1,3.3275107E-1,-4.205747E-1,8.808686E-1,-6.0882086E-1,1.0484493E0,-2.5589836E-1,-6.7692816E-1,1.6118501E-1,-4.4169363E-1,1.0571717E0,2.2987649E-1,-1.4446981E0,5.8945436E-2,1.3461603E0,7.893394E-1,-8.877946E-1,-3.4817168E-1,-1.1110646E0,8.9569646E-1,-4.1306454E-1,1.0499225E0,-1.2242023E0,1.2906066E0,3.2054478E-1,-1.275658E0,9.075575E-1,-1.5171733E0,7.710422E-3,-5.81924E-1,1.2247038E0,1.404991E0,-1.663538E-1,1.6283907E0,-1.0795504E0,-1.239048E0,9.338743E-2,-1.2704058E0,1.415713E-1,3.6563513E-1,-1.3259329E0,-4.981359E-1,1.3006166E0,9.0501326E-1,-7.580195E-1,5.090922E-1,-2.2794801E-1,-4.6986324E-1,3.071336E-1,1.3346405E0,-5.772366E-1,-1.1142666E0,8.743725E-1,-1.1860902E-1,-4.0851918E-1,-2.944301E-1,1.3471055E0,-1.3522378E-1,-4.7348866E-1,2.5392804E-1,-3.7405163E-1,4.338712E-1,5.2994914E-2,2.3454945E-1,4.716536E-1,5.01161E-1,1.5116048E-1,1.3876061E-1,-4.7377372E-1,1.4564224E-1,-4.2741668E-1,2.5527662E-1,-2.612621E-1,-1.5803841E-1,-4.2613217E-1,2.3253118E-1,-1.4156185E-1,2.5104606E-1,-2.617461E-1,-1.8832322E-2,-4.2333922E-1,4.366944E-1,-3.029455E-1,-9.269457E-2,4.5592663E-1,-2.922146E-1,4.9476734E-1,1.8007568E-1,-3.1119817E-1,4.290388E-1,2.1178906E-1,1.00901626E-1,-3.4896013E-1,-5.598198E-2,-3.8859478E-1,-2.7247387E-1,3.8700873E-1,4.6022516E-1,-1.3806763E-1],"categories":[],"categories_nodes":[],"categories_segments":[],"categories_sizes":[],"default_left":[0,0,0,0,0,0,0,0,0,0,0,0,0,0,0,0,0,0,0,0,0,0,0,0,0,0,0,0,0,0,0,0,0,0,0,0,0,0,0,0,0,0,0,0,0,0,0,0,0,0,0,0,0,0,0,0,0,0,0,0,0,0,0,0,0,0,0,0,0,0,0,0,0,0,0,0,0,0,0,0,0,0,0,0,0,0,0,0,0,0,0,0,0,0,0,0,0,0,0,0,0],"id":1,"left_children":[1,3,5,7,9,11,13,15,17,19,21,23,25,27,29,31,33,35,37,39,41,43,45,47,49,51,53,55,57,59,-1,61,63,65,-1,67,69,71,73,75,77,79,81,83,85,87,89,-1,-1,-1,-1,91,93,95,97,-1,-1,-1,99,-1,-1,-1,-1,-1,-1,-1,-1,-1,-1,-1,-1,-1,-1,-1,-1,-1,-1,-1,-1,-1,-1,-1,-1,-1,-1,-1,-1,-1,-1,-1,-1,-1,-1,-1,-1,-1,-1,-1,-1,-1,-1],"loss_changes":[1.1190361E2,6.1334427E1,8.728488E1,6.0504158E1,6.639308E1,4.482628E1,3.5257355E1,1.8986778E1,5.304792E1,4.3672485E1,5.8051155E1,2.8227314E1,2.8502243E1,2.7409424E1,2.712616E0,1.2677352E1,6.337219E0,4.9413486E1,1.7301441E1,8.018078E1,4.2549713E1,3.469133E1,3.5893257E1,1.1220479E1,1.3598486E1,1.1245895E1,3.4187347E1,9.826851E-2,1.6539577E1,8.481865E-1,0E0,1.1513563E1,1.1383142E0,3.8235092E0,0E0,1.7121506E-1,8.449955E0,1.2471783E1,1.102248E1,6.117218E0,4.5677162E1,1.1011511E1,1.2389694E1,1.5767449E1,1.7053795E1,2.4704746E1,2.411208E1,0E0,0E0,0E0,0E0,6.4782715E0,2.335249E0,1.787116E0,2.393138E1,0E0,0E0,0E0,5.8728237E0,0E0,0E0,0E0,0E0,0E0,0E0,0E0,0E0,0E0,0E0,0E0,0E0,0E0,0E0,0E0,0E0,0E0,0E0,0E0,0E0,0E0,0E0,0E0,0E0,0E0,0E0,0E0,0E0,0E0,0E0,0E0,0E0,0E0,0E0,0E0,0E0,0E0,0E0,0E0,0E0,0E0,0E0],"parents":[2147483647,0,0,1,1,2,2,3,3,4,4,5,5,6,6,7,7,8,8,9,9,10,10,11,11,12,12,13,13,14,14,15,15,16,16,17,17,18,18,19,19,20,20,21,21,22,22,23,23,24,24,25,25,26,26,27,27,28,28,29,29,31,31,32,32,33,33,35,35,36,36,37,37,38,38,39,39,40,40,41,41,42,42,43,43,44,44,45,45,46,46,51,51,52,52,53,53,54,54,58,58],"right_children":[2,4,6,8,10,12,14,16,18,20,22,24,26,28,30,32,34,36,38,40,42,44,46,48,50,52,54,56,58,60,-1,62,64,66,-1,68,70,72,74,76,78,80,82,84,86,88,90,-1,-1,-1,-1,92,94,96,98,-1,-1,-1,100,-1,-1,-1,-1,-1,-1,-1,-1,-1,-1,-1,-1,-1,-1,-1,-1,-1,-1,-1,-1,-1,-1,-1,-1,-1,-1,-1,-1,-1,-1,-1,-1,-1,-1,-1,-1,-1,-1,-1,-1,-1,-1],"split_conditions":[2.056E1,3.1811E1,1.0053E2,7.4324325E-2,1.284E3,7.775E1,3.968254E-1,9.556E1,-1E-2,4.1727787E1,5.3791332E1,3.3E1,2E-1,7.449075E-3,4.7E2,3.7893E0,1.0519108E0,6.407E3,1.653E1,2.2808E0,4.353E2,1.524E1,1.9642857E-1,5.781E2,1.6930051E-2,7.776324E-3,9.556E1,9.658777E-1,6.422633E1,-1.3796532E-1,7.710422E-3,3.5674576E1,1.0027328E0,5.1973816E-3,-1.663538E-1,1.0275745E0,1.0373663E0,-4.7348E4,-3.2097004E-2,1.21031746E-1,1E0,8.942317E-3,-2.39E4,-1.3327526E-1,2.476931E-3,3.1139E4,5.797E2,5.090922E-1,-2.2794801E-1,-4.6986324E-1,3.071336E-1,6.1728394E-1,9E0,9.851226E-1,-2.1E-1,-1.1860902E-1,-4.0851918E-1,-2.944301E-1,1.0312282E0,-1.3522378E-1,-4.7348866E-1,2.5392804E-1,-3.7405163E-1,4.338712E-1,5.2994914E-2,2.3454945E-1,4.716536E-1,5.01161E-1,1.5116048E-1,1.3876061E-1,-4.7377372E-1,1.4564224E-1,-4.2741668E-1,2.5527662E-1,-2.612621E-1,-1.5803841E-1,-4.2613217E-1,2.3253118E-1,-1.4156185E-1,2.5104606E-1,-2.617461E-1,-1.8832322E-2,-4.2333922E-1,4.366944E-1,-3.029455E-1,-9.269457E-2,4.5592663E-1,-2.922146E-1,4.9476734E-1,1.8007568E-1,-3.1119817E-1,4.290388E-1,2.1178906E-1,1.00901626E-1,-3.4896013E-1,-5.598198E-2,-3.8859478E-1,-2.7247387E-1,3.8700873E-1,4.6022516E-1,-1.3806763E-1],"split_indices":[45,39,33,23,38,33,22,33,42,17,39,26,41,12,24,10,2,20,45,10,36,45,22,37,12,35,33,0,39,6,0,17,0,12,0,0,2,19,46,22,49,3,19,46,12,19,36,0,0,0,0,23,52,0,42,0,0,0,2,0,0,0,0,0,0,0,0,0,0,0,0,0,0,0,0,0,0,0,0,0,0,0,0,0,0,0,0,0,0,0,0,0,0,0,0,0,0,0,0,0,0],"split_type":[0,0,0,0,0,0,0,0,0,0,0,0,0,0,0,0,0,0,0,0,0,0,0,0,0,0,0,0,0,0,0,0,0,0,0,0,0,0,0,0,0,0,0,0,0,0,0,0,0,0,0,0,0,0,0,0,0,0,0,0,0,0,0,0,0,0,0,0,0,0,0,0,0,0,0,0,0,0,0,0,0,0,0,0,0,0,0,0,0,0,0,0,0,0,0,0,0,0,0,0,0],"sum_hessian":[8.234923E2,5.854306E2,2.3806169E2,1.4197774E2,4.4345285E2,1.8924307E2,4.8818623E1,6.372175E1,7.8256E1,3.077005E2,1.3575237E2,2.2082537E1,1.6716054E2,2.4730087E1,2.4088533E1,1.5014837E1,4.8706913E1,2.9390749E1,4.8865242E1,1.7612733E2,1.3157315E2,5.931892E1,7.643344E1,7.4808397E0,1.4601697E1,1.26364075E2,4.079646E1,7.402446E0,1.7327642E1,2.292668E1,1.1618547E0,1.001175E1,5.003087E0,4.749753E1,1.2093787E0,2.0372885E1,9.017865E0,3.5789978E1,1.3075267E1,6.053672E1,1.15590614E2,1.6623703E1,1.14949455E2,1.33015585E1,4.601736E1,1.5517455E1,6.091599E1,5.556502E0,1.9243375E0,1.2936773E1,1.6649238E0,1.2373258E2,2.6314955E0,1.1079823E1,2.9716637E1,1.1575137E0,6.244932E0,3.0381474E0,1.42894945E1,1.6967735E0,2.1229906E1,3.0934672E0,6.918283E0,3.8164537E0,1.1866335E0,1.1248239E1,3.6249294E1,1.9168905E1,1.2039791E0,2.2251868E0,6.792678E0,3.3218956E0,3.2468082E1,7.388397E0,5.6868696E0,1.0920929E1,4.961579E1,5.67346E1,5.8856018E1,1.2276012E1,4.34769E0,7.3729944E0,1.0757646E2,2.377728E0,1.0923831E1,5.4651613E0,4.05522E1,4.3146195E0,1.1202835E1,1.0193922E1,5.0722065E1,1.0631043E2,1.7422152E1,1.1947579E0,1.4367375E0,2.1409118E0,8.938911E0,5.394832E0,2.4321804E1,1.3086783E1,1.202711E0],"tree_param":{"num_deleted":"0","num_feature":"56","num_nodes":"101","size_leaf_vector":"1"}},{"base_weights":[-4.1325246E-3,7.26764E-1,-1.3562755E-1,9.433483E-1,-3.6094323E-1,1.2889938E-1,-4.4965532E-1,1.1284035E0,1.5900826E-1,3.070339E-1,-3.9316764E-1,-2.4376588E-1,6.638806E-1,-1.6353428E-1,-8.650137E-1,-4.9498972E-1,1.1830771E0,1.061696E0,-6.683117E-1,8.180751E-1,-4.216989E-1,3.4269005E-2,-7.7293915E-1,1.069857E0,1.1060068E-1,-2.6927036E-1,4.4410726E-1,-9.767984E-1,9.1471475E-1,2.066443E-2,-2.4610217E-1,-2.1508162E-1,1.2266847E0,3.8663554E-1,-1.09639026E-1,-1.0511215E0,4.6992755E-1,3.6485222E-1,-2.3987725E-1,-2.9289135E-1,1.8021552E-1,5.696426E-1,-3.6240977E-1,5.29711E-1,-1.1893668E0,-9.103765E-1,1.1407876E0,1.1847826E0,-3.1937867E-1,-4.4599193E-1,5.5981886E-1,8.972448E-1,-1.074546E0,-1.7011827E-1,3.8335052E-1,-6.6806725E-3,3.8524374E-1,1.252163E-1,-4.148373E-1,2.5291112E-1,-4.8923235E-2,-1.5462832E-1,2.745356E-1,1.14376746E-1,-2.4148108E-1,3.375313E-1,-3.3235636E-1,2.6986566E-1,-4.1145456E-1,-3.5427824E-1,-4.2245425E-2,-3.0870962E-1,3.6250892E-1,3.9116713E-1,2.382735E-2,4.712265E-1,-1.6767335E-1,7.1971007E-3,-3.0446768E-1,-1.5881932E-1,2.7387193E-1,4.170973E-1,-6.606894E-2,-3.445173E-1,3.0670387E-1],"categories":[],"categories_nodes":[],"categories_segments":[],"categories_sizes":[],"default_left":[0,0,0,0,0,0,0,0,0,0,0,0,0,0,0,0,0,0,0,0,0,0,0,0,0,0,0,0,0,0,0,0,0,0,0,0,0,0,0,0,0,0,0,0,0,0,0,0,0,0,0,0,0,0,0,0,0,0,0,0,0,0,0,0,0,0,0,0,0,0,0,0,0,0,0,0,0,0,0,0,0,0,0,0,0],"id":2,"left_children":[1,3,5,7,9,11,13,15,17,19,-1,21,23,25,27,29,31,33,35,37,39,41,43,45,47,49,-1,51,53,-1,-1,-1,55,-1,-1,57,59,-1,-1,-1,-1,61,63,65,67,69,71,73,75,77,79,81,83,-1,-1,-1,-1,-1,-1,-1,-1,-1,-1,-1,-1,-1,-1,-1,-1,-1,-1,-1,-1,-1,-1,-1,-1,-1,-1,-1,-1,-1,-1,-1,-1],"loss_changes":[7.278452E1,2.7543755E1,5.337245E1,1.3838097E1,1.3024252E1,6.976936E1,3.475933E1,7.506439E0,1.5347051E1,4.996986E0,0E0,3.0411444E1,3.2141315E1,3.0838001E1,2.4677612E1,6.519224E-1,7.1540527E0,3.6339407E0,5.2175283E0,5.919969E0,3.8803725E0,2.9161913E1,3.92402E1,1.265757E1,2.89676E1,2.448145E1,0E0,2.1658104E1,4.8039913E0,0E0,0E0,0E0,5.367958E0,0E0,0E0,4.6788197E0,9.4506633E-1,0E0,0E0,0E0,0E0,2.2369928E1,2.628125E1,1.873153E1,2.1872673E1,5.450845E-1,1.3018257E1,2.2539482E0,2.1247751E1,3.662312E1,1.1829252E1,3.692196E0,1.7869995E1,0E0,0E0,0E0,0E0,0E0,0E0,0E0,0E0,0E0,0E0,0E0,0E0,0E0,0E0,0E0,0E0,0E0,0E0,0E0,0E0,0E0,0E0,0E0,0E0,0E0,0E0,0E0,0E0,0E0,0E0,0E0,0E0],"parents":[2147483647,0,0,1,1,2,2,3,3,4,4,5,5,6,6,7,7,8,8,9,9,11,11,12,12,13,13,14,14,15,15,16,16,17,17,18,18,19,19,20,20,21,21,22,22,23,23,24,24,25,25,27,27,28,28,32,32,35,35,36,36,41,41,42,42,43,43,44,44,45,45,46,46,47,47,48,48,49,49,50,50,51,51,52,52],"right_children":[2,4,6,8,10,12,14,16,18,20,-1,22,24,26,28,30,32,34,36,38,40,42,44,46,48,50,-1,52,54,-1,-1,-1,56,-1,-1,58,60,-1,-1,-1,-1,62,64,66,68,70,72,74,76,78,80,82,84,-1,-1,-1,-1,-1,-1,-1,-1,-1,-1,-1,-1,-1,-1,-1,-1,-1,-1,-1,-1,-1,-1,-1,-1,-1,-1,-1,-1,-1,-1,-1,-1],"split_conditions":[4.705E1,3.07E2,1E-2,1.0281953E0,-5.394E3,1.723E1,1E0,-2.0672E4,7.132E3,1.3872476E-2,-3.9316764E-1,9.42E1,5.2790333E1,5.06E0,3.775011E-2,-2.129637E-2,4.25943E-3,9.938E1,5.3269E0,7.3743E4,1.7E1,4.0966568E1,1.8E1,1.8703358E1,9.4E1,1.30475E3,4.4410726E-1,1.8025E0,1.5542414E-2,2.066443E-2,-2.4610217E-1,-2.1508162E-1,9.351711E-1,3.8663554E-1,-1.09639026E-1,1.0285394E0,1.0166994E0,3.6485222E-1,-2.3987725E-1,-2.9289135E-1,1.8021552E-1,2.0323E0,3.0917334E1,5.743E2,-7.137773E-2,1.2E1,-2.7E-1,1.7632402E-2,2.5371076E-3,5.098E2,7.829E1,1.0227305E0,3.5315245E-2,-1.7011827E-1,3.8335052E-1,-6.6806725E-3,3.8524374E-1,1.252163E-1,-4.148373E-1,2.5291112E-1,-4.8923235E-2,-1.5462832E-1,2.745356E-1,1.14376746E-1,-2.4148108E-1,3.375313E-1,-3.3235636E-1,2.6986566E-1,-4.1145456E-1,-3.5427824E-1,-4.2245425E-2,-3.0870962E-1,3.6250892E-1,3.9116713E-1,2.382735E-2,4.712265E-1,-1.6767335E-1,7.1971007E-3,-3.0446768E-1,-1.5881932E-1,2.7387193E-1,4.170973E-1,-6.606894E-2,-3.445173E-1,3.0670387E-1],"split_indices":[13,31,42,1,20,44,49,20,20,8,0,13,39,41,15,5,12,33,10,19,52,17,26,16,31,38,0,10,7,0,0,0,2,0,0,2,0,0,0,0,0,10,39,37,40,52,42,12,35,36,33,1,8,0,0,0,0,0,0,0,0,0,0,0,0,0,0,0,0,0,0,0,0,0,0,0,0,0,0,0,0,0,0,0,0],"split_type":[0,0,0,0,0,0,0,0,0,0,0,0,0,0,0,0,0,0,0,0,0,0,0,0,0,0,0,0,0,0,0,0,0,0,0,0,0,0,0,0,0,0,0,0,0,0,0,0,0,0,0,0,0,0,0,0,0,0,0,0,0,0,0,0,0,0,0,0,0,0,0,0,0,0,0,0,0,0,0,0,0,0,0,0,0],"sum_hessian":[7.552846E2,1.1447341E2,6.408112E2,9.5575195E1,1.8898218E1,3.4813934E2,2.9267188E2,7.69752E1,1.86E1,1.1491536E1,7.4066825E0,2.0551968E2,1.4261964E2,1.7412146E2,1.1855043E2,2.2455542E0,7.472964E1,8.759369E0,9.8406315E0,6.6826024E0,4.8089337E0,1.3534357E2,7.0176125E1,8.172165E1,6.0898006E1,1.6438435E2,9.737099E0,1.1196883E2,6.5816064E0,1.1100291E0,1.1355251E0,1.3302225E0,7.3399414E1,7.640563E0,1.1188055E0,7.421267E0,2.419364E0,5.5620127E0,1.1205895E0,3.1469738E0,1.6619599E0,5.7416252E1,7.7927315E1,1.6933495E1,5.3242626E1,2.416736E0,7.930491E1,1.6906487E1,4.399152E1,1.3588281E2,2.8501543E1,5.145159E0,1.0682367E2,1.1848768E0,5.39673E0,3.255322E0,7.01441E1,1.3196965E0,6.1015706E0,1.3134066E0,1.1059574E0,1.3747184E1,4.3669067E1,2.9123617E1,4.8803696E1,1.2647868E1,4.2856264E0,3.9543736E0,4.9288254E1,1.3925945E0,1.0241414E0,1.9655018E0,7.733941E1,1.5099799E1,1.8066868E0,4.322826E0,3.9668694E1,7.493501E1,6.0947796E1,6.8551617E0,2.1646381E1,3.4005282E0,1.7446306E0,1.0362665E2,3.197019E0],"tree_param":{"num_deleted":"0","num_feature":"56","num_nodes":"85","size_leaf_vector":"1"}},{"base_weights":[-2.2386569E-3,5.908946E-1,-1.0502582E-1,7.694698E-1,-3.1584513E-1,1.00985385E-1,-3.4885854E-1,9.200942E-1,1.431915E-1,2.4980044E-1,-3.4411883E-1,-2.0183398E-1,5.580655E-1,-3.9960388E-2,-6.542782E-1,5.0408673E-1,1.1863452E0,9.092523E-1,-5.112296E-1,6.665312E-1,-4.4659653E-1,2.0890096E-1,-4.1331017E-1,7.9652166E-1,-1.17511906E-1,4.47613E-1,-3.9205354E-1,-8.3361304E-1,6.161969E-2,-6.4785784E-1,1.089964E0,1.2700331E0,3.6189216E-1,3.4235355E-1,-1.00436606E-1,-8.6446273E-1,5.2996016E-1,-2.3451364E-1,3.1008402E-1,-2.9731154E-1,1.8474379E-1,-9.213912E-2,8.6623454E-1,-6.888433E-1,4.7966167E-2,1.44993635E-2,9.770098E-1,7.108243E-1,-1.0173479E0,1.744976E0,2.034126E-1,-7.510492E-1,4.3859956E-1,-9.7172993E-1,-1.3977627E-1,-1.3064475E0,4.17644E-1,-3.6505216E-1,2.2916438E-1,-2.5973508E-1,3.7514776E-1,3.8594905E-1,1.1920152E-1,-2.0097297E-1,2.8732765E-1,1.1942693E-1,-3.503839E-1,2.685881E-1,-3.0058898E-2,3.8888586E-1,-1.01349376E-1,-3.1001103E-1,3.2165176E-1,4.136537E-1,-2.4426262E-1,-1.5085582E-1,2.1493495E-1,-2.758155E-1,2.5288367E-1,3.248371E-1,-8.937337E-2,-2.2414918E-1,2.8602862E-1,-1.5079948E-1,-3.9230666E-1,5.624706E-1,1.404709E-1,4.1067368E-1,-2.393559E-2,-3.1571704E-1,9.566305E-2,2.9279125E-1,-2.081414E-1,-4.7560368E-2,-3.4281963E-1,1.5783018E-1,-2.8363484E-1,-9.4408765E-2,-4.367167E-1,2.7450663E-1,-2.2370578E-1],"categories":[],"categories_nodes":[],"categories_segments":[],"categories_sizes":[],"default_left":[0,0,0,0,0,0,0,0,0,0,0,0,0,0,0,0,0,0,0,0,0,0,0,0,0,0,0,0,0,0,0,0,0,0,0,0,0,0,0,0,0,0,0,0,0,0,0,0,0,0,0,0,0,0,0,0,0,0,0,0,0,0,0,0,0,0,0,0,0,0,0,0,0,0,0,0,0,0,0,0,0,0,0,0,0,0,0,0,0,0,0,0,0,0,0,0,0,0,0,0,0],"id":3,"left_children":[1,3,5,7,9,11,13,15,17,19,-1,21,23,25,27,29,31,33,35,37,39,41,43,45,47,49,51,53,55,57,59,61,63,-1,-1,65,67,-1,-1,-1,-1,69,71,73,75,77,79,81,83,85,87,89,91,93,95,97,99,-1,-1,-1,-1,-1,-1,-1,-1,-1,-1,-1,-1,-1,-1,-1,-1,-1,-1,-1,-1,-1,-1,-1,-1,-1,-1,-1,-1,-1,-1,-1,-1,-1,-1,-1,-1,-1,-1,-1,-1,-1,-1,-1,-1],"loss_changes":[4.2070198E1,1.6746262E1,2.9577595E1,7.9282722E0,8.504666E0,4.434333E1,2.5404984E1,7.010559E0,9.363241E0,3.554454E0,0E0,1.6845926E1,2.0650799E1,2.3365047E1,1.7444698E1,1.9971893E1,2.3793678E0,2.845274E0,4.2141E0,4.7537217E0,3.386782E0,1.31882515E1,1.6263926E1,1.3316521E1,2.618669E1,1.7738392E1,2.3878738E1,1.0252884E1,1.4217684E1,9.1637335E0,7.1404095E0,1.9802094E-2,3.8326788E0,0E0,0E0,3.5323725E0,8.280001E-1,0E0,0E0,0E0,0E0,1.6245317E1,9.285664E0,2.1863667E1,1.828883E1,1.5262361E1,1.0669289E1,7.212435E0,1.8510361E0,6.00914E-1,1.6346859E1,1.8232428E1,1.5562908E1,1.2367722E1,1.0779154E1,4.358883E-1,1.4008702E1,0E0,0E0,0E0,0E0,0E0,0E0,0E0,0E0,0E0,0E0,0E0,0E0,0E0,0E0,0E0,0E0,0E0,0E0,0E0,0E0,0E0,0E0,0E0,0E0,0E0,0E0,0E0,0E0,0E0,0E0,0E0,0E0,0E0,0E0,0E0,0E0,0E0,0E0,0E0,0E0,0E0,0E0,0E0,0E0],"parents":[2147483647,0,0,1,1,2,2,3,3,4,4,5,5,6,6,7,7,8,8,9,9,11,11,12,12,13,13,14,14,15,15,16,16,17,17,18,18,19,19,20,20,21,21,22,22,23,23,24,24,25,25,26,26,27,27,28,28,29,29,30,30,31,31,32,32,35,35,36,36,41,41,42,42,43,43,44,44,45,45,46,46,47,47,48,48,49,49,50,50,51,51,52,52,53,53,54,54,55,55,56,56],"right_children":[2,4,6,8,10,12,14,16,18,20,-1,22,24,26,28,30,32,34,36,38,40,42,44,46,48,50,52,54,56,58,60,62,64,-1,-1,66,68,-1,-1,-1,-1,70,72,74,76,78,80,82,84,86,88,90,92,94,96,98,100,-1,-1,-1,-1,-1,-1,-1,-1,-1,-1,-1,-1,-1,-1,-1,-1,-1,-1,-1,-1,-1,-1,-1,-1,-1,-1,-1,-1,-1,-1,-1,-1,-1,-1,-1,-1,-1,-1,-1,-1,-1,-1,-1,-1],"split_conditions":[4.705E1,3.07E2,1E-2,1.0281953E0,-5.394E3,1.723E1,3.0381E4,3.5674E0,7.132E3,3.7E-1,-3.4411883E-1,4.659E2,4.1E1,9.922837E-1,2.9562261E-2,3.9E-1,9.823848E2,1.8033909E-2,1.98E2,-4.9816016E-2,2.276669E-2,1.6696995E-2,2E-2,-1E-2,1.7381076E0,7.803217E-1,2.2E0,2.386332E-2,8.1E1,1.3862532E-2,4.25943E-3,4.654E1,3.7434906E1,3.4235355E-1,-1.00436606E-1,9.29E1,1.89E2,-2.3451364E-1,3.1008402E-1,-2.9731154E-1,1.8474379E-1,-3.3525E4,8.1E1,-6.971937E-2,3.8E1,1.4E-1,7.4795616E1,1.8949478E1,-4.004409E-2,1.6010081E-2,5.833E1,1.30475E3,4.4724026E1,5.033E1,1.0031332E0,-1.1838006E-1,1.0409642E0,-3.6505216E-1,2.2916438E-1,-2.5973508E-1,3.7514776E-1,3.8594905E-1,1.1920152E-1,-2.0097297E-1,2.8732765E-1,1.1942693E-1,-3.503839E-1,2.685881E-1,-3.0058898E-2,3.8888586E-1,-1.01349376E-1,-3.1001103E-1,3.2165176E-1,4.136537E-1,-2.4426262E-1,-1.5085582E-1,2.1493495E-1,-2.758155E-1,2.5288367E-1,3.248371E-1,-8.937337E-2,-2.2414918E-1,2.8602862E-1,-1.5079948E-1,-3.9230666E-1,5.624706E-1,1.404709E-1,4.1067368E-1,-2.393559E-2,-3.1571704E-1,9.566305E-2,2.9279125E-1,-2.081414E-1,-4.7560368E-2,-3.4281963E-1,1.5783018E-1,-2.8363484E-1,-9.4408765E-2,-4.367167E-1,2.7450663E-1,-2.2370578E-1],"split_indices":[13,31,42,1,20,45,19,10,20,41,0,37,24,1,15,41,38,7,31,48,7,15,43,42,21,21,41,8,31,9,12,13,17,0,0,32,24,0,0,0,0,19,31,40,26,41,18,17,6,11,13,38,17,13,1,46,2,0,0,0,0,0,0,0,0,0,0,0,0,0,0,0,0,0,0,0,0,0,0,0,0,0,0,0,0,0,0,0,0,0,0,0,0,0,0,0,0,0,0,0,0],"split_type":[0,0,0,0,0,0,0,0,0,0,0,0,0,0,0,0,0,0,0,0,0,0,0,0,0,0,0,0,0,0,0,0,0,0,0,0,0,0,0,0,0,0,0,0,0,0,0,0,0,0,0,0,0,0,0,0,0,0,0,0,0,0,0,0,0,0,0,0,0,0,0,0,0,0,0,0,0,0,0,0,0,0,0,0,0,0,0,0,0,0,0,0,0,0,0,0,0,0,0,0,0],"sum_hessian":[6.880366E2,1.0092134E2,5.8711523E2,8.444246E1,1.6478888E1,3.185566E2,2.6855865E2,6.769273E1,1.6749725E1,1.0222159E1,6.256727E0,1.9194794E2,1.2660868E2,1.340812E2,1.3447743E2,2.754616E1,4.0146572E1,7.537261E0,9.212465E0,6.422036E0,3.8001235E0,6.5243126E1,1.2670482E2,9.344626E1,3.3162422E1,5.6109837E1,7.797137E1,1.0740716E2,2.7070276E1,9.251057E0,1.8295103E1,3.5956295E1,4.190276E0,6.422584E0,1.1146766E0,7.0055156E0,2.2069497E0,1.0702126E0,5.351824E0,2.5569618E0,1.2431618E0,4.5338985E1,1.9904137E1,7.9014145E1,4.7690674E1,1.7725445E1,7.572081E1,1.7376598E1,1.5785825E1,7.9148664E0,4.819497E1,5.4509163E1,2.34622E1,8.924192E1,1.8165243E1,5.0387425E0,2.2031534E1,6.691993E0,2.559063E0,1.0545076E0,1.7240597E1,3.482514E1,1.1311525E0,1.4885108E0,2.7017653E0,1.2971942E0,5.708321E0,1.1306859E0,1.0762637E0,6.173876E0,3.916511E1,1.5537966E0,1.835034E1,3.9452553E0,7.5068886E1,2.6282293E1,2.1408382E1,8.280875E0,9.44457E0,7.005872E1,5.6620893E0,2.182228E0,1.519437E1,6.678407E0,9.107418E0,6.75858E0,1.1562861E0,8.671927E0,3.9523045E1,4.2543365E1,1.1965799E1,1.6005222E1,7.4569783E0,1.5840413E1,7.3401505E1,1.0135449E1,8.029794E0,1.0658194E0,3.972923E0,1.5582663E1,6.448872E0],"tree_param":{"num_deleted":"0","num_feature":"56","num_nodes":"101","size_leaf_vector":"1"}},{"base_weights":[3.0831792E-4,5.285504E-1,-7.9902835E-2,6.9253993E-1,-2.695841E-1,-2.2936873E-1,2.0416576E-1,8.093765E-1,4.606978E-2,2.4590121E-1,-3.1024554E-1,2.7183855E-3,-6.1195797E-1,8.102905E-1,6.442762E-3,-3.859817E-1,8.791307E-1,6.7285484E-1,-5.0571793E-1,-2.7653503E-1,7.507398E-1,-5.563209E-1,1.6310352E-1,-7.448302E-1,5.228286E-1,-8.772797E-1,9.984916E-1,1.8019983E-1,-7.495656E-1,1.2924646E-1,-2.8808883E-1,1.0708514E0,4.644333E-1,2.9510334E-1,-1.2064894E-1,1.5059444E-1,-8.7029725E-1,2.1696879E-1,-8.221085E-1,-8.6009195E-3,3.148684E-1,7.9404026E-1,-1.1640601E0,4.7603562E-1,-5.380157E-1,-2.8873032E-1,-9.103412E-1,7.7907604E-1,-2.5346425E-1,-3.0046576E-1,-6.2376525E-2,-1.3736641E-1,1.1969948E0,9.4803804E-1,-1.137748E-1,-3.9470467E-1,6.513083E-1,3.3529454E-1,3.82654E-2,-1.0988674E-1,3.379504E-1,-3.430831E-1,-4.014421E-2,-7.629138E-2,-2.7797937E-1,3.512504E-1,-1.9618492E-1,-4.008676E-1,-7.2432826E-3,2.0069428E-1,-1.6721082E-1,7.132936E-2,-2.7060017E-1,-1.6614509E-1,3.0735478E-1,4.209348E-2,-2.945071E-1,3.086357E-1,-2.2009222E-1,3.499324E-1,-2.4639706E-1,1.5069383E-1,3.7635893E-1,3.107889E-1,-2.0472199E-1,-2.047726E-1,8.742955E-2,-1.6647683E-1,2.9772884E-1],"categories":[],"categories_nodes":[],"categories_segments":[],"categories_sizes":[],"default_left":[0,0,0,0,0,0,0,0,0,0,0,0,0,0,0,0,0,0,0,0,0,0,0,0,0,0,0,0,0,0,0,0,0,0,0,0,0,0,0,0,0,0,0,0,0,0,0,0,0,0,0,0,0,0,0,0,0,0,0,0,0,0,0,0,0,0,0,0,0,0,0,0,0,0,0,0,0,0,0,0,0,0,0,0,0,0,0,0,0],"id":4,"left_children":[1,3,5,7,9,11,13,15,17,19,-1,21,23,25,27,29,31,33,35,37,39,41,43,45,47,49,51,53,55,-1,-1,57,59,-1,-1,-1,61,-1,63,-1,-1,65,67,69,71,73,75,77,-1,-1,-1,79,81,83,85,-1,87,-1,-1,-1,-1,-1,-1,-1,-1,-1,-1,-1,-1,-1,-1,-1,-1,-1,-1,-1,-1,-1,-1,-1,-1,-1,-1,-1,-1,-1,-1,-1,-1],"loss_changes":[2.6544733E1,1.0996305E1,2.3140047E1,5.158634E0,6.085974E0,3.1688284E1,2.2530964E1,5.1922493E0,4.348715E0,2.751646E0,0E0,2.0095213E1,2.0706413E1,1.5563639E1,1.889344E1,2.2450662E0,3.8991623E0,2.352107E0,2.9111042E0,3.57875E0,1.2353024E0,4.1929787E1,3.8463963E1,8.873909E0,5.814047E0,2.2199774E-1,9.650738E0,2.649934E1,2.2174728E1,0E0,0E0,1.4929314E0,1.0999118E1,0E0,0E0,0E0,9.160733E-1,0E0,2.1281242E-3,0E0,0E0,9.551118E0,6.8098297E0,2.4486176E1,1.5521814E1,1.2296043E1,6.7601547E0,5.631399E0,0E0,0E0,0E0,7.3393636E0,8.0539703E-1,5.3628006E0,1.9891592E1,0E0,4.0092688E0,0E0,0E0,0E0,0E0,0E0,0E0,0E0,0E0,0E0,0E0,0E0,0E0,0E0,0E0,0E0,0E0,0E0,0E0,0E0,0E0,0E0,0E0,0E0,0E0,0E0,0E0,0E0,0E0,0E0,0E0,0E0,0E0],"parents":[2147483647,0,0,1,1,2,2,3,3,4,4,5,5,6,6,7,7,8,8,9,9,11,11,12,12,13,13,14,14,15,15,16,16,17,17,18,18,19,19,20,20,21,21,22,22,23,23,24,24,25,25,26,26,27,27,28,28,31,31,32,32,36,36,38,38,41,41,42,42,43,43,44,44,45,45,46,46,47,47,51,51,52,52,53,53,54,54,56,56],"right_children":[2,4,6,8,10,12,14,16,18,20,-1,22,24,26,28,30,32,34,36,38,40,42,44,46,48,50,52,54,56,-1,-1,58,60,-1,-1,-1,62,-1,64,-1,-1,66,68,70,72,74,76,78,-1,-1,-1,80,82,84,86,-1,88,-1,-1,-1,-1,-1,-1,-1,-1,-1,-1,-1,-1,-1,-1,-1,-1,-1,-1,-1,-1,-1,-1,-1,-1,-1,-1,-1,-1,-1,-1,-1,-1],"split_conditions":[4.654E1,3.07E2,1.284E3,1.0348262E0,-5.394E3,5.038E2,9.1E1,-1.7526E4,7.132E3,3.44E2,-3.1024554E-1,8.1E1,4.260348E-2,1.359E1,9.039E2,1.04E2,9.0095E2,9.631E1,5.995204E-2,4.596E2,4.531E2,1.81E3,8.035E1,7.34127E-2,1.4692308E-1,8.491193E-3,1.669E0,8.403E1,3.5178844E-2,1.2924646E-1,-2.8808883E-1,1.8496143E-2,4E1,2.9510334E-1,-1.2064894E-1,1.5059444E-1,1.363375E-2,2.1696879E-1,1.0261827E-2,-8.6009195E-3,3.148684E-1,3.9902332E1,4.95E2,1.3022E4,-3.8799714E-2,5.06E0,-2.0961538E-1,4.929432E-3,-2.5346425E-1,-3.0046576E-1,-6.2376525E-2,1.779287E-3,9.509674E-3,8.174647E-3,1.98E2,-3.9470467E-1,7.184636E-3,3.3529454E-1,3.82654E-2,-1.0988674E-1,3.379504E-1,-3.430831E-1,-4.014421E-2,-7.629138E-2,-2.7797937E-1,3.512504E-1,-1.9618492E-1,-4.008676E-1,-7.2432826E-3,2.0069428E-1,-1.6721082E-1,7.132936E-2,-2.7060017E-1,-1.6614509E-1,3.0735478E-1,4.209348E-2,-2.945071E-1,3.086357E-1,-2.2009222E-1,3.499324E-1,-2.4639706E-1,1.5069383E-1,3.7635893E-1,3.107889E-1,-2.0472199E-1,-2.047726E-1,8.742955E-2,-1.6647683E-1,2.9772884E-1],"split_indices":[13,31,38,1,20,37,31,20,20,31,0,31,40,45,37,31,38,32,23,37,37,19,13,22,23,15,10,13,15,0,0,3,26,0,0,0,7,0,12,0,0,39,37,20,6,41,46,35,0,0,0,6,9,35,31,0,12,0,0,0,0,0,0,0,0,0,0,0,0,0,0,0,0,0,0,0,0,0,0,0,0,0,0,0,0,0,0,0,0],"split_type":[0,0,0,0,0,0,0,0,0,0,0,0,0,0,0,0,0,0,0,0,0,0,0,0,0,0,0,0,0,0,0,0,0,0,0,0,0,0,0,0,0,0,0,0,0,0,0,0,0,0,0,0,0,0,0,0,0,0,0,0,0,0,0,0,0,0,0,0,0,0,0,0,0,0,0,0,0,0,0,0,0,0,0,0,0,0,0,0,0],"sum_hessian":[6.244882E2,8.1588165E1,5.429001E2,6.7791595E1,1.3796572E1,3.5585532E2,1.8704474E2,5.720156E1,1.0590035E1,8.645798E0,5.1507735E0,2.2211084E2,1.3374448E2,4.5245483E1,1.4179926E2,2.90395E0,5.429761E1,4.8553505E0,5.7346845E0,4.471088E0,4.1747103E0,4.8966003E1,1.7314484E2,1.20033394E2,1.3711077E1,4.1722407E0,4.1073242E1,1.1591874E2,2.5880526E1,1.3020272E0,1.6019228E0,3.604926E1,1.8248352E1,3.8322792E0,1.0230713E0,1.4234319E0,4.3112526E0,1.4635319E0,3.007556E0,1.407532E0,2.7671783E0,1.5102525E1,3.386348E1,1.1993501E2,5.3209824E1,3.2691013E1,8.7342384E1,1.1910047E1,1.8010298E0,3.1003442E0,1.0718968E0,6.1559834E0,3.491726E1,3.1477398E1,8.444134E1,1.84752E1,7.405325E0,3.4169296E1,1.8799632E0,8.2914715E0,9.956881E0,2.7411847E0,1.570068E0,1.0011276E0,2.0064282E0,1.2135932E1,2.9665926E0,2.9270454E1,4.593025E0,1.0136245E2,1.8572563E1,1.710334E1,3.6106483E1,2.7681599E1,5.009413E0,5.4927144E0,8.184967E1,1.0497152E1,1.4128942E0,1.8754454E0,4.280538E0,3.4149883E0,3.150227E1,3.021273E1,1.2646672E0,3.4844532E1,4.959681E1,1.4943664E0,5.9109583E0],"tree_param":{"num_deleted":"0","num_feature":"56","num_nodes":"89","size_leaf_vector":"1"}},{"base_weights":[-1.4619433E-3,-5.8455E-2,6.2315667E-1,1.0383294E-2,-5.1409096E-1,1.0333937E0,-2.3024479E-1,2.0234686E-1,-1.8260185E-1,1.0372875E0,-6.402918E-1,2.4681002E-2,1.0733216E0,-8.555295E-1,9.5183593E-1,-1.3052386E-1,4.5536977E-1,-3.597426E-1,2.0375967E-1,3.4137633E-1,9.063792E-2,-1.03152E0,-2.8143606E-1,1.1126672E0,1.784757E-2,-1.1316984E0,1.2669335E-1,3.124143E-1,7.7050254E-2,2.5239846E-1,-5.02206E-1,8.562299E-1,4.5510132E-2,-4.4712964E-1,8.123298E-1,7.7010375E-1,-7.015364E-2,-1.1217874E0,1.0771704E-1,1.8089187E-1,-8.5090685E-1,5.559746E-1,3.5860914E-1,-3.637996E-1,-7.9585604E-2,2.5718802E-1,-1.9608873E-1,1.3651413E-1,-2.824508E-1,-2.0371997E-1,2.6020443E-1,-2.2088158E-1,2.794291E-1,-1.8858266E-1,8.576362E-2,-1.5155186E-1,3.4372666E-1,-2.3469512E-1,3.6064866E-1,2.9418978E-1,-2.6239595E-1,-2.4842884E-1,3.8029887E-2,-4.7351398E-2,-3.457654E-1,-2.6495788E-1,1.279246E-1,1.0346911E-1,-2.8738517E-1,2.9102084E-1,-1.5908305E-1],"categories":[],"categories_nodes":[],"categories_segments":[],"categories_sizes":[],"default_left":[0,0,0,0,0,0,0,0,0,0,0,0,0,0,0,0,0,0,0,0,0,0,0,0,0,0,0,0,0,0,0,0,0,0,0,0,0,0,0,0,0,0,0,0,0,0,0,0,0,0,0,0,0,0,0,0,0,0,0,0,0,0,0,0,0,0,0,0,0,0,0],"id":5,"left_children":[1,3,5,7,9,11,13,15,17,19,21,-1,23,25,27,29,31,33,35,-1,-1,37,39,41,-1,43,45,-1,-1,47,49,51,53,55,57,59,61,63,-1,65,67,69,-1,-1,-1,-1,-1,-1,-1,-1,-1,-1,-1,-1,-1,-1,-1,-1,-1,-1,-1,-1,-1,-1,-1,-1,-1,-1,-1,-1,-1],"loss_changes":[2.0266554E1,1.6367834E1,1.6903423E1,1.686277E1,1.4073681E1,1.1395035E0,1.2841432E1,1.92768E1,1.5610352E1,6.562805E-2,8.688875E0,0E0,1.1681976E0,3.1730719E0,1.1234093E-1,1.4261697E1,2.1295849E1,1.634273E1,1.1223696E1,0E0,0E0,4.196495E0,9.298699E0,7.041931E-1,0E0,2.969246E-1,2.4704769E0,0E0,0E0,1.2424654E1,1.2877113E1,8.540932E0,1.0754765E1,1.4062014E1,7.8904257E0,9.014197E0,7.485139E0,6.6690445E-1,0E0,5.600442E0,2.3450117E0,3.085099E0,0E0,0E0,0E0,0E0,0E0,0E0,0E0,0E0,0E0,0E0,0E0,0E0,0E0,0E0,0E0,0E0,0E0,0E0,0E0,0E0,0E0,0E0,0E0,0E0,0E0,0E0,0E0,0E0,0E0],"parents":[2147483647,0,0,1,1,2,2,3,3,4,4,5,5,6,6,7,7,8,8,9,9,10,10,12,12,13,13,14,14,15,15,16,16,17,17,18,18,21,21,22,22,23,23,25,25,26,26,29,29,30,30,31,31,32,32,33,33,34,34,35,35,36,36,37,37,39,39,40,40,41,41],"right_children":[2,4,6,8,10,12,14,16,18,20,22,-1,24,26,28,30,32,34,36,-1,-1,38,40,42,-1,44,46,-1,-1,48,50,52,54,56,58,60,62,64,-1,66,68,70,-1,-1,-1,-1,-1,-1,-1,-1,-1,-1,-1,-1,-1,-1,-1,-1,-1,-1,-1,-1,-1,-1,-1,-1,-1,-1,-1,-1,-1],"split_conditions":[5.3269E0,1.0077E2,5.8107E1,9.977311E-1,-1.7325E4,-3.543783E-2,2.8663447E-2,1.0660992E-2,9.562E1,6E0,2.329799E-2,2.4681002E-2,1.0003E2,2.6025869E-2,1.0097E3,3.968254E-1,3.6E1,1.2E1,3.7330086E1,3.4137633E-1,9.063792E-2,5.2E1,3.968254E-1,1.3818908E-2,1.784757E-2,8.403E1,6.4791E4,3.124143E-1,7.7050254E-2,1.6393442E-1,1.9547153E-2,2.0797378E-3,-1.0445E4,8.485E3,4.967E2,8.983308E-2,-8.022249E-3,5.217912E-3,1.0771704E-1,1.13E2,3.4808E1,7.3512204E-2,3.5860914E-1,-3.637996E-1,-7.9585604E-2,2.5718802E-1,-1.9608873E-1,1.3651413E-1,-2.824508E-1,-2.0371997E-1,2.6020443E-1,-2.2088158E-1,2.794291E-1,-1.8858266E-1,8.576362E-2,-1.5155186E-1,3.4372666E-1,-2.3469512E-1,3.6064866E-1,2.9418978E-1,-2.6239595E-1,-2.4842884E-1,3.8029887E-2,-4.7351398E-2,-3.457654E-1,-2.6495788E-1,1.279246E-1,1.0346911E-1,-2.8738517E-1,2.9102084E-1,-1.5908305E-1],"split_indices":[10,33,39,1,19,4,15,9,33,25,15,0,33,11,36,22,24,25,16,0,0,26,22,15,0,13,19,0,0,23,15,35,20,24,36,6,34,7,0,31,39,40,0,0,0,0,0,0,0,0,0,0,0,0,0,0,0,0,0,0,0,0,0,0,0,0,0,0,0,0,0],"split_type":[0,0,0,0,0,0,0,0,0,0,0,0,0,0,0,0,0,0,0,0,0,0,0,0,0,0,0,0,0,0,0,0,0,0,0,0,0,0,0,0,0,0,0,0,0,0,0,0,0,0,0,0,0,0,0,0,0,0,0,0,0,0,0,0,0,0,0,0,0,0,0],"sum_hessian":[5.6727924E2,5.206767E2,4.660251E1,4.531858E2,6.7490906E1,3.1330683E1,1.5271825E1,2.271699E2,2.2601588E2,4.534108E0,6.2956802E1,1.3855659E0,2.9945116E1,1.016899E1,5.1028347E0,9.831425E1,1.2885567E2,1.550135E2,7.100239E1,3.5062919E0,1.0278163E0,2.922306E1,3.373374E1,2.873255E1,1.2125665E0,7.8185024E0,2.3504877E0,4.0789156E0,1.023919E0,4.858298E1,4.9731266E1,6.459244E1,6.426322E1,1.4483356E2,1.0179943E1,2.2555363E1,4.844703E1,2.762323E1,1.5998311E0,1.8994944E1,1.4738796E1,4.7150517E0,2.4017498E1,6.7848167E0,1.0336857E0,1.1629765E0,1.1875111E0,4.2062325E1,6.5206556E0,4.4490105E1,5.2411613E0,2.516223E0,6.2076218E1,1.646673E1,4.7796494E1,1.4040036E2,4.433196E0,1.8019769E0,8.377966E0,2.0353853E1,2.2015095E0,9.33015E0,3.911688E1,1.04392E0,2.657931E1,3.0742288E0,1.5920715E1,1.0283947E0,1.3710402E1,3.4911363E0,1.2239152E0],"tree_param":{"num_deleted":"0","num_feature":"56","num_nodes":"71","size_leaf_vector":"1"}},{"base_weights":[-2.3370975E-4,-4.5174804E-2,5.552181E-1,1.7038296E-1,-1.5894218E-1,9.9084455E-1,-1.2972945E-1,-4.9041808E-2,7.4348277E-1,-3.430446E-1,9.0881325E-2,1.0372047E0,1.49934E-2,6.122983E-1,-7.756601E-1,5.33054E-1,-2.4094298E-1,1.0444406E0,-3.1204483E-1,1.7312057E-2,-5.6795937E-1,5.524639E-1,-1.6492283E-1,8.298173E-2,1.0937337E0,9.307975E-1,-1.5816839E-1,-1.5138568E-4,-3.1252635E-1,7.131424E-1,-8.5724634E-1,-6.938567E-1,2.3622254E-1,-1.7784771E-1,1.1538522E0,5.825588E-1,-9.894631E-1,-1.3271983E-1,1.0724654E0,-7.806721E-1,-1.8015918E-1,1.470491E-1,1.2220346E0,9.975132E-2,-7.658622E-1,6.408651E-2,3.401105E-1,3.3366207E-2,3.1718308E-1,-2.1930656E-1,2.3753802E-1,2.7665225E-1,-1.425639E-1,2.8432446E-2,-3.8156196E-1,1.4918818E-1,-2.5685844E-1,1.3692544E-1,-1.4433621E-1,2.5421098E-1,-2.6117876E-1,3.822067E-1,1.1327922E-1,-8.005649E-2,2.9236615E-1,-2.7061454E-3,-3.598941E-1,8.5751005E-2,-1.7425355E-1,3.494134E-1,5.3577688E-2,-4.507257E-2,-2.7532786E-1,1.719612E-1,-1.8076885E-1,-8.5281E-2,2.4456356E-1,-1.8790007E-2,3.964425E-1,-6.722246E-2,2.1860258E-1,-3.0504036E-1,-8.046989E-3],"categories":[],"categories_nodes":[],"categories_segments":[],"categories_sizes":[],"default_left":[0,0,0,0,0,0,0,0,0,0,0,0,0,0,0,0,0,0,0,0,0,0,0,0,0,0,0,0,0,0,0,0,0,0,0,0,0,0,0,0,0,0,0,0,0,0,0,0,0,0,0,0,0,0,0,0,0,0,0,0,0,0,0,0,0,0,0,0,0,0,0,0,0,0,0,0,0,0,0,0,0,0,0],"id":6,"left_children":[1,3,5,7,9,11,13,15,17,19,21,23,-1,25,27,29,31,33,35,37,39,41,43,-1,45,47,-1,49,-1,51,53,55,57,59,61,63,65,67,69,71,73,75,77,79,81,-1,-1,-1,-1,-1,-1,-1,-1,-1,-1,-1,-1,-1,-1,-1,-1,-1,-1,-1,-1,-1,-1,-1,-1,-1,-1,-1,-1,-1,-1,-1,-1,-1,-1,-1,-1,-1,-1],"loss_changes":[1.331986E1,1.21329975E1,1.2046163E1,2.1542103E1,1.4915965E1,1.0181103E0,8.340884E0,1.404744E1,1.5386845E1,1.5128239E1,1.639699E1,7.0043373E-1,0E0,3.4655316E0,1.9014311E0,8.424432E0,2.056511E1,5.1696205E0,7.4176583E0,1.1643855E1,9.335766E0,1.324981E1,1.4331593E1,0E0,5.097046E-1,5.8392954E-1,0E0,2.5202942E0,0E0,7.436428E0,1.7123711E0,9.83989E0,7.598531E0,3.5191884E0,2.7097244E0,2.0893798E0,1.3894E0,1.2263785E1,5.4684734E-1,6.2477303E0,1.3708366E1,9.439884E0,2.4487896E0,1.3015545E1,5.0763226E0,0E0,0E0,0E0,0E0,0E0,0E0,0E0,0E0,0E0,0E0,0E0,0E0,0E0,0E0,0E0,0E0,0E0,0E0,0E0,0E0,0E0,0E0,0E0,0E0,0E0,0E0,0E0,0E0,0E0,0E0,0E0,0E0,0E0,0E0,0E0,0E0,0E0,0E0],"parents":[2147483647,0,0,1,1,2,2,3,3,4,4,5,5,6,6,7,7,8,8,9,9,10,10,11,11,13,13,14,14,15,15,16,16,17,17,18,18,19,19,20,20,21,21,22,22,24,24,25,25,27,27,29,29,30,30,31,31,32,32,33,33,34,34,35,35,36,36,37,37,38,38,39,39,40,40,41,41,42,42,43,43,44,44],"right_children":[2,4,6,8,10,12,14,16,18,20,22,24,-1,26,28,30,32,34,36,38,40,42,44,-1,46,48,-1,50,-1,52,54,56,58,60,62,64,66,68,70,72,74,76,78,80,82,-1,-1,-1,-1,-1,-1,-1,-1,-1,-1,-1,-1,-1,-1,-1,-1,-1,-1,-1,-1,-1,-1,-1,-1,-1,-1,-1,-1,-1,-1,-1,-1,-1,-1,-1,-1,-1,-1],"split_conditions":[5.3269E0,4.803E2,5.696467E1,1E0,1.284E3,1.0003E2,6.9314E4,9.732302E-1,1.5650358E-2,8E0,5.3139668E1,1.2335509E-2,1.49934E-2,1.0094159E0,6.38744E-3,9.6541485E-3,4.2039016E-3,7.507087E-3,9.993932E-1,9.9521E4,3.5E2,-3.257E3,1.0245003E0,8.298173E-2,-3.543783E-2,2.063E1,-1.5816839E-1,1.859E1,-3.1252635E-1,3.3E1,9.975127E-1,9E-2,1.0212387E0,1E1,1.0170596E0,1.5589613E-2,4.1E1,1.347E4,1.1215039E-2,-3.724672E-2,4.1196365E1,2.0323E0,3.3589716E-3,1.8060975E-2,9.871E2,6.408651E-2,3.401105E-1,3.3366207E-2,3.1718308E-1,-2.1930656E-1,2.3753802E-1,2.7665225E-1,-1.425639E-1,2.8432446E-2,-3.8156196E-1,1.4918818E-1,-2.5685844E-1,1.3692544E-1,-1.4433621E-1,2.5421098E-1,-2.6117876E-1,3.822067E-1,1.1327922E-1,-8.005649E-2,2.9236615E-1,-2.7061454E-3,-3.598941E-1,8.5751005E-2,-1.7425355E-1,3.494134E-1,5.3577688E-2,-4.507257E-2,-2.7532786E-1,1.719612E-1,-1.8076885E-1,-8.5281E-2,2.4456356E-1,-1.8790007E-2,3.964425E-1,-6.722246E-2,2.1860258E-1,-3.0504036E-1,-8.046989E-3],"split_indices":[10,36,39,28,38,33,19,21,9,24,39,15,0,2,12,12,35,8,2,19,24,19,2,0,4,45,0,45,0,26,0,41,1,52,0,15,26,19,12,5,16,10,12,9,36,0,0,0,0,0,0,0,0,0,0,0,0,0,0,0,0,0,0,0,0,0,0,0,0,0,0,0,0,0,0,0,0,0,0,0,0,0,0],"split_type":[0,0,0,0,0,0,0,0,0,0,0,0,0,0,0,0,0,0,0,0,0,0,0,0,0,0,0,0,0,0,0,0,0,0,0,0,0,0,0,0,0,0,0,0,0,0,0,0,0,0,0,0,0,0,0,0,0,0,0,0,0,0,0,0,0,0,0,0,0,0,0,0,0,0,0,0,0,0,0,0,0,0,0],"sum_hessian":[5.3158765E2,4.9264673E2,3.894092E1,1.700159E2,3.2263083E2,2.3529543E1,1.541138E1,1.2360517E2,4.6410725E1,1.8553291E2,1.3709792E2,2.2327011E1,1.2025317E0,7.196408E0,8.2149725E0,3.0205318E1,9.339985E1,3.612194E1,1.0288783E1,7.16534E1,1.1387951E2,4.8472538E1,8.862538E1,1.9522743E0,2.0374737E1,5.767543E0,1.4288647E0,2.3542595E0,5.8607125E0,2.717265E1,3.0326695E0,4.7684643E1,4.5715206E1,2.9163663E0,3.3205578E1,4.4940014E0,5.7947817E0,6.3498753E1,8.154648E0,7.288706E1,4.0992443E1,3.0951498E1,1.7521042E1,6.2105858E1,2.6519524E1,1.160691E0,1.9214045E1,1.0223235E0,4.7452197E0,1.2643467E0,1.0899127E0,2.3298443E1,3.8742056E0,1.1541215E0,1.878548E0,5.4718437E0,4.22128E1,3.5256588E1,1.045862E1,1.0859854E0,1.830381E0,2.8198925E1,5.00665E0,1.5198587E0,2.9741428E0,1.2070739E0,4.587708E0,3.3019833E1,3.047892E1,7.1171765E0,1.0374713E0,1.3392826E1,5.949424E1,1.4598605E1,2.6393837E1,1.9158598E1,1.1792901E1,1.285379E0,1.6235662E1,4.1421886E1,2.0683968E1,1.9516798E1,7.0027266E0],"tree_param":{"num_deleted":"0","num_feature":"56","num_nodes":"83","size_leaf_vector":"1"}},{"base_weights":[2.5562288E-3,-7.531274E-1,3.2326285E-2,-1.0183002E0,1.8444397E-1,1.7251031E-1,-1.3919677E-1,-3.439669E-2,-3.23503E-1,2.7715176E-1,-1.9835897E-1,3.9588803E-1,-7.657872E-2,1.903642E-1,-3.4848416E-1,4.6097043E-1,-6.098433E-1,8.2751495E-1,-3.103906E-1,1.2713273E0,1.3218045E-1,-5.187014E-1,2.424319E-1,-7.8122056E-1,5.10962E-1,2.2429371E-1,-1.0047401E0,9.9380964E-1,-5.2206326E-1,-5.046215E-2,-8.220534E-1,4.971525E-1,7.045999E-2,5.2243877E-2,2.8641516E-1,3.6953086E-1,-6.1227E-1,-3.0682147E-1,4.2509267E-1,3.2697044E-2,-3.0381176E-1,-2.973798E-2,1.8708423E-1,-5.458181E-2,-3.347273E-1,3.2252425E-1,2.1217419E-2,2.2636982E-2,-2.3853803E-1,-9.511782E-2,3.1257775E-1,-2.6843938E-1,1.976581E-1,5.159041E-2,-1.9974494E-1,-2.0620802E-1,3.547755E-1,-1.03241526E-1,-2.9185927E-1,1.8727374E-1,-1.988694E-1],"categories":[],"categories_nodes":[],"categories_segments":[],"categories_sizes":[],"default_left":[0,0,0,0,0,0,0,0,0,0,0,0,0,0,0,0,0,0,0,0,0,0,0,0,0,0,0,0,0,0,0,0,0,0,0,0,0,0,0,0,0,0,0,0,0,0,0,0,0,0,0,0,0,0,0,0,0,0,0,0,0],"id":7,"left_children":[1,3,5,7,9,11,13,-1,-1,-1,-1,15,17,19,21,23,25,27,29,31,33,35,37,39,41,-1,43,45,47,49,51,-1,-1,53,-1,55,57,-1,59,-1,-1,-1,-1,-1,-1,-1,-1,-1,-1,-1,-1,-1,-1,-1,-1,-1,-1,-1,-1,-1,-1],"loss_changes":[1.106124E1,4.821007E0,1.1396333E1,6.7288685E-1,3.709219E0,1.4536156E1,1.4775476E1,0E0,0E0,0E0,0E0,9.288301E0,2.6489332E1,5.0821466E0,1.3280468E1,8.460497E0,5.465415E0,6.3026867E0,1.3168298E1,1.269494E0,5.2317853E0,8.691397E0,7.351355E0,1.2267892E0,8.680019E0,0E0,4.5824814E-1,1.6710873E0,6.282543E-1,1.982233E1,4.187084E0,0E0,0E0,6.499543E0,0E0,9.690052E0,8.610973E0,0E0,6.2337184E0,0E0,0E0,0E0,0E0,0E0,0E0,0E0,0E0,0E0,0E0,0E0,0E0,0E0,0E0,0E0,0E0,0E0,0E0,0E0,0E0,0E0,0E0],"parents":[2147483647,0,0,1,1,2,2,3,3,4,4,5,5,6,6,11,11,12,12,13,13,14,14,15,15,16,16,17,17,18,18,19,19,20,20,21,21,22,22,23,23,24,24,26,26,27,27,28,28,29,29,30,30,33,33,35,35,36,36,38,38],"right_children":[2,4,6,8,10,12,14,-1,-1,-1,-1,16,18,20,22,24,26,28,30,32,34,36,38,40,42,-1,44,46,48,50,52,-1,-1,54,-1,56,58,-1,60,-1,-1,-1,-1,-1,-1,-1,-1,-1,-1,-1,-1,-1,-1,-1,-1,-1,-1,-1,-1,-1,-1],"split_conditions":[8.8313E-3,6.268483E-3,4.0651337E1,1.304983E1,7.1E1,8.326E1,1E-2,-3.439669E-2,-3.23503E-1,2.7715176E-1,-1.9835897E-1,8.616E2,9.1E1,2.1828E0,2.9562261E-2,3.869E2,2.2E1,3.8823855E0,1.0052391E0,6.964286E-1,5.4519944E0,2.8308332E1,2.8E1,8.266718E-3,1.3E1,2.2429371E-1,1.2092426E-2,5.6463665E1,5.83E2,3.18E2,1.4622382E-2,4.971525E-1,7.045999E-2,3.0786898E0,2.8641516E-1,6.2010536E1,9.9449855E-1,-3.0682147E-1,7.5166664E1,3.2697044E-2,-3.0381176E-1,-2.973798E-2,1.8708423E-1,-5.458181E-2,-3.347273E-1,3.2252425E-1,2.1217419E-2,2.2636982E-2,-2.3853803E-1,-9.511782E-2,3.1257775E-1,-2.6843938E-1,1.976581E-1,5.159041E-2,-1.9974494E-1,-2.0620802E-1,3.547755E-1,-1.03241526E-1,-2.9185927E-1,1.8727374E-1,-1.988694E-1],"split_indices":[15,12,17,18,31,13,43,0,0,0,0,37,31,10,15,36,24,21,1,22,21,39,31,48,26,0,7,39,37,31,12,0,0,21,0,17,1,0,39,0,0,0,0,0,0,0,0,0,0,0,0,0,0,0,0,0,0,0,0,0,0],"split_type":[0,0,0,0,0,0,0,0,0,0,0,0,0,0,0,0,0,0,0,0,0,0,0,0,0,0,0,0,0,0,0,0,0,0,0,0,0,0,0,0,0,0,0,0,0,0,0,0,0,0,0,0,0,0,0,0,0,0,0,0,0],"sum_hessian":[4.8959964E2,1.7635735E1,4.719639E2,1.3680408E1,3.955326E0,2.597044E2,2.122595E2,1.0336474E0,1.264676E1,2.0608907E0,1.8944356E0,1.3660797E2,1.2309644E2,8.247619E1,1.2978331E2,1.2881389E2,7.794082E0,2.477157E1,9.8324875E1,3.1476452E0,7.9328545E1,1.00853905E2,2.8929413E1,4.4176273E0,1.24396255E2,1.555085E0,6.238997E0,2.2288769E1,2.4828012E0,6.593038E1,3.2394497E1,1.8573298E0,1.2903153E0,7.327133E1,6.0572114E0,9.330609E0,9.152329E1,3.0695515E0,2.5859861E1,1.0208743E0,3.396753E0,1.9408098E1,1.0498816E2,1.0554465E0,5.183551E0,2.0333857E1,1.9549125E0,1.0057272E0,1.477074E0,5.356709E1,1.2363292E1,3.1254988E1,1.1395081E0,6.345227E1,9.81906E0,4.124177E0,5.206433E0,5.3612408E1,3.7910885E1,2.2218988E1,3.6408722E0],"tree_param":{"num_deleted":"0","num_feature":"56","num_nodes":"61","size_leaf_vector":"1"}},{"base_weights":[2.2690879E-6,-1.7776446E-1,1.16566636E-1,2.0116323E-1,-3.3987963E-1,2.751539E-1,-1.5946624E-1,-1.7123187E-1,7.7923006E-1,6.869384E-1,-4.4227937E-1,-7.1069527E-1,3.24978E-1,4.671874E-1,-2.9723606E-1,2.7331904E-1,-7.3186827E-1,1.1036669E0,-2.0288703E-1,1.1454544E0,-5.8317876E-1,-1.0323451E-1,-6.491458E-1,1.03447326E-1,-9.1497E-1,1.09442435E-1,5.77096E-1,9.603967E-1,-6.1887276E-1,-7.037951E-1,-3.0582354E-3,7.456806E-1,-3.1774485E-1,-9.53626E-1,4.622201E-1,-4.814449E-3,1.1873194E0,-3.6310124E-1,6.470909E-1,7.242473E-2,3.7111974E-1,-2.2601475E-1,-1.5912293E-2,3.8461193E-1,-4.9686214E-1,-9.406751E-1,-2.2745214E-1,1.4092872E-2,-1.0728052E0,3.4245348E-1,-3.6426294E-1,-5.76475E-1,7.0663065E-1,-4.1744667E-1,1.3223147E0,2.1972774E-1,-3.260561E-1,2.329586E-3,-9.939005E-1,2.3160073E-1,-5.669109E-1,3.4360555E-1,-1.1684593E-1,-2.3462771E-1,2.2218649E-1,-3.1913E-1,5.815244E-2,-6.101817E-2,2.6503792E-1,1.10099524E-1,3.6760655E-1,2.683571E-1,-1.199286E-2,2.7637878E-1,-8.889098E-2,-2.135576E-1,1.8824057E-1,-2.966673E-1,1.1256767E-1,8.276164E-2,-1.955895E-1,-7.755656E-2,-3.5508806E-1,1.5328892E-1,-1.8898726E-1,-2.7105367E-1,-4.726325E-3,-3.021774E-1,2.6349887E-1,1.7957317E-2,2.6157916E-1,-2.3681498E-1,5.7640508E-2,4.8907307E-1,1.6242084E-1,-1.3465811E-1,2.6007065E-1,6.9717728E-3,-3.160879E-1,-1.3498574E-1,1.6899703E-1,7.405476E-2,-2.9827666E-1],"categories":[],"categories_nodes":[],"categories_segments":[],"categories_sizes":[],"default_left":[0,0,0,0,0,0,0,0,0,0,0,0,0,0,0,0,0,0,0,0,0,0,0,0,0,0,0,0,0,0,0,0,0,0,0,0,0,0,0,0,0,0,0,0,0,0,0,0,0,0,0,0,0,0,0,0,0,0,0,0,0,0,0,0,0,0,0,0,0,0,0,0,0,0,0,0,0,0,0,0,0,0,0,0,0,0,0,0,0,0,0,0,0,0,0,0,0,0,0,0,0,0,0],"id":8,"left_children":[1,3,5,7,9,11,13,15,17,19,21,23,25,27,29,31,33,35,37,39,41,43,45,-1,47,49,51,53,55,57,59,61,63,65,67,-1,69,-1,71,-1,-1,-1,-1,73,75,77,79,-1,81,83,85,87,89,91,93,-1,-1,95,97,99,101,-1,-1,-1,-1,-1,-1,-1,-1,-1,-1,-1,-1,-1,-1,-1,-1,-1,-1,-1,-1,-1,-1,-1,-1,-1,-1,-1,-1,-1,-1,-1,-1,-1,-1,-1,-1,-1,-1,-1,-1,-1,-1],"loss_changes":[9.518257E0,1.1243458E1,1.2188515E1,1.2002626E1,1.3739305E1,8.903766E0,8.933203E0,8.762039E0,7.164708E0,7.6441846E0,8.125019E0,2.2146616E0,9.107275E0,1.0636568E1,1.0058254E1,5.7897496E0,4.5359E0,1.5672894E0,6.1383348E0,4.5824242E-1,3.065312E-1,8.918705E0,8.680624E0,0E0,1.2124267E0,1.0303214E1,1.1994688E1,7.17653E0,4.883136E0,7.2353477E0,6.7215247E0,5.5969286E0,5.265452E0,1.8958492E0,1.047688E0,0E0,3.0593872E-2,0E0,7.231802E-1,0E0,0E0,0E0,0E0,7.8952436E0,6.6324496E0,3.0649529E0,6.78057E0,0E0,2.9110146E-1,1.0534613E1,5.790725E0,6.1359806E0,7.449318E0,9.505578E-1,1.7050056E0,0E0,0E0,4.789178E0,1.5449905E0,8.365626E0,5.4364166E0,0E0,0E0,0E0,0E0,0E0,0E0,0E0,0E0,0E0,0E0,0E0,0E0,0E0,0E0,0E0,0E0,0E0,0E0,0E0,0E0,0E0,0E0,0E0,0E0,0E0,0E0,0E0,0E0,0E0,0E0,0E0,0E0,0E0,0E0,0E0,0E0,0E0,0E0,0E0,0E0,0E0,0E0],"parents":[2147483647,0,0,1,1,2,2,3,3,4,4,5,5,6,6,7,7,8,8,9,9,10,10,11,11,12,12,13,13,14,14,15,15,16,16,17,17,18,18,19,19,20,20,21,21,22,22,24,24,25,25,26,26,27,27,28,28,29,29,30,30,31,31,32,32,33,33,34,34,36,36,38,38,43,43,44,44,45,45,46,46,48,48,49,49,50,50,51,51,52,52,53,53,54,54,57,57,58,58,59,59,60,60],"right_children":[2,4,6,8,10,12,14,16,18,20,22,24,26,28,30,32,34,36,38,40,42,44,46,-1,48,50,52,54,56,58,60,62,64,66,68,-1,70,-1,72,-1,-1,-1,-1,74,76,78,80,-1,82,84,86,88,90,92,94,-1,-1,96,98,100,102,-1,-1,-1,-1,-1,-1,-1,-1,-1,-1,-1,-1,-1,-1,-1,-1,-1,-1,-1,-1,-1,-1,-1,-1,-1,-1,-1,-1,-1,-1,-1,-1,-1,-1,-1,-1,-1,-1,-1,-1,-1,-1],"split_conditions":[1.507E1,4.655E2,5.4654E1,1.6696995E-2,1.018E1,3.959E2,5.743E2,1.92E2,2.3480203E-2,4.051714E1,2.0661157E-1,2.73E2,3.3747E1,3.3E1,1.7527163E-2,4E1,4.1397667E1,8.7E1,3.1E1,5.5910936E-3,4.5511528E1,9.9670804E-1,1.2333331E-2,1.03447326E-1,-2.0613076E-2,3.1865E1,-2E-2,-1.0881E4,-1.0995644E-1,9.4E1,3.2788627E-2,9.716396E-3,7.6752E4,4.638E2,2.2668E0,-4.814449E-3,6.0057845E-3,-3.6310124E-1,8.5779816E-1,7.242473E-2,3.7111974E-1,-2.2601475E-1,-1.5912293E-2,1.4594025E-2,2.0573737E-2,3.3333334E-1,-4.278804E-3,1.4092872E-2,4E0,5.762307E-2,3.2341335E1,1.4703873E-2,2.5550014E1,2.1966288E1,3E0,2.1972774E-1,-3.260561E-1,8.504E2,7.3992657E-3,1.284E3,5E0,3.4360555E-1,-1.1684593E-1,-2.3462771E-1,2.2218649E-1,-3.1913E-1,5.815244E-2,-6.101817E-2,2.6503792E-1,1.10099524E-1,3.6760655E-1,2.683571E-1,-1.199286E-2,2.7637878E-1,-8.889098E-2,-2.135576E-1,1.8824057E-1,-2.966673E-1,1.1256767E-1,8.276164E-2,-1.955895E-1,-7.755656E-2,-3.5508806E-1,1.5328892E-1,-1.8898726E-1,-2.7105367E-1,-4.726325E-3,-3.021774E-1,2.6349887E-1,1.7957317E-2,2.6157916E-1,-2.3681498E-1,5.7640508E-2,4.8907307E-1,1.6242084E-1,-1.3465811E-1,2.6007065E-1,6.9717728E-3,-3.160879E-1,-1.3498574E-1,1.6899703E-1,7.405476E-2,-2.9827666E-1],"split_indices":[44,37,39,15,44,37,37,31,5,17,22,31,39,26,9,26,39,31,26,7,16,0,8,0,4,39,43,20,6,31,40,4,19,36,10,0,7,0,22,0,0,0,0,15,15,23,11,0,53,6,39,15,16,18,55,0,0,36,9,38,25,0,0,0,0,0,0,0,0,0,0,0,0,0,0,0,0,0,0,0,0,0,0,0,0,0,0,0,0,0,0,0,0,0,0,0,0,0,0,0,0,0,0],"split_type":[0,0,0,0,0,0,0,0,0,0,0,0,0,0,0,0,0,0,0,0,0,0,0,0,0,0,0,0,0,0,0,0,0,0,0,0,0,0,0,0,0,0,0,0,0,0,0,0,0,0,0,0,0,0,0,0,0,0,0,0,0,0,0,0,0,0,0,0,0,0,0,0,0,0,0,0,0,0,0,0,0,0,0,0,0,0,0,0,0,0,0,0,0,0,0,0,0,0,0,0,0,0,0],"sum_hessian":[4.5734726E2,1.8091597E2,2.764313E2,5.4136517E1,1.2677945E2,1.7556712E2,1.0086418E2,3.3353634E1,2.0782883E1,1.0978967E1,1.1580048E2,7.808059E0,1.6775906E2,1.7747522E1,8.311666E1,1.88886E1,1.4465036E1,1.5529152E1,5.2537313E0,8.138937E0,2.8400295E0,4.4449223E1,7.1351265E1,1.1545053E0,6.653554E0,9.121419E1,7.654487E1,1.2284503E1,5.4630194E0,3.430883E1,4.880783E1,1.0353103E1,8.535497E0,1.2369279E1,2.0957577E0,1.1356936E0,1.4393458E1,2.2101507E0,3.0435808E0,1.0833592E0,7.0555778E0,1.8310531E0,1.0089763E0,1.9859299E1,2.4589922E1,4.1458836E1,2.9892427E1,1.0368305E0,5.6167235E0,6.1325737E1,2.9888454E1,7.3791842E0,6.916568E1,2.5235953E0,9.760907E0,1.2599185E0,4.2031007E0,1.0279705E1,2.4029123E1,3.488074E1,1.392709E1,7.650523E0,2.7025793E0,6.114055E0,2.421441E0,1.1352539E1,1.0167391E0,1.0127048E0,1.0830529E0,1.1096767E0,1.3283782E1,2.0157175E0,1.0278631E0,1.0908774E1,8.950524E0,2.0950575E1,3.6393464E0,4.0233162E1,1.2256745E0,1.3836868E1,1.605556E1,1.0720925E0,4.544631E0,5.2672615E1,8.65312E0,1.1108184E1,1.8780272E1,5.930681E0,1.4485034E0,1.4356141E1,5.480954E1,1.384117E0,1.1394784E0,6.2204485E0,3.5404592E0,7.070625E0,3.2090802E0,1.3666009E0,2.2662523E1,1.1302454E1,2.3578287E1,4.9408903E0,8.986199E0],"tree_param":{"num_deleted":"0","num_feature":"56","num_nodes":"103","size_leaf_vector":"1"}},{"base_weights":[-1.3542385E-3,-3.7095096E-2,5.041771E-1,5.1331915E-2,-2.4909727E-1,8.020253E-1,-9.573251E-2,1.1345519E-1,-4.6439576E-1,-5.9624035E-2,-4.6754876E-1,-1.4411458E-2,8.590725E-1,-6.885933E-1,6.3034934E-1,6.746874E-2,7.453965E-1,2.3949973E-1,-5.6436807E-1,-2.2590537E-1,5.01488E-1,-9.713947E-2,-7.355301E-1,1.001928E0,2.7787453E-1,8.0682725E-2,-2.8080368E-1,2.391564E-2,2.4035236E-1,3.2870176E-1,-3.1931028E-2,-3.1300613E-1,9.677662E-1,1.5414292E-1,-7.246017E-1,5.398739E-1,-3.320122E-1,6.92086E-1,-4.4120106E-1,-5.949479E-1,3.342024E-1,1.4937979E-1,-8.074349E-1,3.143861E-1,6.427201E-2,-1.9324584E-1,2.3164971E-1,1.3058797E-1,-2.4897526E-1,9.550606E-2,-4.7489706E-2,1.03194654E-1,-2.2863792E-1,3.3678955E-1,-1.5137029E-3,2.1276143E-1,-2.2763334E-1,1.0979724E-1,-2.4190153E-1,-1.00366525E-1,2.7617943E-1,-1.3133046E-1,1.7614661E-1,2.539813E-1,-1.1719915E-1,2.4319347E-3,-2.008645E-1,-2.895566E-1,4.6034537E-2,2.6998055E-1,-7.966929E-3,-9.3547195E-2,1.5700208E-1,6.680417E-2,-2.591779E-1],"categories":[],"categories_nodes":[],"categories_segments":[],"categories_sizes":[],"default_left":[0,0,0,0,0,0,0,0,0,0,0,0,0,0,0,0,0,0,0,0,0,0,0,0,0,0,0,0,0,0,0,0,0,0,0,0,0,0,0,0,0,0,0,0,0,0,0,0,0,0,0,0,0,0,0,0,0,0,0,0,0,0,0,0,0,0,0,0,0,0,0,0,0,0,0],"id":9,"left_children":[1,3,5,7,9,11,13,15,17,19,21,-1,23,25,27,29,31,-1,33,35,37,39,41,43,45,-1,-1,-1,-1,47,49,51,53,55,57,59,61,63,65,67,69,71,73,-1,-1,-1,-1,-1,-1,-1,-1,-1,-1,-1,-1,-1,-1,-1,-1,-1,-1,-1,-1,-1,-1,-1,-1,-1,-1,-1,-1,-1,-1,-1,-1],"loss_changes":[7.5862594E0,7.3635626E0,5.0306835E0,8.944297E0,4.756177E0,9.4486046E-1,4.778121E0,7.1711464E0,4.241803E0,5.9953527E0,5.243065E0,0E0,1.1757517E0,1.6811101E0,4.119141E-1,6.053882E0,4.246749E0,0E0,3.3831158E0,4.186781E0,2.950542E0,5.272139E0,2.0875797E0,2.7125645E-1,2.7029195E0,0E0,0E0,0E0,0E0,8.294471E0,7.553301E0,1.3435655E0,2.1286755E0,3.5814881E0,2.3818445E0,2.4330113E0,4.5281196E0,2.444706E0,3.2211506E-1,3.2869658E0,2.7381024E0,7.0940703E-1,1.8651848E0,0E0,0E0,0E0,0E0,0E0,0E0,0E0,0E0,0E0,0E0,0E0,0E0,0E0,0E0,0E0,0E0,0E0,0E0,0E0,0E0,0E0,0E0,0E0,0E0,0E0,0E0,0E0,0E0,0E0,0E0,0E0,0E0],"parents":[2147483647,0,0,1,1,2,2,3,3,4,4,5,5,6,6,7,7,8,8,9,9,10,10,12,12,13,13,14,14,15,15,16,16,18,18,19,19,20,20,21,21,22,22,23,23,24,24,29,29,30,30,31,31,32,32,33,33,34,34,35,35,36,36,37,37,38,38,39,39,40,40,41,41,42,42],"right_children":[2,4,6,8,10,12,14,16,18,20,22,-1,24,26,28,30,32,-1,34,36,38,40,42,44,46,-1,-1,-1,-1,48,50,52,54,56,58,60,62,64,66,68,70,72,74,-1,-1,-1,-1,-1,-1,-1,-1,-1,-1,-1,-1,-1,-1,-1,-1,-1,-1,-1,-1,-1,-1,-1,-1,-1,-1,-1,-1,-1,-1,-1,-1],"split_conditions":[5.3269E0,1.7070925E-2,5.8107E1,1.0134E2,3.869E3,-3.543783E-2,2.258E1,1.8134117E-2,-1.7325E4,4.914532E-2,1E0,-1.4411458E-2,4.3236386E-2,-6.207016E-2,1.7406287E-2,3.1811E1,4E0,2.3949973E-1,-2.158277E-2,-2.7248451E-2,1.8103448E-1,3.2730667E1,-2.1716973E-1,1.6059469E-1,5.001E2,8.0682725E-2,-2.8080368E-1,2.391564E-2,2.4035236E-1,2.41E0,1.7857143E-1,6.3E1,1.43578835E-2,4.7619048E-1,4.972E2,9.021E1,2.4242425E-1,1.1272E3,1.0481334E0,9.706E1,-3.4196872E-2,6.4508E4,5.5910936E-3,3.143861E-1,6.427201E-2,-1.9324584E-1,2.3164971E-1,1.3058797E-1,-2.4897526E-1,9.550606E-2,-4.7489706E-2,1.03194654E-1,-2.2863792E-1,3.3678955E-1,-1.5137029E-3,2.1276143E-1,-2.2763334E-1,1.0979724E-1,-2.4190153E-1,-1.00366525E-1,2.7617943E-1,-1.3133046E-1,1.7614661E-1,2.539813E-1,-1.1719915E-1,2.4319347E-3,-2.008645E-1,-2.895566E-1,4.6034537E-2,2.6998055E-1,-7.966929E-3,-9.3547195E-2,1.5700208E-1,6.680417E-2,-2.591779E-1],"split_indices":[10,5,39,33,20,4,45,8,19,6,49,0,4,6,9,39,53,0,3,11,23,39,46,6,36,0,0,0,0,41,22,24,12,22,36,32,23,37,2,32,48,19,7,0,0,0,0,0,0,0,0,0,0,0,0,0,0,0,0,0,0,0,0,0,0,0,0,0,0,0,0,0,0,0,0],"split_type":[0,0,0,0,0,0,0,0,0,0,0,0,0,0,0,0,0,0,0,0,0,0,0,0,0,0,0,0,0,0,0,0,0,0,0,0,0,0,0,0,0,0,0,0,0,0,0,0,0,0,0,0,0,0,0,0,0,0,0,0,0,0,0,0,0,0,0,0,0,0,0,0,0,0,0],"sum_hessian":[4.1783472E2,3.9111002E2,2.6724695E1,2.765272E2,1.1458281E2,1.7633137E1,9.091558E0,2.4749463E2,2.9032581E1,6.204297E1,5.253984E1,1.1188611E0,1.6514275E1,5.033353E0,4.058205E0,2.317378E2,1.5756827E1,1.6174464E0,2.7415134E1,4.8320847E1,1.3722124E1,2.2626925E1,2.9912916E1,1.267494E1,3.8393354E0,1.0156593E0,4.0176935E0,1.3081715E0,2.7500339E0,6.323712E1,1.6850067E2,2.664959E0,1.3091868E1,5.0059104E0,2.2409224E1,5.3830476E0,4.2937798E1,1.1635445E1,2.086679E0,1.0328074E1,1.2298849E1,2.1669905E0,2.7745926E1,1.1663036E1,1.0119041E0,1.2341064E0,2.605229E0,5.8481228E1,4.755895E0,4.4269367E1,1.2423131E2,1.1771224E0,1.4878366E0,1.1161086E1,1.9307822E0,3.2518883E0,1.7540221E0,1.3199382E0,2.1089285E1,1.6696174E0,3.7134304E0,3.8976986E1,3.9608119E0,1.0373193E1,1.2622515E0,1.0281461E0,1.058533E0,6.715942E0,3.6121325E0,4.2069917E0,8.091857E0,1.044711E0,1.1222796E0,1.2895337E0,2.645639E1],"tree_param":{"num_deleted":"0","num_feature":"56","num_nodes":"75","size_leaf_vector":"1"}},{"base_weights":[1.2294884E-3,-6.4291346E-1,2.3007596E-2,-8.281521E-1,7.808208E-2,1.942191E-1,-6.734742E-2,3.5270084E-2,-9.435598E-1,1.6178913E-2,4.2223987E-1,5.009954E-2,-3.270187E-1,-2.4668513E-2,-3.0979952E-1,-5.053714E-1,1.3438444E-1,5.373036E-1,-2.628333E-1,-7.8777306E-2,3.4211224E-1,-1.2529181E-1,-5.8257604E-1,-8.1165576E-1,6.42925E-1,2.5583312E-1,-4.2826697E-1,-3.3720754E-2,6.583232E-1,3.7648404E-1,-2.9307747E-1,1.3916147E-2,-5.7988507E-1,5.893628E-1,-9.409317E-2,-3.4573233E-1,2.061126E-1,-4.2780435E-1,-1.281884E0,9.71502E-2,-2.852134E-1,-1.0819792E-1,4.2520332E-1,1.111601E-1,-1.2959953E-1,1.5320705E-1,-1.8941605E-1,2.009791E-1,-1.5062782E-1,-1.8575636E-1,2.1234085E-1,3.491072E-1,-8.135524E-2,1.4083968E-1,-2.9194396E-2,1.2953947E-1,-2.586777E-1,2.4716514E-1,-9.015094E-2,8.6235024E-2,-2.005465E-1,1.9432364E-1,-1.4400698E-1,1.6709149E-1,-1.5349616E-1,-2.863351E-2,-2.4406481E-1,-8.6501986E-2,-4.4814286E-1],"categories":[],"categories_nodes":[],"categories_segments":[],"categories_sizes":[],"default_left":[0,0,0,0,0,0,0,0,0,0,0,0,0,0,0,0,0,0,0,0,0,0,0,0,0,0,0,0,0,0,0,0,0,0,0,0,0,0,0,0,0,0,0,0,0,0,0,0,0,0,0,0,0,0,0,0,0,0,0,0,0,0,0,0,0,0,0,0,0],"id":10,"left_children":[1,3,5,7,-1,9,11,-1,13,15,17,19,21,-1,-1,23,25,27,29,31,33,35,37,39,41,43,45,47,49,51,-1,53,55,57,59,61,63,65,67,-1,-1,-1,-1,-1,-1,-1,-1,-1,-1,-1,-1,-1,-1,-1,-1,-1,-1,-1,-1,-1,-1,-1,-1,-1,-1,-1,-1,-1,-1],"loss_changes":[5.629356E0,2.4112067E0,6.017072E0,1.3256197E0,0E0,5.44636E0,7.786702E0,0E0,6.8485546E-1,4.7822614E0,4.780673E0,6.6619E0,4.024482E0,0E0,0E0,5.56495E0,4.423467E0,3.5272646E0,4.5383525E0,5.7274776E0,5.8979607E0,3.4093392E0,3.2168589E0,2.1650066E0,3.2914448E0,4.3058887E0,2.5312831E0,3.573061E0,3.0867748E0,3.141075E0,0E0,5.3604503E0,5.869973E0,7.49166E0,4.676032E0,4.0217066E0,5.0393567E0,3.7666225E0,7.9119587E-1,0E0,0E0,0E0,0E0,0E0,0E0,0E0,0E0,0E0,0E0,0E0,0E0,0E0,0E0,0E0,0E0,0E0,0E0,0E0,0E0,0E0,0E0,0E0,0E0,0E0,0E0,0E0,0E0,0E0,0E0],"parents":[2147483647,0,0,1,1,2,2,3,3,5,5,6,6,8,8,9,9,10,10,11,11,12,12,15,15,16,16,17,17,18,18,19,19,20,20,21,21,22,22,23,23,24,24,25,25,26,26,27,27,28,28,29,29,31,31,32,32,33,33,34,34,35,35,36,36,37,37,38,38],"right_children":[2,4,6,8,-1,10,12,-1,14,16,18,20,22,-1,-1,24,26,28,30,32,34,36,38,40,42,44,46,48,50,52,-1,54,56,58,60,62,64,66,68,-1,-1,-1,-1,-1,-1,-1,-1,-1,-1,-1,-1,-1,-1,-1,-1,-1,-1,-1,-1,-1,-1,-1,-1,-1,-1,-1,-1,-1,-1],"split_conditions":[8.8313E-3,6.870826E-3,9.8665446E-1,-1.790464E-2,7.808208E-2,1.2E1,5.06378E-3,3.5270084E-2,1.155E1,-1.2941611E-2,2.41E0,3.8763E0,9.097563E-3,-2.4668513E-2,-3.0979952E-1,2.6E-1,6.485001E-3,-1.5586E4,-5.218527E-2,4.588517E1,1.609589E-1,9.575E1,5.6243815E-2,1E1,4.5747547E-3,2.33E0,1.5943E0,2.6190478E-1,1.870934E1,5.4654E1,-2.9307747E-1,4.658E2,-1.0838608E-1,4.9933693E-3,5.964E1,6.5833914E-1,1.0003E2,3.967931E-3,-9.01312E-2,9.71502E-2,-2.852134E-1,-1.0819792E-1,4.2520332E-1,1.111601E-1,-1.2959953E-1,1.5320705E-1,-1.8941605E-1,2.009791E-1,-1.5062782E-1,-1.8575636E-1,2.1234085E-1,3.491072E-1,-8.135524E-2,1.4083968E-1,-2.9194396E-2,1.2953947E-1,-2.586777E-1,2.4716514E-1,-9.015094E-2,8.6235024E-2,-2.005465E-1,1.9432364E-1,-1.4400698E-1,1.6709149E-1,-1.5349616E-1,-2.863351E-2,-2.4406481E-1,-8.6501986E-2,-4.4814286E-1],"split_indices":[15,12,1,11,0,53,34,0,44,11,41,10,11,0,0,43,35,20,6,17,23,33,14,52,35,41,10,22,17,39,0,36,46,35,13,21,32,48,46,0,0,0,0,0,0,0,0,0,0,0,0,0,0,0,0,0,0,0,0,0,0,0,0,0,0,0,0,0,0],"split_type":[0,0,0,0,0,0,0,0,0,0,0,0,0,0,0,0,0,0,0,0,0,0,0,0,0,0,0,0,0,0,0,0,0,0,0,0,0,0,0,0,0,0,0,0,0,0,0,0,0,0,0,0,0,0,0,0,0,0,0,0,0,0,0,0,0,0,0,0,0],"sum_hessian":[3.9923373E2,1.2123689E1,3.8711005E2,1.0129303E1,1.9943864E0,1.3332544E2,2.537846E2,1.0996236E0,9.029679E0,7.546938E1,5.785606E1,1.753035E2,7.848112E1,1.0268173E0,8.002862E0,1.3339045E1,6.2130337E1,4.9720745E1,8.135317E0,1.22132E2,5.317149E1,4.4692715E1,3.3788403E1,1.0761739E1,2.5773063E0,5.15488E1,1.0581534E1,8.820948E0,4.0899796E1,4.541841E0,3.593475E0,1.03887436E2,1.8244566E1,3.3711803E1,1.9459686E1,2.6813755E1,1.787896E1,2.8985132E1,4.80327E0,1.0291526E0,9.732586E0,1.3552698E0,1.2220364E0,4.457665E1,6.9721537E0,1.6126316E0,8.968903E0,3.3531137E0,5.467834E0,1.095708E0,3.980409E1,1.6904495E0,2.8513918E0,1.9755888E1,8.4131546E1,3.8656435E0,1.43789215E1,2.673899E1,6.972815E0,1.1992922E1,7.4667645E0,2.737609E0,2.4076145E1,1.2159276E1,5.7196836E0,1.6240063E1,1.27450695E1,1.2594272E0,3.5438428E0],"tree_param":{"num_deleted":"0","num_feature":"56","num_nodes":"69","size_leaf_vector":"1"}},{"base_weights":[-2.108775E-3,-1.7124394E-2,7.432262E-1,4.909026E-3,-6.579703E-1,9.1205865E-1,-5.0624877E-2,4.383534E-2,-3.650035E-1,2.00201E-1,-8.363186E-1,3.488547E-1,2.9392964E-1,-1.0779756E-1,1.5313718E-1,-6.9190025E-1,9.678691E-2,-4.649817E-2,-3.3178416E-1,-6.2079508E-2,1.9354029E-1,2.5095078E-1,-2.7352524E-1,2.795141E-1,-1.0486E-1,1.7393589E-2,-8.972813E-1,5.9175193E-1,-3.5160458E-1,-2.1461518E-1,2.0271727E-1,-2.7578678E-2,2.0696235E-1,1.4781885E-1,-1.2220438E-1,1.5354277E-1,-6.0726965E-5,9.7506404E-2,-8.156058E-2,1.05926275E-1,-2.13503E-1,-3.0082476E-1,8.83936E-2,2.8202742E-1,-2.038669E-1,1.0523936E-2,-2.7847767E-1],"categories":[],"categories_nodes":[],"categories_segments":[],"categories_sizes":[],"default_left":[0,0,0,0,0,0,0,0,0,0,0,0,0,0,0,0,0,0,0,0,0,0,0,0,0,0,0,0,0,0,0,0,0,0,0,0,0,0,0,0,0,0,0,0,0,0,0],"id":11,"left_children":[1,3,5,7,9,11,-1,13,15,-1,17,-1,19,21,23,25,27,29,-1,-1,-1,31,33,35,37,39,41,43,45,-1,-1,-1,-1,-1,-1,-1,-1,-1,-1,-1,-1,-1,-1,-1,-1,-1,-1],"loss_changes":[4.3228083E0,5.3474817E0,1.3283844E0,5.2991066E0,3.5334682E0,6.801734E-1,0E0,5.5332317E0,5.3565874E0,0E0,2.4058332E0,0E0,7.0360804E-1,8.393272E0,6.349517E0,3.022276E0,3.6261096E0,2.4063056E0,0E0,0E0,0E0,6.800467E0,1.0070585E1,8.471932E0,4.7161865E0,1.6256164E0,2.3098488E0,4.045664E0,1.9742796E0,0E0,0E0,0E0,0E0,0E0,0E0,0E0,0E0,0E0,0E0,0E0,0E0,0E0,0E0,0E0,0E0,0E0,0E0],"parents":[2147483647,0,0,1,1,2,2,3,3,4,4,5,5,7,7,8,8,10,10,12,12,13,13,14,14,15,15,16,16,17,17,21,21,22,22,23,23,24,24,25,25,26,26,27,27,28,28],"right_children":[2,4,6,8,10,12,-1,14,16,-1,18,-1,20,22,24,26,28,30,-1,-1,-1,32,34,36,38,40,42,44,46,-1,-1,-1,-1,-1,-1,-1,-1,-1,-1,-1,-1,-1,-1,-1,-1,-1,-1],"split_conditions":[2.9629402E-2,2.4E-1,1.4953823E-2,4.8556037E-2,6.772E1,3.5028934E-4,-5.0624877E-2,1.507E1,2.6741302E0,2.00201E-1,9.6623385E-1,3.488547E-1,3.5315245E-2,4.687E2,5.3951E1,-1.4796776E-2,9.281E1,-3.7580018E-3,-3.3178416E-1,-6.2079508E-2,1.9354029E-1,1.6098348E-2,1.048E1,5.5214725E-2,5.765E2,1.4692308E-1,3.2064453E-2,5.6631332E1,1.8103448E-1,-2.1461518E-1,2.0271727E-1,-2.7578678E-2,2.0696235E-1,1.4781885E-1,-1.2220438E-1,1.5354277E-1,-6.0726965E-5,9.7506404E-2,-8.156058E-2,1.05926275E-1,-2.13503E-1,-3.0082476E-1,8.83936E-2,2.8202742E-1,-2.038669E-1,1.0523936E-2,-2.7847767E-1],"split_indices":[9,42,11,5,13,34,0,44,21,0,1,0,8,37,39,11,33,34,0,0,0,15,45,46,36,23,3,39,23,0,0,0,0,0,0,0,0,0,0,0,0,0,0,0,0,0,0],"split_type":[0,0,0,0,0,0,0,0,0,0,0,0,0,0,0,0,0,0,0,0,0,0,0,0,0,0,0,0,0,0,0,0,0,0,0,0,0,0,0,0,0,0,0,0,0,0,0],"sum_hessian":[3.8411526E2,3.7748737E2,6.6278877E0,3.6589944E2,1.1587933E1,5.592472E0,1.0354158E0,3.3185904E2,3.40404E1,1.0492427E0,1.053869E1,3.3514612E0,2.2410107E0,1.3901677E2,1.9284225E2,1.96395E1,1.4400902E1,2.9804728E0,7.558217E0,1.0930213E0,1.1479894E0,4.376502E1,9.5251755E1,1.2938239E2,6.3459866E1,4.615376E0,1.5024124E1,6.692996E0,7.707906E0,1.5522896E0,1.4281831E0,2.5014599E1,1.875042E1,1.3763193E1,8.148856E1,7.0229454E1,5.915293E1,1.7491217E1,4.596865E1,3.5133748E0,1.102001E0,1.3948595E1,1.0755293E0,5.4580255E0,1.2349707E0,5.1761355E0,2.5317705E0],"tree_param":{"num_deleted":"0","num_feature":"56","num_nodes":"47","size_leaf_vector":"1"}},{"base_weights":[-1.3110643E-3,1.7013311E-1,-6.74379E-2,-1.146767E-1,4.520144E-1,1.0519055E-1,-1.8264009E-1,4.7531936E-1,-2.9435614E-1,-6.493627E-1,5.2787036E-1,-3.709378E-1,2.5871968E-1,-2.83374E-1,1.3621268E-1,6.8675655E-1,-2.1339859E-1,6.0257035E-1,-4.057423E-1,-2.2511111E-1,-5.9301827E-2,3.53049E-1,9.7447515E-1,-5.270131E-1,2.4425377E-1,1.0519651E0,1.4005004E-1,-4.0013936E-1,1.0883319E-1,3.861302E-1,-4.767427E-1,-1.0371791E-1,8.6194336E-1,-7.487696E-2,9.047267E-1,-4.8934937E-1,2.3961052E-1,8.7165856E-1,6.7904875E-2,1.0826825E0,6.0685273E-2,5.5632484E-1,-6.696194E-1,7.3776186E-2,3.3695865E-1,3.3077687E-1,-1.4786313E-1,1.499274E-1,-4.9946406E-1,-5.5068123E-1,2.8905287E-1,5.211055E-1,-6.374863E-1,-3.024405E-1,-3.83798E-2,3.1667463E-2,3.0914068E-1,2.6100012E-2,3.8272253E-1,-2.189613E-1,-1.073173E-2,-1.0420654E-1,3.112551E-1,1.2582327E-1,-1.04182936E-1,6.624136E-2,3.4488228E-1,2.2529902E-1,1.4515002E-2,-1.0040981E-1,-2.9820883E-1,1.3712367E-1,-1.8344676E-1,5.312338E-2,-1.438529E-1,-1.439088E-1,1.9071385E-1,8.225642E-2,-1.7724276E-1,6.0010668E-2,-2.713637E-1,-7.905267E-2,1.6794838E-1,2.1782428E-1,3.0624103E-3,-2.9180706E-2,-2.920854E-1,-1.7731804E-1,1.8020356E-1],"categories":[],"categories_nodes":[],"categories_segments":[],"categories_sizes":[],"default_left":[0,0,0,0,0,0,0,0,0,0,0,0,0,0,0,0,0,0,0,0,0,0,0,0,0,0,0,0,0,0,0,0,0,0,0,0,0,0,0,0,0,0,0,0,0,0,0,0,0,0,0,0,0,0,0,0,0,0,0,0,0,0,0,0,0,0,0,0,0,0,0,0,0,0,0,0,0,0,0,0,0,0,0,0,0,0,0,0,0],"id":12,"left_children":[1,3,5,7,9,11,13,15,17,19,21,23,25,27,29,31,-1,33,35,-1,-1,37,39,41,-1,43,45,47,49,51,53,-1,55,-1,57,59,-1,61,63,65,-1,67,69,-1,-1,71,73,75,77,79,81,83,85,-1,87,-1,-1,-1,-1,-1,-1,-1,-1,-1,-1,-1,-1,-1,-1,-1,-1,-1,-1,-1,-1,-1,-1,-1,-1,-1,-1,-1,-1,-1,-1,-1,-1,-1,-1],"loss_changes":[4.2197905E0,8.369567E0,5.360794E0,5.6877213E0,4.709978E0,8.000775E0,5.224476E0,3.6497293E0,4.313961E0,2.5803685E-2,3.5173159E0,5.382148E0,7.605514E0,5.677355E0,6.225484E0,2.3243256E0,0E0,1.4880371E0,4.0997515E0,0E0,0E0,5.4287615E0,8.9606E-1,4.1218476E0,0E0,3.303156E-1,4.046308E0,5.265806E0,3.607046E0,4.2791963E0,2.7263398E0,0E0,1.1485858E0,0E0,1.0525544E0,3.798829E0,0E0,3.0052118E0,3.7984874E0,4.0805912E-1,0E0,2.9682243E-1,2.0467262E0,0E0,0E0,5.527496E0,3.2853706E0,4.984952E0,5.8656845E0,1.9262404E0,3.6543975E0,2.693335E0,5.913036E-1,0E0,3.0195153E0,0E0,0E0,0E0,0E0,0E0,0E0,0E0,0E0,0E0,0E0,0E0,0E0,0E0,0E0,0E0,0E0,0E0,0E0,0E0,0E0,0E0,0E0,0E0,0E0,0E0,0E0,0E0,0E0,0E0,0E0,0E0,0E0,0E0,0E0],"parents":[2147483647,0,0,1,1,2,2,3,3,4,4,5,5,6,6,7,7,8,8,9,9,10,10,11,11,12,12,13,13,14,14,15,15,17,17,18,18,21,21,22,22,23,23,25,25,26,26,27,27,28,28,29,29,30,30,32,32,34,34,35,35,37,37,38,38,39,39,41,41,42,42,45,45,46,46,47,47,48,48,49,49,50,50,51,51,52,52,54,54],"right_children":[2,4,6,8,10,12,14,16,18,20,22,24,26,28,30,32,-1,34,36,-1,-1,38,40,42,-1,44,46,48,50,52,54,-1,56,-1,58,60,-1,62,64,66,-1,68,70,-1,-1,72,74,76,78,80,82,84,86,-1,88,-1,-1,-1,-1,-1,-1,-1,-1,-1,-1,-1,-1,-1,-1,-1,-1,-1,-1,-1,-1,-1,-1,-1,-1,-1,-1,-1,-1,-1,-1,-1,-1,-1,-1],"split_conditions":[-3.1898443E-2,1.1E1,8E0,7.34127E-2,-2.7E-1,2.9411765E-2,2.017E1,1.2355351E-2,-2.0117188E-1,-6.3537225E-2,9.80892E-3,1.03854E5,1.8219E0,9.706E1,2.926E1,-1.1965627E-2,-2.1339859E-1,-3.0261165E-4,1.0067333E2,-2.2511111E-1,-5.9301827E-2,-8.276612E-3,-3.7957445E-2,4.489E1,2.4425377E-1,-1.4796776E-2,6.031746E-1,-1.2880126E-2,9.5E1,8.903015E1,5.5555556E-2,-1.0371791E-1,1.2E1,-7.487696E-2,1E-2,2.52E2,2.3961052E-1,1.202E1,2E-2,-1E-2,6.0685273E-2,1.791E1,1.8E1,7.3776186E-2,3.3695865E-1,9.389E1,4.715E2,4.437689E-3,4.311E2,3.0895666E1,1.5439214E-2,9.677E3,3.7301588E-1,-3.024405E-1,-1.6075728E-2,3.1667463E-2,3.0914068E-1,2.6100012E-2,3.8272253E-1,-2.189613E-1,-1.073173E-2,-1.0420654E-1,3.112551E-1,1.2582327E-1,-1.04182936E-1,6.624136E-2,3.4488228E-1,2.2529902E-1,1.4515002E-2,-1.0040981E-1,-2.9820883E-1,1.3712367E-1,-1.8344676E-1,5.312338E-2,-1.438529E-1,-1.439088E-1,1.9071385E-1,8.225642E-2,-1.7724276E-1,6.0010668E-2,-2.713637E-1,-7.905267E-2,1.6794838E-1,2.1782428E-1,3.0624103E-3,-2.9180706E-2,-2.920854E-1,-1.7731804E-1,1.8020356E-1],"split_indices":[6,53,53,22,42,23,45,12,46,6,34,19,10,32,45,34,0,48,18,0,0,11,6,13,0,11,22,34,31,17,22,0,52,0,42,31,0,45,43,42,0,45,52,0,0,13,36,35,36,39,15,20,22,0,48,0,0,0,0,0,0,0,0,0,0,0,0,0,0,0,0,0,0,0,0,0,0,0,0,0,0,0,0,0,0,0,0,0,0],"split_type":[0,0,0,0,0,0,0,0,0,0,0,0,0,0,0,0,0,0,0,0,0,0,0,0,0,0,0,0,0,0,0,0,0,0,0,0,0,0,0,0,0,0,0,0,0,0,0,0,0,0,0,0,0,0,0,0,0,0,0,0,0,0,0,0,0,0,0,0,0,0,0,0,0,0,0,0,0,0,0,0,0,0,0,0,0,0,0,0,0],"sum_hessian":[3.702E2,1.02605736E2,2.6759427E2,5.1332798E1,5.1272938E1,1.0713751E2,1.6045676E2,1.1599444E1,3.9733353E1,2.8166502E0,4.8456287E1,2.5778017E1,8.135949E1,1.2201903E2,3.843773E1,1.0202775E1,1.3966691E0,3.902124E0,3.583123E1,1.7614915E0,1.0551585E0,3.611123E1,1.23450575E1,2.32689E1,2.5091176E0,9.564057E0,7.179543E1,9.401059E1,2.8008442E1,2.7567717E1,1.087001E1,1.33882E0,8.8639555E0,1.0669672E0,2.8351567E0,3.4060608E1,1.7706211E0,1.2081302E1,2.4029926E1,1.0475087E1,1.8699701E0,2.369253E0,2.0899647E1,1.1380714E0,8.425986E0,4.3097084E1,2.8698353E1,1.4301036E1,7.970956E1,5.569871E0,2.243857E1,2.478982E1,2.7778978E0,4.326079E0,6.543931E0,1.9114134E0,6.952542E0,1.2701672E0,1.5649894E0,2.1859737E1,1.22008705E1,1.3158535E0,1.0765449E1,1.3007319E1,1.1022607E1,1.0645686E0,9.410519E0,1.3668779E0,1.0023749E0,1.1282913E1,9.616734E0,3.8457172E1,4.6399117E0,1.473113E1,1.3967222E1,6.2338796E0,8.067156E0,8.206077E0,7.150348E1,1.9236319E0,3.6462388E0,7.388315E0,1.5050255E1,1.7391178E1,7.398641E0,1.5600412E0,1.2178568E0,3.5493956E0,2.9945354E0],"tree_param":{"num_deleted":"0","num_feature":"56","num_nodes":"89","size_leaf_vector":"1"}},{"base_weights":[5.2721985E-4,8.889499E-2,-1.442865E-1,2.7297753E-1,-5.5754926E-2,1.9539571E-1,-2.640916E-1,3.3884364E-1,-4.865603E-1,1.18516974E-1,-2.4138847E-1,6.800429E-1,-1.3828227E-1,-3.19978E-1,5.077515E-1,-2.8762072E-1,4.45132E-1,2.447169E-1,-8.760218E-1,3.956362E-1,-2.4505632E-1,8.6438364E-1,-3.2535374E-1,9.42487E-1,-5.3092524E-2,-8.2042986E-1,1.2832116E-1,-3.9108628E-1,1.5765984E-1,7.552039E-1,-9.434588E-2,-8.109951E-1,3.179858E-1,6.7338705E-1,9.813645E-2,-7.32273E-2,-2.8431153E-1,4.9141496E-1,-5.786709E-1,2.567065E-1,-3.9497107E-1,3.1796008E-1,4.0724285E-2,-5.1265985E-1,1.512612E-1,-2.0459026E-2,1.0750858E0,-4.5812422E-1,2.0778532E-1,-2.8688735E-1,-5.291837E-2,-4.081757E-1,5.116324E-1,-9.5841396E-1,-2.8138888E-1,6.935913E-1,-4.131955E-1,2.8014767E-1,-1.1103265E-3,4.877649E-2,-3.0469355E-1,2.8194812E-1,-1.5467356E-1,2.7724615E-1,1.0098234E-1,-1.1561581E-1,2.9066986E-1,1.8479815E-1,-4.4090457E-2,-2.6538E-1,3.03678E-2,-2.3877783E-1,1.464772E-2,-2.1262756E-3,-2.1098618E-1,1.5218432E-1,-1.9954202E-1,3.5615975E-1,4.689951E-2,4.6201464E-2,-2.2304136E-1,-2.4850462E-1,-2.622298E-3,2.352375E-1,-8.32879E-2,4.9141012E-2,-3.4732065E-1,-3.0229628E-2,-1.8809475E-1,3.1543347E-1,2.4385497E-2,-2.6829666E-1,5.3676452E-2],"categories":[],"categories_nodes":[],"categories_segments":[],"categories_sizes":[],"default_left":[0,0,0,0,0,0,0,0,0,0,0,0,0,0,0,0,0,0,0,0,0,0,0,0,0,0,0,0,0,0,0,0,0,0,0,0,0,0,0,0,0,0,0,0,0,0,0,0,0,0,0,0,0,0,0,0,0,0,0,0,0,0,0,0,0,0,0,0,0,0,0,0,0,0,0,0,0,0,0,0,0,0,0,0,0,0,0,0,0,0,0,0,0],"id":13,"left_children":[1,3,5,7,9,11,13,15,17,19,21,23,25,27,29,31,33,-1,35,37,39,41,43,45,47,49,51,53,55,57,-1,59,61,63,65,-1,-1,67,69,-1,71,-1,-1,73,75,-1,77,79,-1,-1,-1,81,83,85,87,89,91,-1,-1,-1,-1,-1,-1,-1,-1,-1,-1,-1,-1,-1,-1,-1,-1,-1,-1,-1,-1,-1,-1,-1,-1,-1,-1,-1,-1,-1,-1,-1,-1,-1,-1,-1,-1],"loss_changes":[4.5245986E0,5.8619847E0,5.5045195E0,5.0069637E0,4.0332327E0,5.83682E0,4.453638E0,6.097723E0,4.840107E0,6.5973964E0,5.8770237E0,2.8686213E0,4.081247E0,3.2331429E0,1.6827731E0,4.572366E0,6.035906E0,0E0,7.4154854E-2,3.7366424E0,5.0449014E0,5.0092745E-1,5.143101E0,1.526145E0,1.7695862E0,3.806982E-1,3.6192057E0,4.8064547E0,4.206554E0,7.8346205E-1,0E0,1.6760883E0,4.127825E0,3.5992413E0,1.3737108E1,0E0,0E0,2.812355E0,8.73803E-1,0E0,4.6277933E0,0E0,0E0,3.9427624E0,5.2147174E0,0E0,8.076849E-1,7.638814E-1,0E0,0E0,0E0,1.2459884E0,2.393436E0,3.0528183E0,4.2916923E0,1.4443843E0,2.1060405E0,0E0,0E0,0E0,0E0,0E0,0E0,0E0,0E0,0E0,0E0,0E0,0E0,0E0,0E0,0E0,0E0,0E0,0E0,0E0,0E0,0E0,0E0,0E0,0E0,0E0,0E0,0E0,0E0,0E0,0E0,0E0,0E0,0E0,0E0,0E0,0E0],"parents":[2147483647,0,0,1,1,2,2,3,3,4,4,5,5,6,6,7,7,8,8,9,9,10,10,11,11,12,12,13,13,14,14,15,15,16,16,18,18,19,19,20,20,21,21,22,22,23,23,24,24,25,25,26,26,27,27,28,28,29,29,31,31,32,32,33,33,34,34,37,37,38,38,40,40,43,43,44,44,46,46,47,47,51,51,52,52,53,53,54,54,55,55,56,56],"right_children":[2,4,6,8,10,12,14,16,18,20,22,24,26,28,30,32,34,-1,36,38,40,42,44,46,48,50,52,54,56,58,-1,60,62,64,66,-1,-1,68,70,-1,72,-1,-1,74,76,-1,78,80,-1,-1,-1,82,84,86,88,90,92,-1,-1,-1,-1,-1,-1,-1,-1,-1,-1,-1,-1,-1,-1,-1,-1,-1,-1,-1,-1,-1,-1,-1,-1,-1,-1,-1,-1,-1,-1,-1,-1,-1,-1,-1,-1],"split_conditions":[2.33E2,4.1E1,9.868212E-1,2.39E0,1.2E1,3.5912699E-1,2.4948059E-2,1.225E1,-5.8111366E-2,1.2763709E-2,4.122E2,7.468E2,2.81E2,1.3E-1,7E0,1.02564976E-4,1E0,2.447169E-1,-1.5120687E-2,3.1787086E-2,6.349207E-2,1.0074003E0,4E-2,-8.629681E-2,3.0752199E-2,9.847663E-1,4.0599E4,1.4492754E-2,3.7855213E-3,1.0952E2,-9.434588E-2,3.2107334E1,9.514E1,2.871E3,1.8E-1,-7.32273E-2,-2.8431153E-1,3.7924323E-2,4.920635E-1,2.567065E-1,2.1346848E-2,3.1796008E-1,4.0724285E-2,5.624301E-3,2.4E-1,-2.0459026E-2,9.8532575E-1,9.3711346E-1,2.0778532E-1,-2.8688735E-1,-5.291837E-2,6E0,5.814E2,-3.5352692E-2,4.318913E1,1.2050312E-2,1.2396934E-2,2.8014767E-1,-1.1103265E-3,4.877649E-2,-3.0469355E-1,2.8194812E-1,-1.5467356E-1,2.7724615E-1,1.0098234E-1,-1.1561581E-1,2.9066986E-1,1.8479815E-1,-4.4090457E-2,-2.6538E-1,3.03678E-2,-2.3877783E-1,1.464772E-2,-2.1262756E-3,-2.1098618E-1,1.5218432E-1,-1.9954202E-1,3.5615975E-1,4.689951E-2,4.6201464E-2,-2.2304136E-1,-2.4850462E-1,-2.622298E-3,2.352375E-1,-8.32879E-2,4.9141012E-2,-3.4732065E-1,-3.0229628E-2,-1.8809475E-1,3.1543347E-1,2.4385497E-2,-2.6829666E-1,5.3676452E-2],"split_indices":[31,24,0,41,52,22,9,45,14,9,36,37,31,42,25,34,28,0,11,11,22,0,43,14,14,0,19,23,35,13,0,39,33,20,41,0,0,14,22,0,15,0,0,12,42,0,0,2,0,0,0,53,37,6,16,9,8,0,0,0,0,0,0,0,0,0,0,0,0,0,0,0,0,0,0,0,0,0,0,0,0,0,0,0,0,0,0,0,0,0,0,0,0],"split_type":[0,0,0,0,0,0,0,0,0,0,0,0,0,0,0,0,0,0,0,0,0,0,0,0,0,0,0,0,0,0,0,0,0,0,0,0,0,0,0,0,0,0,0,0,0,0,0,0,0,0,0,0,0,0,0,0,0,0,0,0,0,0,0,0,0,0,0,0,0,0,0,0,0,0,0,0,0,0,0,0,0,0,0,0,0,0,0,0,0,0,0,0,0],"sum_hessian":[3.5156854E2,2.1857596E2,1.3299258E2,9.5788124E1,1.22787834E2,3.451151E1,9.848108E1,8.8654045E1,7.1340766E0,6.351851E1,5.926932E1,1.36490555E1,2.0862452E1,9.237778E1,6.1033053E0,1.2612114E1,7.604193E1,1.390391E0,5.7436852E0,3.5994755E1,2.7523756E1,3.5269523E0,5.574237E1,9.8407545E0,3.8083005E0,5.278703E0,1.5583749E1,8.056489E1,1.1812884E1,4.754089E0,1.3492166E0,6.583451E0,6.0286636E0,4.5301685E1,3.074025E1,1.033948E0,4.7097373E0,3.3224285E1,2.77047E0,2.734912E0,2.4788843E1,2.4224508E0,1.1045015E0,3.9961983E1,1.5780387E1,1.1976684E0,8.643086E0,2.7177896E0,1.0905106E0,3.95875E0,1.3199533E0,6.467177E0,9.116572E0,1.1800217E1,6.876467E1,5.9819217E0,5.830962E0,3.6617424E0,1.0923465E0,1.1791937E0,5.4042573E0,3.379825E0,2.6488385E0,2.4967054E1,2.033463E1,2.0123415E1,1.0616834E1,2.7828667E1,5.395619E0,1.7030704E0,1.0673996E0,1.2606164E1,1.2182679E1,1.1226036E1,2.8735947E1,1.1252141E1,4.528246E0,7.442689E0,1.2003977E0,1.0104505E0,1.7073393E0,2.628454E0,3.8387232E0,6.7816896E0,2.3348825E0,1.8066473E0,9.993569E0,4.6009514E1,2.2755161E1,3.322782E0,2.6591399E0,2.9354067E0,2.8955555E0],"tree_param":{"num_deleted":"0","num_feature":"56","num_nodes":"93","size_leaf_vector":"1"}},{"base_weights":[2.0929893E-4,-2.7127173E-2,4.2921314E-1,4.4844016E-2,-2.2275528E-1,6.516384E-1,-1.817274E-1,5.6618166E-1,1.3088003E-3,7.0903844E-1,-2.6058522E-1,7.696005E-1,7.171682E-2,2.1773776E-1,-2.5256437E-1,7.424841E-1,-1.6364619E-1,-5.241399E-1,4.4785194E-2,2.6236588E-1,5.714675E-2,-9.704423E-3,-4.1509375E-1,8.455084E-1,1.6782243E-3,-1.5950078E-1,1.6528136E-1,8.800597E-1,-1.6554713E-1,1.08505495E-1,-8.583818E-1,4.8047152E-1,-1.792117E-2,5.302692E-1,-3.3738285E-1,-5.880688E-1,6.628802E-2,2.6250962E-2,9.139922E-1,1.1135533E-1,3.0353135E-1,2.3595677E-1,-2.5313294E-1,7.41309E-3,-2.9217005E-1,-1.18774526E-1,2.1907423E-1,1.20964035E-1,-2.130882E-2,2.0354584E-1,-1.7663366E-1,-2.2109398E-1,1.0263526E-2,1.1813294E-1,-1.9731523E-1,1.24815725E-1,-1.5998736E-1,3.0199432E-1,1.1170969E-1],"categories":[],"categories_nodes":[],"categories_segments":[],"categories_sizes":[],"default_left":[0,0,0,0,0,0,0,0,0,0,0,0,0,0,0,0,0,0,0,0,0,0,0,0,0,0,0,0,0,0,0,0,0,0,0,0,0,0,0,0,0,0,0,0,0,0,0,0,0,0,0,0,0,0,0,0,0,0,0],"id":14,"left_children":[1,3,5,7,9,11,13,15,17,19,21,23,25,-1,-1,27,-1,29,31,-1,-1,33,35,37,-1,-1,-1,39,-1,41,43,45,47,49,51,53,55,-1,57,-1,-1,-1,-1,-1,-1,-1,-1,-1,-1,-1,-1,-1,-1,-1,-1,-1,-1,-1,-1],"loss_changes":[3.9048433E0,4.417286E0,2.8288379E0,5.211991E0,3.1583123E0,9.6001863E-1,4.2688446E0,3.8737612E0,4.8887386E0,1.3894713E-1,3.1666784E0,7.0449066E-1,1.3371167E0,0E0,0E0,3.281166E0,0E0,3.5512419E0,5.4076047E0,0E0,0E0,5.8762364E0,4.252055E0,4.971342E-1,0E0,0E0,0E0,6.0142803E-1,0E0,4.886982E0,1.1270986E0,5.7396765E0,3.913981E0,2.4809453E0,3.09153E0,2.811325E0,3.2152402E0,0E0,1.3153458E-1,0E0,0E0,0E0,0E0,0E0,0E0,0E0,0E0,0E0,0E0,0E0,0E0,0E0,0E0,0E0,0E0,0E0,0E0,0E0,0E0],"parents":[2147483647,0,0,1,1,2,2,3,3,4,4,5,5,6,6,7,7,8,8,9,9,10,10,11,11,12,12,15,15,17,17,18,18,21,21,22,22,23,23,27,27,29,29,30,30,31,31,32,32,33,33,34,34,35,35,36,36,38,38],"right_children":[2,4,6,8,10,12,14,16,18,20,22,24,26,-1,-1,28,-1,30,32,-1,-1,34,36,38,-1,-1,-1,40,-1,42,44,46,48,50,52,54,56,-1,58,-1,-1,-1,-1,-1,-1,-1,-1,-1,-1,-1,-1,-1,-1,-1,-1,-1,-1,-1,-1],"split_conditions":[5.3152E0,1.0136905E0,9.039E2,2.8365334E1,7.936508E-3,4.3236386E-2,9.4E1,1.2646E4,7.76E2,7.953455E-1,8E0,9.0674603E-1,5.001E2,2.1773776E-1,-2.5256437E-1,3.21E2,-1.6364619E-1,-3.4579862E-2,3.1904667E1,2.6236588E-1,5.714675E-2,1.1345468E-2,1.981E1,3.1446405E1,1.6782243E-3,-1.5950078E-1,1.6528136E-1,1.318E1,-1.6554713E-1,3.968254E-1,9.799574E-1,9.474029E-1,1.6859E0,5.3397E1,3.8981969E-3,-1.7695937E-2,2.609E1,2.6250962E-2,1.6690893E-2,1.1135533E-1,3.0353135E-1,2.3595677E-1,-2.5313294E-1,7.41309E-3,-2.9217005E-1,-1.18774526E-1,2.1907423E-1,1.20964035E-1,-2.130882E-2,2.0354584E-1,-1.7663366E-1,-2.2109398E-1,1.0263526E-2,1.1813294E-1,-1.9731523E-1,1.24815725E-1,-1.5998736E-1,3.0199432E-1,1.1170969E-1],"split_indices":[10,1,37,39,22,4,31,20,38,21,53,22,36,0,0,31,0,14,39,0,0,8,45,16,0,0,0,45,0,22,0,2,10,39,35,34,45,0,3,0,0,0,0,0,0,0,0,0,0,0,0,0,0,0,0,0,0,0,0],"split_type":[0,0,0,0,0,0,0,0,0,0,0,0,0,0,0,0,0,0,0,0,0,0,0,0,0,0,0,0,0,0,0,0,0,0,0,0,0,0,0,0,0,0,0,0,0,0,0,0,0,0,0,0,0,0,0,0,0,0,0],"sum_hessian":[3.3097327E2,3.120274E2,1.8945871E1,2.2867068E2,8.335671E1,1.3840384E1,5.105487E0,1.6698591E1,2.1197209E2,2.5599313E0,8.079678E1,1.1229176E1,2.6112087E0,2.108071E0,2.9974158E0,1.4699466E1,1.9991264E0,1.5353724E1,1.9661836E2,1.4201114E0,1.1398199E0,3.1199652E1,4.9597134E1,1.0117294E1,1.1118805E0,1.1074172E0,1.5037913E0,1.3576442E1,1.123024E0,5.5410743E0,9.812649E0,2.3899742E1,1.7271863E2,1.1549402E1,1.965025E1,3.6323406E1,1.3273725E1,1.0270659E0,9.090229E0,3.5765145E0,9.999927E0,3.3382983E0,2.202776E0,1.226052E0,8.586597E0,5.1710477E0,1.8728695E1,1.8603708E1,1.5411491E2,1.0546253E1,1.0031484E0,8.994575E0,1.0655674E1,2.097729E0,3.4225677E1,8.576637E0,4.697087E0,7.029189E0,2.0610394E0],"tree_param":{"num_deleted":"0","num_feature":"56","num_nodes":"59","size_leaf_vector":"1"}},{"base_weights":[2.5947876E-3,4.920408E-1,-1.5027878E-2,8.657522E-1,-5.2407855E-1,-4.3909438E-2,3.2335848E-1,8.34142E-4,1.0283815E0,-2.0463453E-1,-1.7857993E-2,1.9387488E-1,-8.8024855E-2,5.553705E-1,-2.1483387E-1,3.3071256E-1,9.235759E-2,-4.532603E-1,3.602804E-1,-4.2456323E-1,-5.1371E-2,8.0194443E-1,-1.7967913E-2,-5.687178E-1,3.971856E-1,2.3555386E-1,-7.800476E-1,6.81823E-1,-1.302729E-2,-5.8078754E-1,2.3504673E-1,6.645184E-2,-1.8317357E-1,-5.48405E-2,9.374132E-1,2.2043917E-1,-6.27267E-1,8.016826E-2,-2.7680343E-1,-3.7274323E-2,1.9812715E-1,1.15123704E-1,-3.0279788E-1,2.351234E-1,-1.7915526E-1,2.073291E-1,-9.89937E-2,-2.6138654E-1,2.1342425E-2,7.789065E-2,-6.64963E-2,3.5235204E-2,-1.04818165E-1,6.385727E-2,2.9783678E-1,-4.777244E-2,-2.1977948E-1],"categories":[],"categories_nodes":[],"categories_segments":[],"categories_sizes":[],"default_left":[0,0,0,0,0,0,0,0,0,0,0,0,0,0,0,0,0,0,0,0,0,0,0,0,0,0,0,0,0,0,0,0,0,0,0,0,0,0,0,0,0,0,0,0,0,0,0,0,0,0,0,0,0,0,0,0,0],"id":15,"left_children":[1,3,5,7,9,11,13,-1,15,-1,-1,17,19,21,23,-1,-1,25,27,29,31,33,35,37,39,-1,41,43,45,47,-1,49,51,-1,53,-1,55,-1,-1,-1,-1,-1,-1,-1,-1,-1,-1,-1,-1,-1,-1,-1,-1,-1,-1,-1,-1],"loss_changes":[2.7618737E0,4.6795044E0,3.0362341E0,1.1918983E0,2.2480929E-1,3.014914E0,3.1705909E0,0E0,4.2375565E-2,0E0,0E0,5.0130153E0,2.9602478E0,2.4677653E0,1.9763376E0,0E0,0E0,4.5197554E0,4.375821E0,4.9101477E0,3.4152951E0,1.7931457E0,3.3032353E0,1.8835001E0,5.6931686E-1,0E0,2.559493E0,3.0184078E0,4.20421E0,4.1294675E0,0E0,6.5383363E0,5.222941E0,0E0,2.2401619E-1,0E0,7.87735E-2,0E0,0E0,0E0,0E0,0E0,0E0,0E0,0E0,0E0,0E0,0E0,0E0,0E0,0E0,0E0,0E0,0E0,0E0,0E0,0E0],"parents":[2147483647,0,0,1,1,2,2,3,3,4,4,5,5,6,6,8,8,11,11,12,12,13,13,14,14,17,17,18,18,19,19,20,20,21,21,22,22,23,23,24,24,26,26,27,27,28,28,29,29,31,31,32,32,34,34,36,36],"right_children":[2,4,6,8,10,12,14,-1,16,-1,-1,18,20,22,24,-1,-1,26,28,30,32,34,36,38,40,-1,42,44,46,48,-1,50,52,-1,54,-1,56,-1,-1,-1,-1,-1,-1,-1,-1,-1,-1,-1,-1,-1,-1,-1,-1,-1,-1,-1,-1],"split_conditions":[1.036E1,4.051714E1,5.2487E0,4E0,1.0652007E-2,7.8817624E-1,4.074074E-1,8.34142E-4,1.58429E-2,-2.0463453E-1,-1.7857993E-2,-2E-2,8.67146E-3,9.039E2,5.3904E0,3.3071256E-1,9.235759E-2,9.338358E-1,-1.071293E-2,1.0534E2,3.6E1,2.988E1,9.4E1,1.3265514E-2,2.609E1,2.3555386E-1,1.3188816E1,3.53E2,8.7E1,1.9429155E-2,2.3504673E-1,4E-2,4.593E2,-5.48405E-2,1.729E1,2.2043917E-1,9.902795E-1,8.016826E-2,-2.7680343E-1,-3.7274323E-2,1.9812715E-1,1.15123704E-1,-3.0279788E-1,2.351234E-1,-1.7915526E-1,2.073291E-1,-9.89937E-2,-2.6138654E-1,2.1342425E-2,7.789065E-2,-6.64963E-2,3.5235204E-2,-1.04818165E-1,6.385727E-2,2.9783678E-1,-4.777244E-2,-2.1977948E-1],"split_indices":[44,17,10,53,48,21,23,0,4,0,0,43,9,37,10,0,0,2,6,13,24,13,31,7,45,0,17,31,31,15,0,43,37,0,44,0,1,0,0,0,0,0,0,0,0,0,0,0,0,0,0,0,0,0,0,0,0],"split_type":[0,0,0,0,0,0,0,0,0,0,0,0,0,0,0,0,0,0,0,0,0,0,0,0,0,0,0,0,0,0,0,0,0,0,0,0,0,0,0,0,0,0,0,0,0,0,0,0,0,0,0,0,0,0,0,0,0],"sum_hessian":[3.1834717E2,1.0128228E1,3.0821896E2,7.5130415E0,2.615187E0,2.8478275E2,2.3436207E1,1.3526216E0,6.16042E0,1.6019038E0,1.0132831E0,4.403534E1,2.407474E2,1.6354113E1,7.0820947E0,5.1060877E0,1.0543326E0,8.654599E0,3.538074E1,2.2606075E1,2.1814133E2,1.1157089E1,5.1970234E0,4.5322146E0,2.54988E0,1.5140429E0,7.140557E0,1.8564268E1,1.6816473E1,2.0477215E1,2.1288602E0,1.1544072E2,1.0270061E2,1.3069857E0,9.850103E0,2.2326727E0,2.9643507E0,1.4210851E0,3.1111298E0,1.0325549E0,1.5173253E0,1.0643456E0,6.076211E0,1.7552748E1,1.0115206E0,4.8535714E0,1.1962902E1,1.3932422E1,6.544793E0,6.916344E1,4.627729E1,3.6671085E1,6.602952E1,1.0432881E0,8.806815E0,1.0060253E0,1.9583254E0],"tree_param":{"num_deleted":"0","num_feature":"56","num_nodes":"57","size_leaf_vector":"1"}},{"base_weights":[3.8077552E-3,-5.5159825E-1,2.0689089E-2,-7.1061283E-1,8.334565E-2,2.1078931E-1,-2.9643964E-2,5.2560955E-2,-2.7594355E-1,4.8411578E-2,6.242772E-1,-5.111861E-1,6.531713E-3,4.3578872E-1,-1.3827644E-1,-6.16224E-2,1.0043136E0,-1.7012544E-1,-7.862186E-1,-6.0359556E-2,2.3364565E-1,8.2333136E-1,3.7489027E-2,2.1315649E-1,-4.0220827E-1,6.414998E-1,-6.398304E-1,3.2087788E-2,1.1454152E0,3.472064E-1,-5.781644E-1,-1.939399E-1,-9.60655E-1,-5.365039E-1,-1.5325069E-2,5.1210016E-1,-3.0027399E-2,1.9594485E-2,2.9197636E-1,-2.3874561E-1,1.434966E-1,-9.532006E-2,1.6258027E-1,-1.9413406E-1,1.5853648E-1,2.7325284E-1,-1.0723083E-2,-2.7713397E-1,1.3662721E-3,3.883165E-1,9.735996E-2,2.050821E-1,-9.464187E-2,3.0729411E-2,-2.5506344E-1,6.2557116E-2,-1.6646646E-1,-3.158179E-1,-8.631605E-2,1.0789145E-1,-1.9797361E-1,1.0208031E-1,-2.4805611E-2,3.04567E-2,2.539852E-1,-2.3074822E-1,4.106974E-2],"categories":[],"categories_nodes":[],"categories_segments":[],"categories_sizes":[],"default_left":[0,0,0,0,0,0,0,0,0,0,0,0,0,0,0,0,0,0,0,0,0,0,0,0,0,0,0,0,0,0,0,0,0,0,0,0,0,0,0,0,0,0,0,0,0,0,0,0,0,0,0,0,0,0,0,0,0,0,0,0,0,0,0,0,0,0,0],"id":16,"left_children":[1,3,5,7,-1,9,11,-1,-1,13,15,17,19,21,23,25,27,29,31,33,35,37,39,41,43,45,47,-1,49,51,53,55,57,59,61,63,65,-1,-1,-1,-1,-1,-1,-1,-1,-1,-1,-1,-1,-1,-1,-1,-1,-1,-1,-1,-1,-1,-1,-1,-1,-1,-1,-1,-1,-1,-1],"loss_changes":[2.8876002E0,1.3956351E0,2.8640764E0,1.6259513E0,0E0,4.1761103E0,4.132374E0,0E0,0E0,3.3918254E0,4.644718E0,1.4210186E0,3.378387E0,2.31882E0,3.0395467E0,3.341837E0,1.3172369E0,2.032049E0,7.3314476E-1,3.677011E0,3.7297022E0,8.0781364E-1,3.5232115E0,2.6703222E0,4.5661564E0,7.1715796E-1,8.1977165E-1,0E0,7.6891994E-1,1.20772E0,1.0545605E0,5.9185266E-1,1.07384205E-1,1.8764057E0,3.8136752E0,3.301044E0,3.4278243E0,0E0,0E0,0E0,0E0,0E0,0E0,0E0,0E0,0E0,0E0,0E0,0E0,0E0,0E0,0E0,0E0,0E0,0E0,0E0,0E0,0E0,0E0,0E0,0E0,0E0,0E0,0E0,0E0,0E0,0E0],"parents":[2147483647,0,0,1,1,2,2,3,3,5,5,6,6,9,9,10,10,11,11,12,12,13,13,14,14,15,15,16,16,17,17,18,18,19,19,20,20,21,21,22,22,23,23,24,24,25,25,26,26,28,28,29,29,30,30,31,31,32,32,33,33,34,34,35,35,36,36],"right_children":[2,4,6,8,-1,10,12,-1,-1,14,16,18,20,22,24,26,28,30,32,34,36,38,40,42,44,46,48,-1,50,52,54,56,58,60,62,64,66,-1,-1,-1,-1,-1,-1,-1,-1,-1,-1,-1,-1,-1,-1,-1,-1,-1,-1,-1,-1,-1,-1,-1,-1,-1,-1,-1,-1,-1,-1],"split_conditions":[8.8313E-3,4.0814808E1,-3.1280003E-2,9.272E1,8.334565E-2,1.2519659E-2,-1.6089E4,5.2560955E-2,-2.7594355E-1,1.1462337E0,1.2173158E-2,2.46E2,2.459607E-2,9.6780735E-1,9.356E1,6.950762E-3,4.531E2,3.6E1,2.3809524E-2,7.3826E2,-4.0595327E-3,-1.3090632E-2,3E0,5.473466E-3,4.5E1,9E0,-2.131049E-2,3.2087788E-2,9E-2,1.124772E-2,1.493E1,3.99696E1,1.3201746E-2,4.1838207E1,3.0917334E1,1.522E1,9.5E1,1.9594485E-2,2.9197636E-1,-2.3874561E-1,1.434966E-1,-9.532006E-2,1.6258027E-1,-1.9413406E-1,1.5853648E-1,2.7325284E-1,-1.0723083E-2,-2.7713397E-1,1.3662721E-3,3.883165E-1,9.735996E-2,2.050821E-1,-9.464187E-2,3.0729411E-2,-2.5506344E-1,6.2557116E-2,-1.6646646E-1,-3.158179E-1,-8.631605E-2,1.0789145E-1,-1.9797361E-1,1.0208031E-1,-2.4805611E-2,3.04567E-2,2.539852E-1,-2.3074822E-1,4.106974E-2],"split_indices":[15,17,5,13,0,34,20,0,0,21,8,31,48,1,32,12,37,24,22,38,11,34,24,12,26,52,4,0,43,3,45,16,3,17,39,44,31,0,0,0,0,0,0,0,0,0,0,0,0,0,0,0,0,0,0,0,0,0,0,0,0,0,0,0,0,0,0],"split_type":[0,0,0,0,0,0,0,0,0,0,0,0,0,0,0,0,0,0,0,0,0,0,0,0,0,0,0,0,0,0,0,0,0,0,0,0,0,0,0,0,0,0,0,0,0,0,0,0,0,0,0,0,0,0,0,0,0,0,0,0,0,0,0,0,0,0,0],"sum_hessian":[3.0576086E2,8.084985E0,2.9767587E2,6.904502E0,1.1804826E0,6.1649036E1,2.3602684E2,1.3501278E0,5.554374E0,4.5067856E1,1.658118E1,1.5574932E1,2.2045192E2,1.4222302E1,3.0845554E1,6.210378E0,1.0370802E1,7.6754136E0,7.899519E0,1.7086247E2,4.9589443E1,6.667631E0,7.554671E0,1.3312265E1,1.7533289E1,2.7530754E0,3.457303E0,1.6480217E0,8.72278E0,3.4501848E0,4.225229E0,2.2776906E0,5.621828E0,1.3821042E1,1.5704143E2,2.3660433E1,2.592901E1,1.338052E0,5.3295794E0,2.3351912E0,5.2194796E0,5.104088E0,8.208177E0,1.4121796E1,3.4114938E0,1.7229309E0,1.0301443E0,2.0988543E0,1.3584487E0,6.8947067E0,1.8280731E0,2.267525E0,1.18266E0,1.3846495E0,2.840579E0,1.2765757E0,1.0011148E0,4.4487653E0,1.1730629E0,1.4412221E0,1.237982E1,2.436547E1,1.3267596E2,1.1207779E1,1.2452654E1,4.112317E0,2.1816692E1],"tree_param":{"num_deleted":"0","num_feature":"56","num_nodes":"67","size_leaf_vector":"1"}},{"base_weights":[2.5818534E-3,3.2269266E-2,-2.6936E-1,-6.201916E-1,4.5734607E-2,-4.6848384E-1,3.0803886E-1,5.5469405E-3,-8.119823E-1,-4.408417E-3,2.1061216E-1,-6.244556E-1,9.670051E-2,7.0613897E-1,-1.1265153E-1,-2.775821E-1,-6.800527E-2,5.7334423E-2,-2.730728E-1,6.692352E-1,7.0640795E-2,6.521505E-2,-6.9632244E-1,4.6162063E-1,-1.8837251E-1,2.6018676E-1,5.5006076E-2,-1.9904123E-1,3.108825E-1,-1.1838446E-2,8.9824265E-1,-6.6748124E-1,1.286997E-2,7.811873E-1,-9.429562E-2,4.7472692E-1,-6.076941E-2,2.9712088E-2,-7.7167255E-1,-3.0716196E-2,2.2307597E-1,2.0931621E-1,-9.2808604E-2,5.1693913E-2,-4.3099172E-2,3.1351888E-1,6.303886E-3,1.2425468E-1,-2.347882E-1,2.4660733E-1,-1.1187024E-1,2.6695785E-1,-7.142578E-2,2.460927E-1,-1.1135668E-2,-1.11731336E-1,4.7043838E-2,-2.7221E-2,-2.7175772E-1],"categories":[],"categories_nodes":[],"categories_segments":[],"categories_sizes":[],"default_left":[0,0,0,0,0,0,0,0,0,0,0,0,0,0,0,0,0,0,0,0,0,0,0,0,0,0,0,0,0,0,0,0,0,0,0,0,0,0,0,0,0,0,0,0,0,0,0,0,0,0,0,0,0,0,0,0,0,0,0],"id":17,"left_children":[1,3,5,7,9,11,13,-1,15,17,19,21,23,25,27,-1,-1,29,31,33,35,-1,37,39,-1,-1,-1,-1,41,43,45,47,49,51,-1,53,55,-1,57,-1,-1,-1,-1,-1,-1,-1,-1,-1,-1,-1,-1,-1,-1,-1,-1,-1,-1,-1,-1],"loss_changes":[2.4139867E0,2.3961136E0,3.5280707E0,6.9095016E-1,2.1916814E0,2.0244694E0,1.4445219E0,0E0,7.313323E-2,3.402445E0,3.9209006E0,1.2159162E0,1.7930365E0,2.0535827E-1,1.3319118E0,0E0,0E0,9.715576E0,4.330986E0,1.8241439E0,2.6031246E0,0E0,1.0622654E0,7.6903725E-1,0E0,0E0,0E0,0E0,1.0336996E0,3.7911274E0,1.6130066E0,2.3327632E0,7.548198E0,1.6693649E0,0E0,2.1548574E0,2.5992854E0,0E0,1.3011732E0,0E0,0E0,0E0,0E0,0E0,0E0,0E0,0E0,0E0,0E0,0E0,0E0,0E0,0E0,0E0,0E0,0E0,0E0,0E0,0E0],"parents":[2147483647,0,0,1,1,2,2,3,3,4,4,5,5,6,6,8,8,9,9,10,10,11,11,12,12,13,13,14,14,17,17,18,18,19,19,20,20,22,22,23,23,28,28,29,29,30,30,31,31,32,32,33,33,35,35,36,36,38,38],"right_children":[2,4,6,8,10,12,14,-1,16,18,20,22,24,26,28,-1,-1,30,32,34,36,-1,38,40,-1,-1,-1,-1,42,44,46,48,50,52,-1,54,56,-1,58,-1,-1,-1,-1,-1,-1,-1,-1,-1,-1,-1,-1,-1,-1,-1,-1,-1,-1,-1,-1],"split_conditions":[4.8556037E-2,3.869E2,2.0328533E-2,5E0,2.017E1,3.4374774E0,4.098187E-3,5.5469405E-3,1.722366E-2,5.3951E1,1.7002363E-2,1.207E1,1.0038E2,1.4462747E-3,8.846512E-3,-2.775821E-1,-6.800527E-2,1.30475E3,9E0,2.881E1,1.02E2,6.521505E-2,8.389658E-3,3.667708E-3,-1.8837251E-1,2.6018676E-1,5.5006076E-2,-1.9904123E-1,8.903015E1,4.7210302E-2,6.825397E-1,1.1904762E-2,-8.945216E-3,2.89E2,-9.429562E-2,3.6E1,2.9411765E-2,2.9712088E-2,1.0281953E0,-3.0716196E-2,2.2307597E-1,2.0931621E-1,-9.2808604E-2,5.1693913E-2,-4.3099172E-2,3.1351888E-1,6.303886E-3,1.2425468E-1,-2.347882E-1,2.4660733E-1,-1.1187024E-1,2.6695785E-1,-7.142578E-2,2.460927E-1,-1.1135668E-2,-1.11731336E-1,4.7043838E-2,-2.7221E-2,-2.7175772E-1],"split_indices":[5,36,9,52,44,21,35,0,48,39,15,44,33,34,12,0,0,38,52,45,31,0,8,35,0,0,0,0,17,23,22,22,34,31,0,24,23,0,1,0,0,0,0,0,0,0,0,0,0,0,0,0,0,0,0,0,0,0,0],"split_type":[0,0,0,0,0,0,0,0,0,0,0,0,0,0,0,0,0,0,0,0,0,0,0,0,0,0,0,0,0,0,0,0,0,0,0,0,0,0,0,0,0,0,0,0,0,0,0,0,0,0,0,0,0,0,0,0,0,0,0],"sum_hessian":[2.9693387E2,2.6850317E2,2.8430681E1,4.51816E0,2.6398502E2,2.1280458E1,7.150224E0,1.2521095E0,3.26605E0,2.0316974E2,6.0815285E1,1.6595728E1,4.68473E0,3.3251264E0,3.8250976E0,2.2497296E0,1.0163206E0,1.6584323E2,3.7326504E1,1.3336468E1,4.7478817E1,1.1460644E0,1.5449663E1,3.3570335E0,1.3276967E0,2.037946E0,1.2871804E0,1.4164495E0,2.408648E0,1.5414891E2,1.1694324E1,1.51270485E1,2.2199453E1,1.215831E1,1.1781577E0,1.1010131E1,3.646869E1,1.3097812E0,1.4139882E1,1.3311849E0,2.0258486E0,1.4065126E0,1.0021354E0,6.418273E1,8.996618E1,9.853791E0,1.8405325E0,1.2055252E0,1.3921523E1,6.8018036E0,1.5397651E1,1.1101648E1,1.0566617E0,6.212798E0,4.7973332E0,1.4700186E1,2.1768501E1,2.6036632E0,1.1536219E1],"tree_param":{"num_deleted":"0","num_feature":"56","num_nodes":"59","size_leaf_vector":"1"}},{"base_weights":[3.682773E-3,5.8061637E-2,-1.3659358E-1,5.359708E-3,2.5695026E-1,-7.646225E-1,-9.378246E-2,7.5304574E-1,-2.0636054E-2,-6.7838836E-1,3.549864E-1,-3.0726528E-1,-3.148999E-1,-2.3344743E-1,2.1673048E-1,2.9948859E-2,2.647758E-1,-7.219864E-1,3.1928092E-2,1.4464054E-2,-3.2487494E-1,4.1185814E-1,-1.9492255E-1,-1.569183E-1,1.7080022E-2,-1.268714E-1,-7.054949E-1,3.9940065E-1,-3.4359065E-1,-9.169092E-1,6.112612E-2,6.371428E-1,2.7293648E-4,5.8696395E-1,-3.8214359E-3,2.5723794E-1,-1.945313E-1,3.7763927E-2,-9.034984E-1,-2.1137369E-1,6.028901E-1,1.8039799E-1,-6.7675006E-1,-7.538501E-3,-3.1363785E-1,-2.8600212E-2,2.7400872E-1,-1.8420437E-2,9.976154E-2,3.3668287E-3,2.5612885E-1,-1.3511726E-1,1.9243476E-1,3.7263516E-2,-1.2826343E-1,-1.0340797E-2,-3.0781013E-1,1.3914102E-1,-2.2237512E-1,6.209359E-3,2.1177384E-1,1.2210543E-1,-4.6166882E-2,-4.9006175E-2,-2.365864E-1],"categories":[],"categories_nodes":[],"categories_segments":[],"categories_sizes":[],"default_left":[0,0,0,0,0,0,0,0,0,0,0,0,0,0,0,0,0,0,0,0,0,0,0,0,0,0,0,0,0,0,0,0,0,0,0,0,0,0,0,0,0,0,0,0,0,0,0,0,0,0,0,0,0,0,0,0,0,0,0,0,0,0,0,0,0],"id":18,"left_children":[1,3,5,7,9,11,13,15,17,19,21,23,-1,25,27,-1,-1,29,31,-1,-1,33,-1,-1,-1,35,37,39,41,43,-1,45,47,49,51,-1,53,-1,55,57,59,61,63,-1,-1,-1,-1,-1,-1,-1,-1,-1,-1,-1,-1,-1,-1,-1,-1,-1,-1,-1,-1,-1,-1],"loss_changes":[2.2067213E0,2.1833076E0,2.1013699E0,3.2378953E0,4.242363E0,3.3167362E-1,3.3814845E0,3.8550973E-1,5.965474E0,1.3700583E0,2.562099E0,2.9232505E-1,0E0,2.5999374E0,2.6292467E0,0E0,0E0,2.2224197E0,2.890975E0,0E0,0E0,2.813027E0,0E0,0E0,0E0,3.1525605E0,1.6985173E0,2.4669447E0,1.2608976E0,1.0628529E0,0E0,1.6045921E0,2.979689E0,4.1649895E0,3.8733437E0,0E0,3.2291799E0,0E0,8.056321E-1,2.2916353E0,8.478298E-1,3.1453323E-1,1.123054E-1,0E0,0E0,0E0,0E0,0E0,0E0,0E0,0E0,0E0,0E0,0E0,0E0,0E0,0E0,0E0,0E0,0E0,0E0,0E0,0E0,0E0,0E0],"parents":[2147483647,0,0,1,1,2,2,3,3,4,4,5,5,6,6,7,7,8,8,9,9,10,10,11,11,13,13,14,14,17,17,18,18,21,21,25,25,26,26,27,27,28,28,29,29,31,31,32,32,33,33,34,34,36,36,38,38,39,39,40,40,41,41,42,42],"right_children":[2,4,6,8,10,12,14,16,18,20,22,24,-1,26,28,-1,-1,30,32,-1,-1,34,-1,-1,-1,36,38,40,42,44,-1,46,48,50,52,-1,54,-1,56,58,60,62,64,-1,-1,-1,-1,-1,-1,-1,-1,-1,-1,-1,-1,-1,-1,-1,-1,-1,-1,-1,-1,-1,-1],"split_conditions":[1.2957898E-2,3.5E2,2.0903492E1,2.8308332E1,-1.0608485E-1,1.4187519E-2,1.284E3,4.705E2,7.8836E2,4.596E2,3.497842E0,1E0,-3.148999E-1,7.916E1,5.091E3,2.9948859E-2,2.647758E-1,7.4795616E1,-2.6440677E-1,1.4464054E-2,-3.2487494E-1,5.9623096E1,-1.9492255E-1,-1.569183E-1,1.7080022E-2,8.767E1,1.1E1,2.8571429E-2,1.49622E3,4.398E2,6.112612E-2,3.1514E0,3.16E2,8.4923245E-3,2.079E1,2.5723794E-1,3.9855278E1,3.7763927E-2,1.0040467E0,4.3049003E-3,4.6189874E-3,2.2429263E-2,1E-2,-7.538501E-3,-3.1363785E-1,-2.8600212E-2,2.7400872E-1,-1.8420437E-2,9.976154E-2,3.3668287E-3,2.5612885E-1,-1.3511726E-1,1.9243476E-1,3.7263516E-2,-1.2826343E-1,-1.0340797E-2,-3.0781013E-1,1.3914102E-1,-2.2237512E-1,6.209359E-3,2.1177384E-1,1.2210543E-1,-4.6166882E-2,-4.9006175E-2,-2.365864E-1],"split_indices":[4,24,18,39,14,7,38,36,38,37,21,49,0,13,20,0,0,16,46,0,0,18,0,0,0,32,26,23,38,36,0,10,31,7,44,0,16,0,0,35,12,4,42,0,0,0,0,0,0,0,0,0,0,0,0,0,0,0,0,0,0,0,0,0,0],"split_type":[0,0,0,0,0,0,0,0,0,0,0,0,0,0,0,0,0,0,0,0,0,0,0,0,0,0,0,0,0,0,0,0,0,0,0,0,0,0,0,0,0,0,0,0,0,0,0,0,0,0,0,0,0,0,0,0,0,0,0,0,0,0,0,0,0],"sum_hessian":[2.8724997E2,2.0742621E2,7.982377E1,1.6478745E2,4.2638775E1,4.0181456E0,7.580562E1,4.597142E0,1.6019029E2,3.4835267E0,3.9155247E1,2.34059E0,1.6775556E0,5.2458576E1,2.3347046E1,1.0538206E0,3.5433214E0,1.02808E1,1.499095E2,1.5608276E0,1.922699E0,3.76161E1,1.5391462E0,1.1958349E0,1.1447551E0,4.3831364E1,8.627213E0,1.7823578E1,5.5234675E0,8.500485E0,1.7803138E0,6.5004187E0,1.4340907E2,2.6176954E1,1.1439148E1,2.0682933E0,4.176307E1,1.7295322E0,6.8976808E0,4.4445367E0,1.3379042E1,2.325102E0,3.1983654E0,1.2215823E0,7.2789035E0,1.9593886E0,4.54103E0,1.2164484E2,2.176424E1,8.619178E0,1.7557777E1,6.938952E0,4.500196E0,1.7834242E1,2.3928827E1,1.0107406E0,5.88694E0,2.0091467E0,2.4353902E0,2.1921093E0,1.1186933E1,1.2560397E0,1.0690624E0,1.0124154E0,2.18595E0],"tree_param":{"num_deleted":"0","num_feature":"56","num_nodes":"65","size_leaf_vector":"1"}},{"base_weights":[7.3554646E-4,1.5474127E-1,-5.2724488E-2,2.4181716E-2,5.307255E-1,-2.8892621E-2,-6.0404485E-1,6.4927495E-1,-4.4302896E-2,8.684215E-2,8.053589E-1,3.127379E-1,-6.1943155E-2,-7.829835E-1,7.615524E-2,-3.6198616E-2,2.5623706E-1,1.7449832E-1,-3.054514E-1,6.758003E-1,-5.0936943E-1,8.639706E-2,9.5160145E-1,-4.269842E-1,4.6327445E-1,-5.3402483E-1,-3.1516317E-2,-2.8211098E-2,-2.765177E-1,3.235867E-1,-2.2627747E-1,5.845346E-1,-4.307969E-1,-2.1114886E-2,2.8236267E-1,-2.1625093E-1,3.439587E-2,-3.2582816E-2,7.155479E-2,1.0938218E0,1.1196254E-2,1.5694309E-2,-1.9137216E-1,-3.2747403E-1,6.3E-1,-6.8735707E-1,8.9186475E-2,8.306104E-3,-3.89289E-1,-1.8808693E-2,2.0496857E-1,6.300015E-2,-2.4461278E-1,2.9679906E-1,-4.321597E-2,1.4155895E-1,-1.5386418E-1,3.505122E-1,9.592078E-2,1.1091765E-2,-1.7124532E-1,2.175849E-1,-2.5181402E-2,2.4270933E-2,-2.4036326E-1,3.351617E-2,-4.5447893E-2,-1.9231981E-1,1.00214005E-1],"categories":[],"categories_nodes":[],"categories_segments":[],"categories_sizes":[],"default_left":[0,0,0,0,0,0,0,0,0,0,0,0,0,0,0,0,0,0,0,0,0,0,0,0,0,0,0,0,0,0,0,0,0,0,0,0,0,0,0,0,0,0,0,0,0,0,0,0,0,0,0,0,0,0,0,0,0,0,0,0,0,0,0,0,0,0,0,0,0],"id":19,"left_children":[1,3,5,7,9,11,13,15,17,19,21,23,25,27,-1,-1,-1,29,31,33,35,37,39,41,43,45,47,-1,-1,49,51,53,55,-1,-1,-1,-1,-1,-1,57,-1,-1,-1,59,61,63,-1,65,67,-1,-1,-1,-1,-1,-1,-1,-1,-1,-1,-1,-1,-1,-1,-1,-1,-1,-1,-1,-1],"loss_changes":[2.3075094E0,3.5322886E0,2.7162507E0,2.3684099E0,2.19341E0,2.2831123E0,1.5144854E0,9.6426916E-1,2.921276E0,3.229716E0,1.1110587E0,2.1855512E0,2.620951E0,6.145954E-1,0E0,0E0,0E0,1.7430786E0,2.8449826E0,9.700413E-1,6.9675684E-1,1.154361E-1,1.172471E0,3.9112377E-1,2.2249696E0,1.6136959E0,2.4763265E0,0E0,0E0,2.9298024E0,2.26996E0,1.1140163E0,1.7943802E0,0E0,0E0,0E0,0E0,0E0,0E0,9.038925E-2,0E0,0E0,0E0,3.1591496E-1,9.44366E-1,9.077406E-1,0E0,2.6143386E0,3.3842223E0,0E0,0E0,0E0,0E0,0E0,0E0,0E0,0E0,0E0,0E0,0E0,0E0,0E0,0E0,0E0,0E0,0E0,0E0,0E0,0E0],"parents":[2147483647,0,0,1,1,2,2,3,3,4,4,5,5,6,6,7,7,8,8,9,9,10,10,11,11,12,12,13,13,17,17,18,18,19,19,20,20,21,21,22,22,23,23,24,24,25,25,26,26,29,29,30,30,31,31,32,32,39,39,43,43,44,44,45,45,47,47,48,48],"right_children":[2,4,6,8,10,12,14,16,18,20,22,24,26,28,-1,-1,-1,30,32,34,36,38,40,42,44,46,48,-1,-1,50,52,54,56,-1,-1,-1,-1,-1,-1,58,-1,-1,-1,60,62,64,-1,66,68,-1,-1,-1,-1,-1,-1,-1,-1,-1,-1,-1,-1,-1,-1,-1,-1,-1,-1,-1,-1],"split_conditions":[-2.4821572E-2,1.2519659E-2,3.274E1,2.9776333E1,1.2173158E-2,-4.389032E-2,4.1971E4,1.4078062E-2,4.0651337E1,7.1593393E-3,8.6573E2,-1.6089E4,-2.0328159E-2,-1.9331591E-2,7.615524E-2,-3.6198616E-2,2.5623706E-1,5.919E2,9.4942975E-1,3.0288142E-3,9.514E1,2.276669E-2,-1.8585099E-2,1.5E1,7.527652E-3,9.9718515E-3,1.4645E4,-2.8211098E-2,-2.765177E-1,1.1735315E-2,8E0,7.705E1,-2.5140503E-1,-2.1114886E-2,2.8236267E-1,-2.1625093E-1,3.439587E-2,-3.2582816E-2,7.155479E-2,9E-2,1.1196254E-2,1.5694309E-2,-1.9137216E-1,7E0,1.0341E2,1.242E1,8.9186475E-2,1.0652007E-2,3.8259666E1,-1.8808693E-2,2.0496857E-1,6.300015E-2,-2.4461278E-1,