{"learner":{"attributes":{"scikit_learn":"{\"_estimator_type\": \"classifier\"}"},"feature_names":["price_close","price_lag_1","price_lag_3","price_lag_7","price_lag_14","price_lag_30","price_ma_7","price_ma_14","price_ma_30","price_to_ma7_ratio","price_to_ma14_ratio","price_to_ma30_ratio","return_1d","return_3d","return_7d","return_14d","volatility_5d","volatility_10d","volatility_20d","usd_brl_close","is_interpolated","usd_brl_lag_1","usd_brl_return_7d","usd_brl_volatility_14d","wti_close","wti_lag_1","wti_return_7d","wti_volatility_14d","crush_spread","crush_spread_ma7","crush_spread_lag_1","cftc_noncomm_net","cftc_noncomm_net_chg_1w","cftc_long_short_ratio","wasde_soyoil_stock_to_use","wasde_soy_prod_brazil","wasde_world_production","spot_price_usd","basis","month","week_of_year","quarter","is_planting_season","is_flowering_season","is_harvest_season","days_to_next_harvest"],"feature_types":["float","float","float","float","float","float","float","float","float","float","float","float","float","float","float","float","float","float","float","float","int","float","float","float","float","float","float","float","float","float","float","float","float","float","float","float","float","float","float","int","int","int","int","int","int","int"],"gradient_booster":{"model":{"gbtree_model_param":{"num_parallel_tree":"1","num_trees":"300"},"iteration_indptr":[0,1,2,3,4,5,6,7,8,9,10,11,12,13,14,15,16,17,18,19,20,21,22,23,24,25,26,27,28,29,30,31,32,33,34,35,36,37,38,39,40,41,42,43,44,45,46,47,48,49,50,51,52,53,54,55,56,57,58,59,60,61,62,63,64,65,66,67,68,69,70,71,72,73,74,75,76,77,78,79,80,81,82,83,84,85,86,87,88,89,90,91,92,93,94,95,96,97,98,99,100,101,102,103,104,105,106,107,108,109,110,111,112,113,114,115,116,117,118,119,120,121,122,123,124,125,126,127,128,129,130,131,132,133,134,135,136,137,138,139,140,141,142,143,144,145,146,147,148,149,150,151,152,153,154,155,156,157,158,159,160,161,162,163,164,165,166,167,168,169,170,171,172,173,174,175,176,177,178,179,180,181,182,183,184,185,186,187,188,189,190,191,192,193,194,195,196,197,198,199,200,201,202,203,204,205,206,207,208,209,210,211,212,213,214,215,216,217,218,219,220,221,222,223,224,225,226,227,228,229,230,231,232,233,234,235,236,237,238,239,240,241,242,243,244,245,246,247,248,249,250,251,252,253,254,255,256,257,258,259,260,261,262,263,264,265,266,267,268,269,270,271,272,273,274,275,276,277,278,279,280,281,282,283,284,285,286,287,288,289,290,291,292,293,294,295,296,297,298,299,300],"tree_info":[0,0,0,0,0,0,0,0,0,0,0,0,0,0,0,0,0,0,0,0,0,0,0,0,0,0,0,0,0,0,0,0,0,0,0,0,0,0,0,0,0,0,0,0,0,0,0,0,0,0,0,0,0,0,0,0,0,0,0,0,0,0,0,0,0,0,0,0,0,0,0,0,0,0,0,0,0,0,0,0,0,0,0,0,0,0,0,0,0,0,0,0,0,0,0,0,0,0,0,0,0,0,0,0,0,0,0,0,0,0,0,0,0,0,0,0,0,0,0,0,0,0,0,0,0,0,0,0,0,0,0,0,0,0,0,0,0,0,0,0,0,0,0,0,0,0,0,0,0,0,0,0,0,0,0,0,0,0,0,0,0,0,0,0,0,0,0,0,0,0,0,0,0,0,0,0,0,0,0,0,0,0,0,0,0,0,0,0,0,0,0,0,0,0,0,0,0,0,0,0,0,0,0,0,0,0,0,0,0,0,0,0,0,0,0,0,0,0,0,0,0,0,0,0,0,0,0,0,0,0,0,0,0,0,0,0,0,0,0,0,0,0,0,0,0,0,0,0,0,0,0,0,0,0,0,0,0,0,0,0,0,0,0,0,0,0,0,0,0,0,0,0,0,0,0,0,0,0,0,0,0,0,0,0,0,0,0,0,0,0,0,0,0,0,0,0,0,0,0,0],"trees":[{"base_weights":[1.3940262E-2,5.989665E-1,-5.375873E-1,1.3738962E0,2.1119443E-1,-3.09228E-1,-1.7623738E0,6.930467E-2,1.4973332E0,-3.6765996E-1,9.805769E-1,7.244367E-2,-4.4232988E-1,-3.6294397E-2,-9.310203E-2,5.7442557E-2,-5.804621E-2,7.758248E-2,8.691333E-3,-4.33919E-2,2.0541346E-2,6.260313E-2,-7.6850015E-3,-2.6988743E-2,5.658877E-2],"categories":[],"categories_nodes":[],"categories_segments":[],"categories_sizes":[],"default_left":[0,0,0,0,0,0,0,0,0,0,0,0,0,0,0,0,0,0,0,0,0,0,0,0,0],"id":0,"left_children":[1,3,5,7,9,11,13,15,17,19,21,-1,23,-1,-1,-1,-1,-1,-1,-1,-1,-1,-1,-1,-1],"loss_changes":[6.2557087E1,2.7978031E1,2.7371227E1,4.919258E0,2.880995E1,2.0610641E1,2.4670029E-1,6.3070817E0,1.7753105E0,1.4834027E1,8.722027E0,0E0,1.2897102E1,0E0,0E0,0E0,0E0,0E0,0E0,0E0,0E0,0E0,0E0,0E0,0E0],"parents":[2147483647,0,0,1,1,2,2,3,3,4,4,5,5,6,6,7,7,8,8,9,9,10,10,12,12],"right_children":[2,4,6,8,10,12,14,16,18,20,22,-1,24,-1,-1,-1,-1,-1,-1,-1,-1,-1,-1,-1,-1],"split_conditions":[5.82E1,1.906719E-2,-1.0598E3,2.967E1,5.3378E0,4.775E0,-4.336686E-2,1.0567855E0,6.795E1,1.9387137E-2,1.20152E5,7.244367E-2,1.224E4,-3.6294397E-2,-9.310203E-2,5.7442557E-2,-5.804621E-2,7.758248E-2,8.691333E-3,-4.33919E-2,2.0541346E-2,6.260313E-2,-7.6850015E-3,-2.6988743E-2,5.658877E-2],"split_indices":[4,27,38,3,21,21,13,11,0,17,31,0,32,0,0,0,0,0,0,0,0,0,0,0,0],"split_type":[0,0,0,0,0,0,0,0,0,0,0,0,0,0,0,0,0,0,0,0,0,0,0,0,0],"sum_hessian":[1.9188249E2,9.307174E1,9.8810745E1,3.0192173E1,6.2879566E1,8.433846E1,1.4472281E1,2.7447429E0,2.744743E1,3.6180702E1,2.6698864E1,5.239964E0,7.90985E1,1.9961767E0,1.2476105E1,1.4971325E0,1.2476104E0,2.619982E1,1.2476104E0,2.1957943E1,1.4222759E1,2.14589E1,5.239964E0,7.510615E1,3.9923534E0],"tree_param":{"num_deleted":"0","num_feature":"46","num_nodes":"25","size_leaf_vector":"1"}},{"base_weights":[-1.1771334E-2,-4.8295796E-1,6.168973E-1,5.3681576E-1,-7.0156837E-1,9.6058315E-1,-3.2083192E-3,1.2558146E0,-6.720575E-1,8.6041373E-1,-8.183645E-1,1.3437523E0,3.4569907E-1,3.8767824E-1,-1.3420333E0,7.933047E-2,1.9070384E-3,5.8694094E-2,-6.3945495E-2,7.43608E-2,-2.943009E-2,-4.712228E-2,2.621313E-2,7.378598E-2,-2.1141915E-2,-3.4290757E-2,4.7407236E-2,3.4513433E-2,-6.481296E-2,-8.538348E-2,9.435546E-3],"categories":[],"categories_nodes":[],"categories_segments":[],"categories_sizes":[],"default_left":[0,0,0,0,0,0,0,0,0,0,0,0,0,0,0,0,0,0,0,0,0,0,0,0,0,0,0,0,0,0,0],"id":1,"left_children":[1,3,5,7,9,11,13,15,17,19,21,23,25,27,29,-1,-1,-1,-1,-1,-1,-1,-1,-1,-1,-1,-1,-1,-1,-1,-1],"loss_changes":[5.6143486E1,2.4525066E1,1.7309748E1,1.7956697E1,1.7056206E1,1.1846088E1,1.6196278E1,5.052717E0,1.0456459E1,6.981916E0,1.4473007E1,8.048027E0,1.3952901E1,1.31039715E1,4.236397E0,0E0,0E0,0E0,0E0,0E0,0E0,0E0,0E0,0E0,0E0,0E0,0E0,0E0,0E0,0E0,0E0],"parents":[2147483647,0,0,1,1,2,2,3,3,4,4,5,5,6,6,7,7,8,8,9,9,10,10,11,11,12,12,13,13,14,14],"right_children":[2,4,6,8,10,12,14,16,18,20,22,24,26,28,30,-1,-1,-1,-1,-1,-1,-1,-1,-1,-1,-1,-1,-1,-1,-1,-1],"split_conditions":[5.2584E0,5.1292E1,5.842433E1,-7.4406E2,4.775E0,1.9595984E-2,5.5074E0,5.1704E0,2.6242857E1,2.1208605E-2,3.23612E-2,3.35E2,4.194E1,7.291167E1,6.0488E1,7.933047E-2,1.9070384E-3,5.8694094E-2,-6.3945495E-2,7.43608E-2,-2.943009E-2,-4.712228E-2,2.621313E-2,7.378598E-2,-2.1141915E-2,-3.4290757E-2,4.7407236E-2,3.4513433E-2,-6.481296E-2,-8.538348E-2,9.435546E-3],"split_indices":[21,8,8,38,21,13,21,21,7,16,18,45,25,8,8,0,0,0,0,0,0,0,0,0,0,0,0,0,0,0,0],"split_type":[0,0,0,0,0,0,0,0,0,0,0,0,0,0,0,0,0,0,0,0,0,0,0,0,0,0,0,0,0,0,0],"sum_hessian":[1.8752713E2,1.0732151E2,8.020561E1,1.8688383E1,8.863313E1,5.12512E1,2.895441E1,1.1694212E1,6.99417E0,5.7234387E0,8.290969E1,3.0844727E1,2.0406475E1,2.2961073E1,5.9933367E0,8.957754E0,2.736458E0,1.4992707E0,5.4948997E0,3.9768188E0,1.74662E0,7.616851E1,6.741183E0,2.8853941E1,1.990787E0,7.4729023E0,1.2933573E1,1.9963818E1,2.9972553E0,4.74448E0,1.2488564E0],"tree_param":{"num_deleted":"0","num_feature":"46","num_nodes":"31","size_leaf_vector":"1"}},{"base_weights":[-5.7295658E-2,4.1983578E-1,-6.9073844E-1,1.5575337E0,2.5483376E-1,6.431442E-2,-8.204026E-1,8.442598E-2,6.973732E-3,-4.723154E-1,5.2485585E-1,-1.1458471E0,2.6746267E-1,-3.974133E-2,7.126791E-2,-3.7815463E-2,3.1935815E-2,-6.1261542E-2,5.8532875E-2,3.9531663E-2,-4.5116078E-2],"categories":[],"categories_nodes":[],"categories_segments":[],"categories_sizes":[],"default_left":[0,0,0,0,0,0,0,0,0,0,0,0,0,0,0,0,0,0,0,0,0],"id":2,"left_children":[1,3,5,7,9,-1,11,-1,-1,13,15,17,19,-1,-1,-1,-1,-1,-1,-1,-1],"loss_changes":[5.779045E1,2.0090355E1,2.2105312E1,2.295784E0,1.9196936E1,0E0,2.7805138E1,0E0,0E0,1.7449162E1,1.0818037E1,1.246328E1,1.21554E1,0E0,0E0,0E0,0E0,0E0,0E0,0E0,0E0],"parents":[2147483647,0,0,1,1,2,2,3,3,4,4,6,6,9,9,10,10,11,11,12,12],"right_children":[2,4,6,8,10,-1,12,-1,-1,14,16,18,20,-1,-1,-1,-1,-1,-1,-1,-1],"split_conditions":[6.132E1,4.8E1,4.775E0,1.2764E4,6.2564835E-3,6.431442E-2,5.2689E0,8.442598E-2,6.973732E-3,1.2762E4,-8.4340485E2,4.404374E-2,4.7E1,-3.974133E-2,7.126791E-2,-3.7815463E-2,3.1935815E-2,-6.1261542E-2,5.8532875E-2,3.9531663E-2,-4.5116078E-2],"split_indices":[5,45,21,32,23,0,21,0,0,32,29,16,40,0,0,0,0,0,0,0,0],"split_type":[0,0,0,0,0,0,0,0,0,0,0,0,0,0,0,0,0,0,0,0,0],"sum_hessian":[1.8925053E2,1.0813594E2,8.1114586E1,1.262771E1,9.550823E1,4.4434767E0,7.667111E1,1.1385324E1,1.2423868E0,2.5659624E1,6.98486E1,5.897494E1,1.769617E1,2.242896E1,3.2306628E0,5.240438E0,6.460817E1,5.7476383E1,1.4985579E0,1.2451515E1,5.244656E0],"tree_param":{"num_deleted":"0","num_feature":"46","num_nodes":"21","size_leaf_vector":"1"}},{"base_weights":[4.8600662E-2,-2.7461907E-1,7.702722E-1,-3.900075E-1,1.3131912E0,1.0867269E0,-1.6473204E-1,2.41848E-1,-5.438161E-1,4.545399E-3,7.4309304E-2,1.1983652E0,-3.7890878E-1,-1.4949781E0,8.7697774E-1,4.580184E-2,-2.0447245E-2,5.2412685E-2,-3.21591E-2,7.1044855E-2,2.7133739E-2,2.1015827E-2,-5.9124943E-2,-1.534835E-2,-8.4091604E-2,5.93439E-2,-3.404376E-2],"categories":[],"categories_nodes":[],"categories_segments":[],"categories_sizes":[],"default_left":[0,0,0,0,0,0,0,0,0,0,0,0,0,0,0,0,0,0,0,0,0,0,0,0,0,0,0],"id":3,"left_children":[1,3,5,7,9,11,13,15,17,-1,-1,19,21,23,25,-1,-1,-1,-1,-1,-1,-1,-1,-1,-1,-1,-1],"loss_changes":[4.572681E1,2.5338812E1,1.8116383E1,1.248336E1,1.8544636E0,7.88649E0,2.375696E1,1.1595255E1,1.689305E1,0E0,0E0,5.4228363E0,3.049893E0,1.1449509E0,5.498027E0,0E0,0E0,0E0,0E0,0E0,0E0,0E0,0E0,0E0,0E0,0E0,0E0],"parents":[2147483647,0,0,1,1,2,2,3,3,4,4,5,5,6,6,7,7,8,8,11,11,12,12,13,13,14,14],"right_children":[2,4,6,8,10,12,14,16,18,-1,-1,20,22,24,26,-1,-1,-1,-1,-1,-1,-1,-1,-1,-1,-1,-1],"split_conditions":[5.3378E0,1.2762E4,5.827E1,4.999E1,1.6095253E-2,7.788114E0,6.067E1,2.4583764E-2,4.775E0,4.545399E-3,7.4309304E-2,3.1831834E-2,1.001911E0,1.1189003E-2,1.0074003E0,4.580184E-2,-2.0447245E-2,5.2412685E-2,-3.21591E-2,7.1044855E-2,2.7133739E-2,2.1015827E-2,-5.9124943E-2,-1.534835E-2,-8.4091604E-2,5.93439E-2,-3.404376E-2],"split_indices":[19,32,8,2,27,33,8,27,21,0,0,13,10,16,9,0,0,0,0,0,0,0,0,0,0,0,0],"split_type":[0,0,0,0,0,0,0,0,0,0,0,0,0,0,0,0,0,0,0,0,0,0,0,0,0,0,0],"sum_hessian":[1.941281E2,1.3450565E2,5.962245E1,1.2609641E2,8.409231E0,4.442457E1,1.5197884E1,2.4573698E1,1.0152271E2,1.231766E0,7.1774654E0,4.144968E1,2.974887E0,6.483475E0,8.714409E0,1.1869706E1,1.2703991E1,5.4031086E0,9.6119606E1,3.007547E1,1.137421E1,1.7306191E0,1.2442677E0,1.2403286E0,5.2431464E0,7.467123E0,1.247286E0],"tree_param":{"num_deleted":"0","num_feature":"46","num_nodes":"27","size_leaf_vector":"1"}},{"base_weights":[-5.493223E-3,-3.1829733E-1,6.4364827E-1,-4.2812142E-1,7.1563534E-2,1.0202411E0,-5.714948E-1,7.552648E-1,-4.9793714E-1,1.1563189E0,-4.7646686E-1,-8.478514E-2,4.9374846E-1,7.257363E-2,-5.7347234E-2,3.6771249E-3,-3.4967717E-2,6.0432848E-2,-1.8916573E-2,2.6702315E-2,-7.015297E-2,3.90811E-2,-3.3964183E-2],"categories":[],"categories_nodes":[],"categories_segments":[],"categories_sizes":[],"default_left":[0,0,0,0,0,0,0,0,0,0,0,0,0,0,0,0,0,0,0,0,0,0,0],"id":4,"left_children":[1,3,5,7,-1,9,11,13,15,17,19,-1,21,-1,-1,-1,-1,-1,-1,-1,-1,-1,-1],"loss_changes":[3.8997875E1,2.5513195E1,2.9163578E1,1.051405E1,0E0,1.0334785E1,1.9300508E1,1.1244133E1,1.3458296E1,4.017582E0,5.1610374E0,0E0,3.4657032E0,0E0,0E0,0E0,0E0,0E0,0E0,0E0,0E0,0E0,0E0],"parents":[2147483647,0,0,1,1,2,2,3,3,5,5,6,6,7,7,8,8,9,9,10,10,12,12],"right_children":[2,4,6,8,-1,10,12,14,16,18,20,-1,22,-1,-1,-1,-1,-1,-1,-1,-1,-1,-1],"split_conditions":[5.3378E0,1.2762E4,5.842433E1,2.7E1,7.1563534E-2,3.41E2,6.0628E1,-1.18222E3,5.1721428E1,8.932172E-1,5.25E1,-8.478514E-2,7.291167E1,7.257363E-2,-5.7347234E-2,3.6771249E-3,-3.4967717E-2,6.0432848E-2,-1.8916573E-2,2.6702315E-2,-7.015297E-2,3.90811E-2,-3.3964183E-2],"split_indices":[19,32,8,45,0,45,8,38,6,27,3,0,8,0,0,0,0,0,0,0,0,0,0],"split_type":[0,0,0,0,0,0,0,0,0,0,0,0,0,0,0,0,0,0,0,0,0,0,0],"sum_hessian":[1.9004759E2,1.2859212E2,6.1455475E1,1.2170758E2,6.884543E0,4.7038013E1,1.4417461E1,6.2333565E0,1.1547422E2,4.3326298E1,3.7117162E0,6.7266374E0,7.690824E0,4.7366858E0,1.4966705E0,3.0258074E1,8.521615E1,4.2102837E1,1.2234612E0,1.9781029E0,1.7336133E0,6.4432592E0,1.247565E0],"tree_param":{"num_deleted":"0","num_feature":"46","num_nodes":"23","size_leaf_vector":"1"}},{"base_weights":[-2.4127265E-2,-3.4083375E-1,6.271078E-1,-4.3658197E-1,1.1442022E0,8.972305E-1,-2.0221868E-1,-1.111803E-1,-6.8919337E-1,1.2827146E-2,7.112573E-2,1.0389522E0,-5.6402135E-1,1.133107E0,-1.0515245E0,-1.491453E-2,4.6731554E-2,6.297424E-2,-3.92704E-2,6.030043E-2,-2.7055716E-2,6.1890665E-3,-6.467526E-2,6.6635154E-2,5.9120855E-3,-8.020474E-2,-4.677888E-3],"categories":[],"categories_nodes":[],"categories_segments":[],"categories_sizes":[],"default_left":[0,0,0,0,0,0,0,0,0,0,0,0,0,0,0,0,0,0,0,0,0,0,0,0,0,0,0],"id":5,"left_children":[1,3,5,7,9,11,13,15,17,-1,-1,19,21,23,25,-1,-1,-1,-1,-1,-1,-1,-1,-1,-1,-1,-1],"loss_changes":[4.052424E1,1.9289005E1,1.458609E1,1.0187181E1,1.6806431E0,1.0668564E1,2.0033503E1,1.1190415E1,1.4132668E1,0E0,0E0,1.2460609E1,2.6450415E0,1.2482643E0,5.5000305E0,0E0,0E0,0E0,0E0,0E0,0E0,0E0,0E0,0E0,0E0,0E0,0E0],"parents":[2147483647,0,0,1,1,2,2,3,3,4,4,5,5,6,6,7,7,8,8,11,11,12,12,13,13,14,14],"right_children":[2,4,6,8,10,12,14,16,18,-1,-1,20,22,24,26,-1,-1,-1,-1,-1,-1,-1,-1,-1,-1,-1,-1],"split_conditions":[5.3378E0,1.2762E4,5.842433E1,-4.8771757E-3,-2.2924883E-2,7.788114E0,-6.599382E2,5.254E0,4.7233E0,1.2827146E-2,7.112573E-2,3.38E2,-2.997214E-3,-1.9967437E-3,8.840027E-3,-1.491453E-2,4.6731554E-2,6.297424E-2,-3.92704E-2,6.030043E-2,-2.7055716E-2,6.1890665E-3,-6.467526E-2,6.6635154E-2,5.9120855E-3,-8.020474E-2,-4.677888E-3],"split_indices":[19,32,8,13,22,33,29,19,19,0,0,45,12,14,23,0,0,0,0,0,0,0,0,0,0,0,0],"split_type":[0,0,0,0,0,0,0,0,0,0,0,0,0,0,0,0,0,0,0,0,0,0,0,0,0,0,0],"sum_hessian":[1.944445E2,1.3114375E2,6.330076E1,1.2386361E2,7.2801394E0,4.7686687E1,1.5614071E1,5.4761997E1,6.9101616E1,2.1964576E0,5.0836816E0,4.3734074E1,3.952615E0,5.940279E0,9.673792E0,4.705752E1,7.704475E0,2.6824486E0,6.641917E1,3.9766407E1,3.967665E0,2.4617965E0,1.4908185E0,4.702286E0,1.2379931E0,5.70727E0,3.9665215E0],"tree_param":{"num_deleted":"0","num_feature":"46","num_nodes":"27","size_leaf_vector":"1"}},{"base_weights":[8.755164E-3,4.8498124E-1,-4.312471E-1,1.2218149E0,1.237039E-1,5.7823725E-2,-8.4153116E-1,7.977869E-2,6.0487103E-1,-1.06329635E-1,1.2798002E0,1.0403475E0,-4.809234E-1,-3.3360615E-1,-1.2265909E0,4.4613365E-2,-2.1858415E-2,-4.314233E-2,1.8260425E-2,7.127339E-2,4.664797E-3,6.9158696E-2,-4.077077E-2,6.2706426E-2,-4.2978533E-2,-6.851505E-2,5.522368E-3,-7.9002514E-2,-1.0298182E-2],"categories":[],"categories_nodes":[],"categories_segments":[],"categories_sizes":[],"default_left":[0,0,0,0,0,0,0,0,0,0,0,0,0,0,0,0,0,0,0,0,0,0,0,0,0,0,0,0,0],"id":6,"left_children":[1,3,5,7,9,11,13,-1,15,17,19,21,23,25,27,-1,-1,-1,-1,-1,-1,-1,-1,-1,-1,-1,-1,-1,-1],"loss_changes":[3.9875572E1,2.4174208E1,1.9898224E1,5.9412613E0,1.673835E1,2.4883429E1,1.0124519E1,0E0,4.256365E0,1.9218586E1,1.6708813E0,1.170752E1,2.1072699E1,1.1474817E1,1.0591164E1,0E0,0E0,0E0,0E0,0E0,0E0,0E0,0E0,0E0,0E0,0E0,0E0,0E0,0E0],"parents":[2147483647,0,0,1,1,2,2,3,3,4,4,5,5,6,6,8,8,9,9,10,10,11,11,12,12,13,13,14,14],"right_children":[2,4,6,8,10,12,14,-1,16,18,20,22,24,26,28,-1,-1,-1,-1,-1,-1,-1,-1,-1,-1,-1,-1,-1,-1],"split_conditions":[5.831E1,1.880805E-2,-1.45546E3,1.0604326E0,2.18404E-2,6.890929E1,-9.09E2,7.977869E-2,-5.736656E2,-7.437534E2,1.1213232E0,1.0940711E-1,4.775E0,-1.1088004E-2,3.3158412E0,4.4613365E-2,-2.1858415E-2,-4.314233E-2,1.8260425E-2,7.127339E-2,4.664797E-3,6.9158696E-2,-4.077077E-2,6.2706426E-2,-4.2978533E-2,-6.851505E-2,5.522368E-3,-7.9002514E-2,-1.0298182E-2],"split_indices":[4,27,38,11,18,7,32,0,30,30,10,15,21,22,33,0,0,0,0,0,0,0,0,0,0,0,0,0,0],"split_type":[0,0,0,0,0,0,0,0,0,0,0,0,0,0,0,0,0,0,0,0,0,0,0,0,0,0,0,0,0],"sum_hessian":[1.8830191E2,9.037953E1,9.7922386E1,2.8951117E1,6.1428417E1,4.506392E1,5.2858463E1,1.7041016E1,1.19101E1,5.1991474E1,9.436944E0,1.5629338E1,2.9434582E1,2.3597637E1,2.9260826E1,9.448043E0,2.462057E0,1.9644604E1,3.234687E1,8.225674E0,1.21127E0,1.3407204E1,2.2221346E0,4.858706E0,2.4575876E1,6.4510403E0,1.7146597E1,2.1326876E1,7.93395E0],"tree_param":{"num_deleted":"0","num_feature":"46","num_nodes":"29","size_leaf_vector":"1"}},{"base_weights":[-7.0445895E-2,-4.4115034E-1,4.392064E-1,-5.277198E-1,6.0406238E-2,6.771191E-1,-2.3749378E-1,1.7766698E-1,-7.1199846E-1,9.894229E-1,1.3712586E-1,-6.9020666E-2,3.937711E-2,3.8069185E-2,-3.7367746E-2,-4.1868225E-2,3.368565E-2,5.629204E-2,-1.4757197E-3,2.7302E-2,-6.445891E-2,3.65926E-2,-4.8626002E-2],"categories":[],"categories_nodes":[],"categories_segments":[],"categories_sizes":[],"default_left":[0,0,0,0,0,0,0,0,0,0,0,0,0,0,0,0,0,0,0,0,0,0,0],"id":7,"left_children":[1,3,5,7,-1,9,11,13,15,17,19,-1,21,-1,-1,-1,-1,-1,-1,-1,-1,-1,-1],"loss_changes":[3.586902E1,1.6316471E1,1.3042621E1,1.3779566E1,0E0,9.891724E0,6.8748493E0,1.2748236E1,1.5065926E1,5.2473335E0,1.4088315E1,0E0,1.3550805E1,0E0,0E0,0E0,0E0,0E0,0E0,0E0,0E0,0E0,0E0],"parents":[2147483647,0,0,1,1,2,2,3,3,5,5,6,6,7,7,8,8,9,9,10,10,12,12],"right_children":[2,4,6,8,-1,10,12,14,16,18,20,-1,22,-1,-1,-1,-1,-1,-1,-1,-1,-1,-1],"split_conditions":[5.2568E0,1.2762E4,2.711096E-2,5.1165714E1,6.0406238E-2,5.8568E1,1.4362508E-2,3.0188702E-2,3.23612E-2,7.788114E0,5.5074E0,-6.9020666E-2,5.6804287E1,3.8069185E-2,-3.7367746E-2,-4.1868225E-2,3.368565E-2,5.629204E-2,-1.4757197E-3,2.7302E-2,-6.445891E-2,3.65926E-2,-4.8626002E-2],"split_indices":[21,32,13,6,0,8,18,27,18,33,21,0,7,0,0,0,0,0,0,0,0,0,0],"split_type":[0,0,0,0,0,0,0,0,0,0,0,0,0,0,0,0,0,0,0,0,0,0,0],"sum_hessian":[1.8782758E2,1.0881414E2,7.901344E1,1.0403351E2,4.7806287E0,5.8459698E1,2.0553743E1,2.1556156E1,8.2477356E1,3.6511227E1,2.1948471E1,3.2308931E0,1.7322851E1,1.3324743E1,8.231412E0,7.5997536E1,6.4798207E0,3.210766E1,4.403569E0,1.7537674E1,4.410798E0,1.0449003E1,6.8738475E0],"tree_param":{"num_deleted":"0","num_feature":"46","num_nodes":"23","size_leaf_vector":"1"}},{"base_weights":[-1.6661247E-2,4.5097938E-1,-4.49173E-1,1.1272117E0,1.0018535E-1,1.8981125E-2,-7.919074E-1,7.4331336E-2,4.4353062E-1,-1.7084503E-1,1.2672757E0,9.412988E-1,-5.192351E-1,-3.205552E-1,-1.1883161E0,3.8642485E-2,-2.5503179E-2,-3.3502806E-2,2.2324873E-2,6.922062E-2,7.1648094E-3,-3.1283773E-2,6.354837E-2,5.7614844E-2,-5.105194E-2,5.4553438E-2,-3.6155373E-2,-6.4695865E-2,3.6196273E-2],"categories":[],"categories_nodes":[],"categories_segments":[],"categories_sizes":[],"default_left":[0,0,0,0,0,0,0,0,0,0,0,0,0,0,0,0,0,0,0,0,0,0,0,0,0,0,0,0,0],"id":8,"left_children":[1,3,5,7,9,11,13,-1,15,17,19,21,23,25,27,-1,-1,-1,-1,-1,-1,-1,-1,-1,-1,-1,-1,-1,-1],"loss_changes":[3.8389385E1,2.1524994E1,1.5833296E1,6.972416E0,1.9561522E1,2.1658089E1,1.0258232E1,0E0,4.2024612E0,1.5866338E1,1.3347301E0,9.096963E0,2.4305628E1,1.6348091E1,7.107723E0,0E0,0E0,0E0,0E0,0E0,0E0,0E0,0E0,0E0,0E0,0E0,0E0,0E0,0E0],"parents":[2147483647,0,0,1,1,2,2,3,3,4,4,5,5,6,6,8,8,9,9,10,10,11,11,12,12,13,13,14,14],"right_children":[2,4,6,8,10,12,14,-1,16,18,20,22,24,26,28,-1,-1,-1,-1,-1,-1,-1,-1,-1,-1,-1,-1,-1,-1],"split_conditions":[5.831E1,1.906719E-2,-1.45546E3,1.0604326E0,2.1297356E-2,6.921357E1,9.8268723E-1,7.4331336E-2,-5.705109E2,5.3232E0,3.3963457E-2,-8.656885E2,4.8242E0,6.094E1,2.8357856E-2,3.8642485E-2,-2.5503179E-2,-3.3502806E-2,2.2324873E-2,6.922062E-2,7.1648094E-3,-3.1283773E-2,6.354837E-2,5.7614844E-2,-5.105194E-2,5.4553438E-2,-3.6155373E-2,-6.4695865E-2,3.6196273E-2],"split_indices":[4,27,38,11,18,7,10,0,29,21,17,29,21,5,22,0,0,0,0,0,0,0,0,0,0,0,0,0,0],"split_type":[0,0,0,0,0,0,0,0,0,0,0,0,0,0,0,0,0,0,0,0,0,0,0,0,0,0,0,0,0],"sum_hessian":[1.8780057E2,9.021526E1,9.7585304E1,3.0058197E1,6.0157066E1,4.1645176E1,5.5940125E1,1.8931406E1,1.1126792E1,4.9512516E1,1.0644549E1,1.5070535E1,2.6574642E1,2.638067E1,2.9559456E1,8.411471E0,2.71532E0,2.7328259E1,2.2184256E1,9.4300785E0,1.2144713E0,2.463445E0,1.260709E1,5.8365407E0,2.0738102E1,5.474155E0,2.0906515E1,2.8318928E1,1.2405285E0],"tree_param":{"num_deleted":"0","num_feature":"46","num_nodes":"29","size_leaf_vector":"1"}},{"base_weights":[4.1616186E-2,-3.2112083E-1,5.3862447E-1,4.580904E-1,-4.9462152E-1,6.0410035E-1,-5.2826125E-2,1.1438382E0,-2.909095E-1,-5.854362E-1,6.3350625E-2,1.5574618E-1,8.657646E-1,-1.9257745E-2,6.894389E-2,5.8692377E-2,-3.3335973E-2,2.6547626E-2,-3.618041E-2,3.0671418E-2,-4.0309418E-2,1.8612687E-2,5.5246282E-2],"categories":[],"categories_nodes":[],"categories_segments":[],"categories_sizes":[],"default_left":[0,0,0,0,0,0,0,0,0,0,0,0,0,0,0,0,0,0,0,0,0,0,0],"id":9,"left_children":[1,3,5,7,9,11,-1,13,15,17,-1,19,21,-1,-1,-1,-1,-1,-1,-1,-1,-1,-1],"loss_changes":[3.37251E1,1.4856319E1,8.878292E0,1.0721404E1,1.4978104E1,8.830643E0,0E0,4.3985443E0,6.5430036E0,1.3543343E1,0E0,1.3430536E1,5.2584915E0,0E0,0E0,0E0,0E0,0E0,0E0,0E0,0E0,0E0,0E0],"parents":[2147483647,0,0,1,1,2,2,3,3,4,4,5,5,7,7,8,8,9,9,11,11,12,12],"right_children":[2,4,6,8,10,12,-1,14,16,18,-1,20,22,-1,-1,-1,-1,-1,-1,-1,-1,-1,-1],"split_conditions":[5.2568E0,5.1053333E1,7.291167E1,2.6542919E-2,4.0911045E-2,8.26567E-3,-5.2826125E-2,-8.098424E2,2.6242857E1,4.8155E0,6.3350625E-2,-6.381692E2,1.4526875E-2,-1.9257745E-2,6.894389E-2,5.8692377E-2,-3.3335973E-2,2.6547626E-2,-3.618041E-2,3.0671418E-2,-4.0309418E-2,1.8612687E-2,5.5246282E-2],"split_indices":[21,8,8,27,16,23,0,28,7,19,0,30,18,0,0,0,0,0,0,0,0,0,0],"split_type":[0,0,0,0,0,0,0,0,0,0,0,0,0,0,0,0,0,0,0,0,0,0,0],"sum_hessian":[1.8510785E2,1.0721317E2,7.789467E1,1.9226137E1,8.798704E1,7.542019E1,2.4744775E0,9.761672E0,9.464465E0,8.430849E1,3.6785471E0,2.8382614E1,4.703758E1,1.215547E0,8.546125E0,1.4988873E0,7.9655776E0,8.972296E0,7.53362E1,1.9477596E1,8.905017E0,1.6188652E1,3.0848927E1],"tree_param":{"num_deleted":"0","num_feature":"46","num_nodes":"23","size_leaf_vector":"1"}},{"base_weights":[4.6573017E-2,4.4138885E-1,-3.3844075E-1,1.065099E0,1.3079008E-1,-1.1955577E0,-2.0894545E-1,1.2894144E0,3.055939E-1,-3.1584713E-1,6.8911594E-1,2.1761546E-2,-7.730476E-2,3.6694463E-2,-6.880775E-1,6.771561E-2,7.9244645E-3,4.1673567E-2,-3.0219799E-2,-3.5877597E-2,1.713505E-2,4.3623537E-2,-1.8181035E-2,1.8374262E-2,-2.3532271E-2,-4.3641295E-2,3.0763779E-2],"categories":[],"categories_nodes":[],"categories_segments":[],"categories_sizes":[],"default_left":[0,0,0,0,0,0,0,0,0,0,0,0,0,0,0,0,0,0,0,0,0,0,0,0,0,0,0],"id":10,"left_children":[1,3,5,7,9,11,13,15,17,19,21,-1,-1,23,25,-1,-1,-1,-1,-1,-1,-1,-1,-1,-1,-1,-1],"loss_changes":[2.889807E1,1.8033419E1,1.0440639E1,4.8950768E0,1.611803E1,7.7785606E0,1.00159E1,1.5215759E0,4.53353E0,9.798543E0,5.8478394E0,0E0,0E0,9.750003E0,7.4767723E0,0E0,0E0,0E0,0E0,0E0,0E0,0E0,0E0,0E0,0E0,0E0,0E0],"parents":[2147483647,0,0,1,1,2,2,3,3,4,4,5,5,6,6,7,7,8,8,9,9,10,10,13,13,14,14],"right_children":[2,4,6,8,10,12,14,16,18,20,22,-1,-1,24,26,-1,-1,-1,-1,-1,-1,-1,-1,-1,-1,-1,-1],"split_conditions":[5.847E1,1.906719E-2,1.11839E3,1.0449104E0,5.3378E0,9.653713E-1,2.871E3,-5.394554E2,1.6006822E-2,1.8910069E-2,3.41E2,2.1761546E-2,-7.730476E-2,2.9338372E0,1.2762E4,6.771561E-2,7.9244645E-3,4.1673567E-2,-3.0219799E-2,-3.5877597E-2,1.713505E-2,4.3623537E-2,-1.8181035E-2,1.8374262E-2,-2.3532271E-2,-4.3641295E-2,3.0763779E-2],"split_indices":[4,27,37,10,21,9,32,30,27,17,45,0,0,33,32,0,0,0,0,0,0,0,0,0,0,0,0],"split_type":[0,0,0,0,0,0,0,0,0,0,0,0,0,0,0,0,0,0,0,0,0,0,0,0,0,0,0],"sum_hessian":[1.8812422E2,9.28075E1,9.531671E1,3.004509E1,6.2762413E1,1.1430026E1,8.388669E1,2.2656054E1,7.389036E0,3.5110104E1,2.7652311E1,1.9794616E0,9.450565E0,5.606624E1,2.7820448E1,2.1239697E1,1.4163563E0,4.729551E0,2.659485E0,2.1752062E1,1.3358041E1,2.369636E1,3.9559512E0,3.4105057E1,2.1961182E1,2.4655842E1,3.164607E0],"tree_param":{"num_deleted":"0","num_feature":"46","num_nodes":"27","size_leaf_vector":"1"}},{"base_weights":[-1.4738913E-2,-3.1273973E-1,4.8149434E-1,-7.7708E-1,-4.4286482E-2,1.0070201E0,1.470265E-1,-1.0967497E0,-7.8611985E-2,8.436584E-1,-1.875436E-1,1.3687601E0,3.3638704E-1,5.961433E-1,-4.986428E-1,1.4719538E-2,-6.270131E-2,6.549437E-2,-3.0894056E-2,-1.1370613E-2,6.4179294E-2,4.084354E-3,-3.731806E-2,5.114182E-3,7.527179E-2,-3.8333226E-2,4.5688238E-2,-3.827645E-2,3.850652E-2,7.846443E-3,-5.692458E-2],"categories":[],"categories_nodes":[],"categories_segments":[],"categories_sizes":[],"default_left":[0,0,0,0,0,0,0,0,0,0,0,0,0,0,0,0,0,0,0,0,0,0,0,0,0,0,0,0,0,0,0],"id":11,"left_children":[1,3,5,7,9,11,13,15,17,19,21,23,25,27,29,-1,-1,-1,-1,-1,-1,-1,-1,-1,-1,-1,-1,-1,-1,-1,-1],"loss_changes":[2.6925175E1,1.4142547E1,1.186205E1,9.203077E0,9.460279E0,5.944813E0,1.2744663E1,6.5969505E0,1.1396889E1,5.1644344E0,9.657625E0,2.7584915E0,7.437048E0,6.695092E0,7.793542E0,0E0,0E0,0E0,0E0,0E0,0E0,0E0,0E0,0E0,0E0,0E0,0E0,0E0,0E0,0E0,0E0],"parents":[2147483647,0,0,1,1,2,2,3,3,4,4,5,5,6,6,7,7,8,8,9,9,10,10,11,11,12,12,13,13,14,14],"right_children":[2,4,6,8,10,12,14,16,18,20,22,24,26,28,30,-1,-1,-1,-1,-1,-1,-1,-1,-1,-1,-1,-1,-1,-1,-1,-1],"split_conditions":[5.2877E0,1.531254E-2,6.2799E4,9.72932E-3,5.022E1,1.8378096E-2,5.502E1,9.565104E-1,2.1978773E-2,1.738248E-2,-1.06021E3,-2.3758758E-2,1.40995765E-2,1.207173E-2,-6.8249303E-4,1.4719538E-2,-6.270131E-2,6.549437E-2,-3.0894056E-2,-1.1370613E-2,6.4179294E-2,4.084354E-3,-3.731806E-2,5.114182E-3,7.527179E-2,-3.8333226E-2,4.5688238E-2,-3.827645E-2,3.850652E-2,7.846443E-3,-5.692458E-2],"split_indices":[19,16,31,23,3,13,3,10,27,18,38,12,18,17,12,0,0,0,0,0,0,0,0,0,0,0,0,0,0,0,0],"split_type":[0,0,0,0,0,0,0,0,0,0,0,0,0,0,0,0,0,0,0,0,0,0,0,0,0,0,0,0,0,0,0],"sum_hessian":[1.8005878E2,1.12730804E2,6.732797E1,4.0603966E1,7.212683E1,2.5403082E1,4.1924892E1,2.7464155E1,1.3139811E1,9.340829E0,6.2786007E1,1.5825694E1,9.577388E0,2.4771177E1,1.7153715E1,2.7010496E0,2.4763105E1,3.2759511E0,9.863859E0,2.8602307E0,6.480598E0,4.2948044E1,1.9837961E1,1.7118236E0,1.4113871E1,3.178047E0,6.3993406E0,2.4213195E0,2.2349857E1,8.845548E0,8.3081665E0],"tree_param":{"num_deleted":"0","num_feature":"46","num_nodes":"31","size_leaf_vector":"1"}},{"base_weights":[4.3827917E-2,-1.8712677E-1,5.6514037E-1,-2.9339674E-1,1.2071637E0,8.899832E-1,-2.6049155E-1,3.033003E-1,-4.208581E-1,1.5824227E-2,1.286619E0,1.0273246E0,-5.206614E-1,-6.675381E-2,4.7082433E-1,5.1665395E-2,-3.2219578E-2,3.730452E-2,-2.5336301E-2,6.901627E-2,1.861759E-2,5.9015013E-2,-2.4582142E-2,2.7769262E-2,-6.165225E-2,3.9963078E-2,-4.098014E-2],"categories":[],"categories_nodes":[],"categories_segments":[],"categories_sizes":[],"default_left":[0,0,0,0,0,0,0,0,0,0,0,0,0,0,0,0,0,0,0,0,0,0,0,0,0,0,0],"id":12,"left_children":[1,3,5,7,9,11,13,15,17,-1,19,21,23,-1,25,-1,-1,-1,-1,-1,-1,-1,-1,-1,-1,-1,-1],"loss_changes":[2.2694077E1,1.9729599E1,1.5746595E1,9.429845E0,2.6201534E-1,8.621674E0,1.4072438E1,1.5961279E1,1.0518513E1,0E0,2.0187473E-1,9.496941E0,4.032354E0,0E0,5.2827086E0,0E0,0E0,0E0,0E0,0E0,0E0,0E0,0E0,0E0,0E0,0E0,0E0],"parents":[2147483647,0,0,1,1,2,2,3,3,4,4,5,5,6,6,7,7,8,8,10,10,11,11,12,12,14,14],"right_children":[2,4,6,8,10,12,14,16,18,-1,20,22,24,-1,26,-1,-1,-1,-1,-1,-1,-1,-1,-1,-1,-1,-1],"split_conditions":[5.3392E0,1.2762E4,5.842433E1,9.592671E-1,1.6095253E-2,7.788114E0,6.0628E1,8.264E1,2.6E1,1.5824227E-2,1.474863E-1,3.41E2,9.938045E-1,-6.675381E-2,7.337E1,5.1665395E-2,-3.2219578E-2,3.730452E-2,-2.5336301E-2,6.901627E-2,1.861759E-2,5.9015013E-2,-2.4582142E-2,2.7769262E-2,-6.165225E-2,3.9963078E-2,-4.098014E-2],"split_indices":[19,32,8,10,27,33,8,24,45,0,14,45,11,0,4,0,0,0,0,0,0,0,0,0,0,0,0],"split_type":[0,0,0,0,0,0,0,0,0,0,0,0,0,0,0,0,0,0,0,0,0,0,0,0,0,0,0],"sum_hessian":[1.8661136E2,1.2976375E2,5.6847603E1,1.2130752E2,8.456238E0,4.0740437E1,1.6107166E1,2.1108892E1,1.0019862E2,1.100705E0,7.3555326E0,3.7373463E1,3.3669746E0,6.188417E0,9.918749E0,1.187287E1,9.236022E0,6.340614E0,9.385801E1,6.209352E0,1.1461804E0,3.415651E1,3.2169538E0,1.428949E0,1.9380256E0,8.209822E0,1.7089267E0],"tree_param":{"num_deleted":"0","num_feature":"46","num_nodes":"27","size_leaf_vector":"1"}},{"base_weights":[4.9246952E-2,-2.0963782E-1,5.42455E-1,-6.496067E-3,-6.692651E-1,6.1616385E-1,-5.0410815E-2,7.5516E-1,-1.7887457E-1,1.6460712E-1,-8.807683E-1,8.240103E-1,6.690132E-2,7.5845286E-2,-5.7110647E-3,-1.9915043E-3,-7.2375886E-2,4.711495E-2,-3.6819782E-2,-1.0676144E-2,-5.6657292E-2,5.5745143E-2,1.5375264E-2,4.157363E-2,-1.4215416E-2],"categories":[],"categories_nodes":[],"categories_segments":[],"categories_sizes":[],"default_left":[0,0,0,0,0,0,0,0,0,0,0,0,0,0,0,0,0,0,0,0,0,0,0,0,0],"id":13,"left_children":[1,3,5,7,9,11,-1,13,15,17,19,21,23,-1,-1,-1,-1,-1,-1,-1,-1,-1,-1,-1,-1],"loss_changes":[2.3214157E1,1.1140636E1,7.7710876E0,1.1135919E1,6.595749E0,6.8330383E0,0E0,1.0540664E1,1.2137349E1,6.469566E0,4.6976967E0,6.2206078E0,4.976492E0,0E0,0E0,0E0,0E0,0E0,0E0,0E0,0E0,0E0,0E0,0E0,0E0],"parents":[2147483647,0,0,1,1,2,2,3,3,4,4,5,5,7,7,8,8,9,9,10,10,11,11,12,12],"right_children":[2,4,6,8,10,12,-1,14,16,18,20,22,24,-1,-1,-1,-1,-1,-1,-1,-1,-1,-1,-1,-1],"split_conditions":[5.308E0,3.4716465E-2,7.337E1,4.902159E0,-8.2279297E2,1.05831E0,-5.0410815E-2,-7.774254E2,1.0273E2,3.31E2,1.06248E3,1E0,-8.197022E2,7.5845286E-2,-5.7110647E-3,-1.9915043E-3,-7.2375886E-2,4.711495E-2,-3.6819782E-2,-1.0676144E-2,-5.6657292E-2,5.5745143E-2,1.5375264E-2,4.157363E-2,-1.4215416E-2],"split_indices":[19,26,4,21,29,11,0,30,24,45,37,42,28,0,0,0,0,0,0,0,0,0,0,0,0],"split_type":[0,0,0,0,0,0,0,0,0,0,0,0,0,0,0,0,0,0,0,0,0,0,0,0,0],"sum_hessian":[1.7991875E2,1.18364296E2,6.155444E1,8.278839E1,3.5575905E1,5.933661E1,2.2178307E0,1.4654874E1,6.813352E1,7.2426734E0,2.8333231E1,4.2684246E1,1.6652363E1,7.4139833E0,7.2408905E0,6.2333145E1,5.800376E0,3.862747E0,3.3799264E0,8.282276E0,2.0050955E1,2.6564646E1,1.61196E1,4.811166E0,1.1841196E1],"tree_param":{"num_deleted":"0","num_feature":"46","num_nodes":"25","size_leaf_vector":"1"}},{"base_weights":[4.5355074E-2,-2.3416585E-1,4.5326835E-1,1.74937E-1,-5.862769E-1,-2.306269E-1,6.289968E-1,4.045728E-1,-4.295485E-1,6.762949E-2,-7.8479105E-1,-6.500868E-1,8.8527846E-1,8.8217217E-1,7.807268E-2,4.7193807E-2,-3.2274567E-3,2.0910775E-2,-3.906331E-2,-4.522501E-2,4.0974613E-2,-5.5609703E-2,1.2714612E-2,5.952568E-2,-1.705033E-3,-3.7246462E-2,4.7963966E-2,-3.6439285E-2,2.5764575E-2],"categories":[],"categories_nodes":[],"categories_segments":[],"categories_sizes":[],"default_left":[0,0,0,0,0,0,0,0,0,0,0,0,0,0,0,0,0,0,0,0,0,0,0,0,0,0,0,0,0],"id":14,"left_children":[1,3,5,7,9,11,13,15,17,-1,19,21,23,25,27,-1,-1,-1,-1,-1,-1,-1,-1,-1,-1,-1,-1,-1,-1],"loss_changes":[2.0618086E1,1.5574612E1,8.977029E0,7.17728E0,2.3367748E1,7.949978E0,8.123468E0,9.441709E0,4.6129684E0,0E0,1.0959045E1,5.309233E0,1.3672891E0,5.751196E0,7.2863965E0,0E0,0E0,0E0,0E0,0E0,0E0,0E0,0E0,0E0,0E0,0E0,0E0,0E0,0E0],"parents":[2147483647,0,0,1,1,2,2,3,3,4,4,5,5,6,6,7,7,8,8,10,10,11,11,12,12,13,13,14,14],"right_children":[2,4,6,8,10,12,14,16,18,-1,20,22,24,26,28,-1,-1,-1,-1,-1,-1,-1,-1,-1,-1,-1,-1,-1,-1],"split_conditions":[5.2568E0,6.127E1,-3.8351793E-2,3.4716465E-2,4.775E0,2.936063E-2,1.0576522E0,-2.0454752E-3,-7.872564E2,6.762949E-2,3.331231E-2,1.9911E-2,-1.1834364E-2,2.624E1,1.4362508E-2,4.7193807E-2,-3.2274567E-3,2.0910775E-2,-3.906331E-2,-4.522501E-2,4.0974613E-2,-5.5609703E-2,1.2714612E-2,5.952568E-2,-1.705033E-3,-3.7246462E-2,4.7963966E-2,-3.6439285E-2,2.5764575E-2],"split_indices":[21,5,26,26,21,22,11,22,28,0,18,18,13,5,18,0,0,0,0,0,0,0,0,0,0,0,0,0,0],"split_type":[0,0,0,0,0,0,0,0,0,0,0,0,0,0,0,0,0,0,0,0,0,0,0,0,0,0,0,0,0],"sum_hessian":[1.7889732E2,1.0640777E2,7.2489555E1,4.945328E1,5.695449E1,1.4754805E1,5.773475E1,3.607833E1,1.3374951E1,4.7498317E0,5.220466E1,1.1027203E1,3.7276018E0,3.9144684E1,1.8590065E1,1.631294E1,1.9765388E1,3.8664272E0,9.508524E0,4.8985622E1,3.2190354E0,7.146033E0,3.8811696E0,2.577093E0,1.1505089E0,1.3792405E0,3.776544E1,6.2989335E0,1.2291132E1],"tree_param":{"num_deleted":"0","num_feature":"46","num_nodes":"29","size_leaf_vector":"1"}},{"base_weights":[1.0027806E-2,2.7375647E-1,-3.553107E-1,-1.6435017E-1,4.913792E-1,-1.5417413E-1,-1.3158946E0,9.924043E-1,-3.8051796E-1,7.172135E-1,-2.2795528E-2,3.0254644E-1,-6.387151E-1,-1.8536774E-2,-1.375355E0,4.279913E-3,6.3834555E-2,4.8469987E-2,-2.9519433E-2,5.706016E-2,1.5736744E-2,5.462789E-2,-1.8317705E-2,3.871788E-2,-1.8273806E-2,-6.422099E-2,-5.857061E-4,-7.1834974E-2,-2.2362068E-2],"categories":[],"categories_nodes":[],"categories_segments":[],"categories_sizes":[],"default_left":[0,0,0,0,0,0,0,0,0,0,0,0,0,0,0,0,0,0,0,0,0,0,0,0,0,0,0,0,0],"id":15,"left_children":[1,3,5,7,9,11,13,15,17,19,21,23,25,-1,27,-1,-1,-1,-1,-1,-1,-1,-1,-1,-1,-1,-1,-1,-1],"loss_changes":[1.752893E1,1.0152321E1,1.4535759E1,9.331473E0,8.240824E0,1.4402632E1,2.2490501E-1,1.415595E0,9.324465E0,8.044146E0,9.05438E0,1.0914631E1,1.272862E1,0E0,3.6785126E-2,0E0,0E0,0E0,0E0,0E0,0E0,0E0,0E0,0E0,0E0,0E0,0E0,0E0,0E0],"parents":[2147483647,0,0,1,1,2,2,3,3,4,4,5,5,6,6,7,7,8,8,9,9,10,10,11,11,12,12,14,14],"right_children":[2,4,6,8,10,12,14,16,18,20,22,24,26,-1,28,-1,-1,-1,-1,-1,-1,-1,-1,-1,-1,-1,-1,-1,-1],"split_conditions":[6.132E1,2.5102E4,-1.06021E3,-4.5440968E-2,1E0,4E2,1.4027877E-2,-8.663122E2,2.6284E1,1.0526711E0,9.823278E-1,6.8808E1,6.699E1,-1.8536774E-2,7.9909615E-2,4.279913E-3,6.3834555E-2,4.8469987E-2,-2.9519433E-2,5.706016E-2,1.5736744E-2,5.462789E-2,-1.8317705E-2,3.871788E-2,-1.8273806E-2,-6.422099E-2,-5.857061E-4,-7.1834974E-2,-2.2362068E-2],"split_indices":[5,31,38,14,42,32,18,30,8,11,10,8,4,0,26,0,0,0,0,0,0,0,0,0,0,0,0,0,0],"split_type":[0,0,0,0,0,0,0,0,0,0,0,0,0,0,0,0,0,0,0,0,0,0,0,0,0,0,0,0,0],"sum_hessian":[1.7991975E2,1.0463619E2,7.528356E1,3.4807785E1,6.982841E1,6.320878E1,1.207478E1,4.915126E0,2.9892658E1,4.8243958E1,2.1584452E1,3.2731853E1,3.0476923E1,1.1428881E0,1.0931892E1,1.4836717E0,3.4314542E0,3.5351357E0,2.6357523E1,2.2600311E1,2.5643646E1,4.569518E0,1.7014935E1,1.9089874E1,1.3641981E1,1.4497966E1,1.5978958E1,9.740132E0,1.19176E0],"tree_param":{"num_deleted":"0","num_feature":"46","num_nodes":"29","size_leaf_vector":"1"}},{"base_weights":[-3.8308814E-2,-2.483529E-1,3.1473595E-1,-3.1825307E-1,1.0702722E0,6.9546527E-1,-2.13718E-1,4.201114E-1,-4.457474E-1,6.801828E-2,1.658258E-2,3.2379282E-1,1.0397918E0,6.8349296E-1,-4.9954095E-1,-3.7453827E-2,4.238878E-2,-1.1509429E-4,-4.038028E-2,4.3035172E-2,-3.230581E-2,6.458525E-2,-3.5746635E-3,5.694866E-2,-6.070032E-3,-4.4345643E-2,2.2802925E-2],"categories":[],"categories_nodes":[],"categories_segments":[],"categories_sizes":[],"default_left":[0,0,0,0,0,0,0,0,0,0,0,0,0,0,0,0,0,0,0,0,0,0,0,0,0,0,0],"id":16,"left_children":[1,3,5,7,9,11,13,15,17,-1,-1,19,21,23,25,-1,-1,-1,-1,-1,-1,-1,-1,-1,-1,-1,-1],"loss_changes":[1.3199026E1,1.0617399E1,1.351679E1,1.0227335E1,8.005991E-1,4.635771E0,7.6727705E0,8.744929E0,1.4670107E1,0E0,0E0,1.1042759E1,5.6120434E0,2.825285E0,8.644235E0,0E0,0E0,0E0,0E0,0E0,0E0,0E0,0E0,0E0,0E0,0E0,0E0],"parents":[2147483647,0,0,1,1,2,2,3,3,4,4,5,5,6,6,7,7,8,8,11,11,12,12,13,13,14,14],"right_children":[2,4,6,8,10,12,14,16,18,-1,-1,20,22,24,26,-1,-1,-1,-1,-1,-1,-1,-1,-1,-1,-1,-1],"split_conditions":[5.2813E0,3.3068158E-2,1.2535952E-2,4.8665E0,6.504E1,9.751683E-3,1.5805613E-2,1.7371442E-2,6.094E1,6.801828E-2,1.658258E-2,-6.489566E2,1.4790804E-2,-5.9373804E2,5.6118E0,-3.7453827E-2,4.238878E-2,-1.1509429E-4,-4.038028E-2,4.3035172E-2,-3.230581E-2,6.458525E-2,-3.5746635E-3,5.694866E-2,-6.070032E-3,-4.4345643E-2,2.2802925E-2],"split_indices":[19,17,13,21,0,23,27,27,5,0,0,28,23,28,21,0,0,0,0,0,0,0,0,0,0,0,0],"split_type":[0,0,0,0,0,0,0,0,0,0,0,0,0,0,0,0,0,0,0,0,0,0,0,0,0,0,0],"sum_hessian":[1.7593839E2,1.1049556E2,6.5442825E1,1.0565353E2,4.8420334E0,3.7854313E1,2.7588512E1,1.521912E1,9.04344E1,2.8722076E0,1.9698257E0,1.913741E1,1.8716906E1,6.3292866E0,2.1259226E1,3.8746607E0,1.134446E1,4.1088337E1,4.9346066E1,1.2390834E1,6.7465754E0,1.51257515E1,3.5911543E0,3.7769127E0,2.5523736E0,1.5178276E1,6.080949E0],"tree_param":{"num_deleted":"0","num_feature":"46","num_nodes":"27","size_leaf_vector":"1"}},{"base_weights":[-1.9517448E-2,3.0275276E-1,-2.9978034E-1,1.0153341E0,2.2675509E-2,1.524138E-1,-6.712858E-1,-2.2942433E-1,1.1628523E0,-1.9707443E-1,1.0907074E0,9.226875E-1,-3.4103966E-1,5.3842742E-2,-7.698753E-1,3.7743546E-2,-5.1927544E-2,6.3456245E-2,9.513791E-4,3.7554752E-3,-4.8238616E-2,6.375336E-2,4.421093E-3,6.26321E-2,-4.0483303E-2,5.042261E-2,-3.896512E-2,-9.970111E-3,-4.8636403E-2],"categories":[],"categories_nodes":[],"categories_segments":[],"categories_sizes":[],"default_left":[0,0,0,0,0,0,0,0,0,0,0,0,0,0,0,0,0,0,0,0,0,0,0,0,0,0,0,0,0],"id":17,"left_children":[1,3,5,7,9,11,13,15,17,19,21,23,25,-1,27,-1,-1,-1,-1,-1,-1,-1,-1,-1,-1,-1,-1,-1,-1],"loss_changes":[1.5994276E1,1.6422005E1,1.600783E1,4.531641E0,1.4337583E1,1.6855436E1,9.819136E0,3.409061E0,2.5200233E0,1.0677354E1,1.8128796E0,1.088135E1,1.690547E1,0E0,5.587591E0,0E0,0E0,0E0,0E0,0E0,0E0,0E0,0E0,0E0,0E0,0E0,0E0,0E0,0E0],"parents":[2147483647,0,0,1,1,2,2,3,3,4,4,5,5,6,6,7,7,8,8,9,9,10,10,11,11,12,12,14,14],"right_children":[2,4,6,8,10,12,14,16,18,20,22,24,26,-1,28,-1,-1,-1,-1,-1,-1,-1,-1,-1,-1,-1,-1,-1,-1],"split_conditions":[5.831E1,1.880805E-2,-1.45546E3,2.967E1,2.1297356E-2,6.921357E1,-1.3175094E-1,2.992E1,8.134E1,5.2045715E1,1.1668975E0,1.0940711E-1,4.8818E0,5.3842742E-2,-2.6436158E-2,3.7743546E-2,-5.1927544E-2,6.3456245E-2,9.513791E-4,3.7554752E-3,-4.8238616E-2,6.375336E-2,4.421093E-3,6.26321E-2,-4.0483303E-2,5.042261E-2,-3.896512E-2,-9.970111E-3,-4.8636403E-2],"split_indices":[4,27,38,3,18,7,15,0,25,6,11,15,19,0,13,0,0,0,0,0,0,0,0,0,0,0,0,0,0],"split_type":[0,0,0,0,0,0,0,0,0,0,0,0,0,0,0,0,0,0,0,0,0,0,0,0,0,0,0,0,0],"sum_hessian":[1.7507895E2,8.139908E1,9.367987E1,2.2225945E1,5.9173134E1,4.2517532E1,5.1162334E1,2.2961137E0,1.992983E1,4.9752026E1,9.42111E0,1.6262363E1,2.625517E1,2.2016234E0,4.896071E1,1.0661755E0,1.2299384E0,1.8135334E1,1.7944958E0,3.7395702E1,1.2356321E1,7.727551E0,1.6935592E0,1.3893111E1,2.3692517E0,6.1174355E0,2.0137735E1,1.336315E1,3.559756E1],"tree_param":{"num_deleted":"0","num_feature":"46","num_nodes":"29","size_leaf_vector":"1"}},{"base_weights":[-6.743571E-3,5.3905267E-1,-2.084845E-1,9.8534845E-2,9.422155E-1,-6.240866E-1,6.322174E-3,9.027677E-1,-5.270176E-1,2.86044E-1,1.2935884E0,4.9886668E-1,-7.861428E-1,9.9987864E-1,-1.5170002E-1,-7.318134E-3,5.7833582E-2,-7.7138506E-2,-6.5839193E-3,4.0037837E-2,-5.667732E-2,-4.2036637E-3,7.023396E-2,-3.6436014E-2,5.5485036E-2,-4.5222968E-2,3.1139085E-2,6.0360845E-2,-2.7081808E-2,6.541606E-2,-1.2275456E-2],"categories":[],"categories_nodes":[],"categories_segments":[],"categories_sizes":[],"default_left":[0,0,0,0,0,0,0,0,0,0,0,0,0,0,0,0,0,0,0,0,0,0,0,0,0,0,0,0,0,0,0],"id":18,"left_children":[1,3,5,7,9,11,13,15,17,19,21,23,25,27,29,-1,-1,-1,-1,-1,-1,-1,-1,-1,-1,-1,-1,-1,-1,-1,-1],"loss_changes":[1.990802E1,8.573572E0,1.1786716E1,1.27688465E1,5.4774876E0,8.5781765E0,1.3968286E1,3.115261E0,5.569696E0,8.308567E0,2.6025448E0,5.521225E0,7.180887E0,4.5555763E0,1.0839179E1,0E0,0E0,0E0,0E0,0E0,0E0,0E0,0E0,0E0,0E0,0E0,0E0,0E0,0E0,0E0,0E0],"parents":[2147483647,0,0,1,1,2,2,3,3,4,4,5,5,6,6,7,7,8,8,9,9,10,10,11,11,12,12,13,13,14,14],"right_children":[2,4,6,8,10,12,14,16,18,20,22,24,26,28,30,-1,-1,-1,-1,-1,-1,-1,-1,-1,-1,-1,-1,-1,-1,-1,-1],"split_conditions":[4.9892857E1,1.455866E-2,1.38635E3,1.0054172E0,3.341714E1,9.6676075E-1,5.827E1,5E0,2.624E1,3.32E1,3.152E1,5.916851E-3,6.739E1,6.604E1,2.6E1,-7.318134E-3,5.7833582E-2,-7.7138506E-2,-6.5839193E-3,4.0037837E-2,-5.667732E-2,-4.2036637E-3,7.023396E-2,-3.6436014E-2,5.5485036E-2,-4.5222968E-2,3.1139085E-2,6.0360845E-2,-2.7081808E-2,6.541606E-2,-1.2275456E-2],"split_indices":[7,18,37,9,7,9,8,39,5,0,5,23,2,0,45,0,0,0,0,0,0,0,0,0,0,0,0,0,0,0,0],"split_type":[0,0,0,0,0,0,0,0,0,0,0,0,0,0,0,0,0,0,0,0,0,0,0,0,0,0,0,0,0,0,0],"sum_hessian":[1.7878145E2,4.7797256E1,1.3098419E2,2.3435143E1,2.4362114E1,4.398257E1,8.7001625E1,1.005934E1,1.3375804E1,9.128731E0,1.5233382E1,5.2846594E0,3.8697914E1,1.1207511E1,7.579411E1,2.042653E0,8.016686E0,2.9342875E0,1.0441517E1,7.019527E0,2.1092043E0,1.1548641E0,1.4078519E1,1.6917582E0,3.5929012E0,3.6030266E1,2.6676455E0,1.0069939E1,1.1375728E0,3.7942786E0,7.199983E1],"tree_param":{"num_deleted":"0","num_feature":"46","num_nodes":"31","size_leaf_vector":"1"}},{"base_weights":[-9.182102E-4,-8.2783416E-2,1.0715151E0,7.4228615E-1,-1.700837E-1,-7.745293E-3,1.2727745E0,6.56383E-2,-9.205077E-2,-6.75965E-1,3.4070134E-2,6.726702E-2,1.6904874E-2,-4.4096034E-2,6.016163E-2,-3.7763882E-2,4.4622507E-2,1.6520461E-2,-1.4757343E-2],"categories":[],"categories_nodes":[],"categories_segments":[],"categories_sizes":[],"default_left":[0,0,0,0,0,0,0,0,0,0,0,0,0,0,0,0,0,0,0],"id":19,"left_children":[1,3,5,7,9,-1,11,-1,13,15,17,-1,-1,-1,-1,-1,-1,-1,-1],"loss_changes":[1.545693E1,1.190731E1,3.2791595E0,7.658684E0,1.5382856E1,0E0,2.8001785E-1,0E0,8.596927E0,5.9993973E0,1.0528007E1,0E0,0E0,0E0,0E0,0E0,0E0,0E0,0E0],"parents":[2147483647,0,0,1,1,2,2,3,3,4,4,6,6,8,8,9,9,10,10],"right_children":[2,4,6,8,10,-1,12,-1,14,16,18,-1,-1,-1,-1,-1,-1,-1,-1],"split_conditions":[1.2762E4,4.8E1,6E0,5.9E1,6.651026E-3,-7.745293E-3,1.056816E0,6.56383E-2,1.6052518E-2,5.69306E0,1.0054172E0,6.726702E-2,1.6904874E-2,-4.4096034E-2,6.016163E-2,-3.7763882E-2,4.4622507E-2,1.6520461E-2,-1.4757343E-2],"split_indices":[32,45,40,5,23,0,9,0,16,19,9,0,0,0,0,0,0,0,0],"split_type":[0,0,0,0,0,0,0,0,0,0,0,0,0,0,0,0,0,0,0],"sum_hessian":[1.7404678E2,1.6256038E2,1.1486393E1,1.4836726E1,1.4772366E2,1.651699E0,9.834694E0,8.47114E0,6.3655863E0,4.1809956E1,1.05913704E2,8.71845E0,1.1162438E0,4.152501E0,2.2130854E0,4.0290943E1,1.519013E0,5.5738243E1,5.0175457E1],"tree_param":{"num_deleted":"0","num_feature":"46","num_nodes":"19","size_leaf_vector":"1"}},{"base_weights":[-2.0563602E-2,-2.0744444E-1,4.3280676E-1,-2.8699508E-1,1.0873667E0,6.7652017E-1,-2.3649742E-1,-2.5423128E-2,-6.0208756E-1,6.378959E-2,1.8928312E-2,7.6758426E-1,-5.119565E-1,-1.2165174E0,6.270537E-1,-1.2270913E-2,2.350172E-2,5.4857224E-2,-3.4888234E-2,1.2637453E-2,5.142912E-2,-5.575753E-2,1.8528732E-2,-6.274562E-3,-6.974307E-2,4.6173874E-2,-2.5161767E-2],"categories":[],"categories_nodes":[],"categories_segments":[],"categories_sizes":[],"default_left":[0,0,0,0,0,0,0,0,0,0,0,0,0,0,0,0,0,0,0,0,0,0,0,0,0,0,0],"id":20,"left_children":[1,3,5,7,9,11,13,15,17,-1,-1,19,21,23,25,-1,-1,-1,-1,-1,-1,-1,-1,-1,-1,-1,-1],"loss_changes":[1.5275222E1,1.3454306E1,8.74634E0,9.957168E0,5.312519E-1,4.5972614E0,1.3281183E1,7.435389E0,9.68121E0,0E0,0E0,4.6421757E0,2.2043447E0,1.2393141E0,3.3203356E0,0E0,0E0,0E0,0E0,0E0,0E0,0E0,0E0,0E0,0E0,0E0,0E0],"parents":[2147483647,0,0,1,1,2,2,3,3,4,4,5,5,6,6,7,7,8,8,11,11,12,12,13,13,14,14],"right_children":[2,4,6,8,10,12,14,16,18,-1,-1,20,22,24,26,-1,-1,-1,-1,-1,-1,-1,-1,-1,-1,-1,-1],"split_conditions":[5.3426E0,1.2762E4,5.842433E1,3.6624142E-3,6.3861735E-2,1.609196E-1,6.0655E1,2.3199683E-2,4.7229E0,6.378959E-2,1.8928312E-2,3.341714E1,5.543E1,6.951E1,2.0821871E-2,-1.2270913E-2,2.350172E-2,5.4857224E-2,-3.4888234E-2,1.2637453E-2,5.142912E-2,-5.575753E-2,1.8528732E-2,-6.274562E-3,-6.974307E-2,4.6173874E-2,-2.5161767E-2],"split_indices":[21,32,8,13,14,15,8,18,21,0,0,7,1,24,13,0,0,0,0,0,0,0,0,0,0,0,0],"split_type":[0,0,0,0,0,0,0,0,0,0,0,0,0,0,0,0,0,0,0,0,0,0,0,0,0,0,0],"sum_hessian":[1.7822948E2,1.2659077E2,5.1638714E1,1.1999676E2,6.594013E0,3.7846798E1,1.3791918E1,6.615735E1,5.38394E1,4.5772753E0,2.016738E0,3.5482204E1,2.364591E0,6.2688437E0,7.523074E0,4.6164055E1,1.9993296E1,2.3119457E0,5.152746E1,1.2598757E1,2.288345E1,1.2480139E0,1.116577E0,1.1201186E0,5.148725E0,6.1049848E0,1.4180894E0],"tree_param":{"num_deleted":"0","num_feature":"46","num_nodes":"27","size_leaf_vector":"1"}},{"base_weights":[-5.0530513E-3,-8.130939E-2,1.1083863E0,-2.7087185E-1,3.667817E-1,-5.8464035E-3,6.616383E-2,9.105952E-1,-3.327206E-1,6.1538684E-1,-2.1823779E-1,6.9262095E-2,3.4450036E-3,1.9761292E-2,-2.056009E-2,-2.6037022E-2,3.473788E-2,-5.8552932E-2,2.5966574E-2],"categories":[],"categories_nodes":[],"categories_segments":[],"categories_sizes":[],"default_left":[0,0,0,0,0,0,0,0,0,0,0,0,0,0,0,0,0,0,0],"id":21,"left_children":[1,3,5,7,9,-1,-1,11,13,15,17,-1,-1,-1,-1,-1,-1,-1,-1],"loss_changes":[1.5150208E1,1.4278977E1,3.166295E0,8.916968E0,7.4137044E0,0E0,0E0,2.3542223E0,6.604026E0,3.5527983E0,1.1616802E1,0E0,0E0,0E0,0E0,0E0,0E0,0E0,0E0],"parents":[2147483647,0,0,1,1,2,2,3,3,4,4,7,7,8,8,9,9,10,10],"right_children":[2,4,6,8,10,-1,-1,12,14,16,18,-1,-1,-1,-1,-1,-1,-1,-1],"split_conditions":[1.2762E4,5.3392E0,6E0,-1.4593E4,5.827E1,-5.8464035E-3,6.616383E-2,-8.7093726E-2,-1.85955E3,8.06417E-3,6.0655E1,6.9262095E-2,3.4450036E-3,1.9761292E-2,-2.056009E-2,-2.6037022E-2,3.473788E-2,-5.8552932E-2,2.5966574E-2],"split_indices":[32,19,40,32,8,0,0,15,38,16,8,0,0,0,0,0,0,0,0],"split_type":[0,0,0,0,0,0,0,0,0,0,0,0,0,0,0,0,0,0,0],"sum_hessian":[1.7637195E2,1.6593454E2,1.0437418E1,1.1688323E2,4.9051304E1,1.6253676E0,8.81205E0,5.1317096E0,1.11751526E2,3.4386703E1,1.4664601E1,2.8683949E0,2.2633147E0,1.0482835E1,1.01268684E2,1.882299E0,3.2504402E1,6.1421733E0,8.522428E0],"tree_param":{"num_deleted":"0","num_feature":"46","num_nodes":"19","size_leaf_vector":"1"}},{"base_weights":[5.742481E-2,-7.3428885E-3,9.939567E-1,2.3243274E-1,-2.5557283E-1,-1.0238473E-2,1.1951705E0,5.012198E-1,-7.450019E-2,-3.6278777E-2,-6.9035256E-1,6.400163E-2,1.24601675E-2,-5.248897E-2,2.8468642E-2,6.8328665E-3,-4.649046E-2,-3.9471664E-2,1.0784143E-2,4.4753246E-2,-4.1521695E-2],"categories":[],"categories_nodes":[],"categories_segments":[],"categories_sizes":[],"default_left":[0,0,0,0,0,0,0,0,0,0,0,0,0,0,0,0,0,0,0,0,0],"id":22,"left_children":[1,3,5,7,9,-1,11,13,15,17,19,-1,-1,-1,-1,-1,-1,-1,-1,-1,-1],"loss_changes":[1.0505146E1,9.7531595E0,2.9466763E0,6.915162E0,7.650098E0,0E0,4.627657E-1,5.30956E0,7.3138204E0,1.0524892E1,6.724945E0,0E0,0E0,0E0,0E0,0E0,0E0,0E0,0E0,0E0,0E0],"parents":[2147483647,0,0,1,1,2,2,3,3,4,4,6,6,7,7,8,8,9,9,10,10],"right_children":[2,4,6,8,10,-1,12,14,16,18,20,-1,-1,-1,-1,-1,-1,-1,-1,-1,-1],"split_conditions":[1.2762E4,2.175337E-3,6E0,6.127E1,2.1013133E-2,-1.0238473E-2,6.974649E-2,4.7378E0,-1.06099E3,1.2966287E-2,9.535928E-1,6.400163E-2,1.24601675E-2,-5.248897E-2,2.8468642E-2,6.8328665E-3,-4.649046E-2,-3.9471664E-2,1.0784143E-2,4.4753246E-2,-4.1521695E-2],"split_indices":[32,13,40,5,17,0,13,21,38,17,10,0,0,0,0,0,0,0,0,0,0],"split_type":[0,0,0,0,0,0,0,0,0,0,0,0,0,0,0,0,0,0,0,0,0],"sum_hessian":[1.72069E2,1.6186693E2,1.0202065E1,8.236794E1,7.9498985E1,1.4638064E0,8.738259E0,4.357526E1,3.8792683E1,5.3565224E1,2.5933765E1,7.694816E0,1.043443E0,1.2279024E0,4.2347355E1,3.17857E1,7.0069847E0,1.2892947E1,4.0672276E1,1.667839E0,2.4265926E1],"tree_param":{"num_deleted":"0","num_feature":"46","num_nodes":"21","size_leaf_vector":"1"}},{"base_weights":[-3.2726217E-3,3.9943033E-1,-1.4926709E-1,8.0285233E-1,-8.368966E-3,3.9931566E-2,-8.05981E-1,-1.7139895E-2,9.126755E-1,6.998834E-1,-3.8485083E-1,5.793328E-1,-1.6068617E-1,-1.2295007E0,3.7466206E-2,5.0241776E-2,-1.9518277E-2,-1.993237E-2,5.03922E-2,-5.0905824E-2,1.0896447E-2,4.9084935E-2,-1.39266625E-2,4.0084407E-2,-1.4470252E-2,3.872321E-2,-7.024673E-2,-3.9067667E-2,2.4884112E-2],"categories":[],"categories_nodes":[],"categories_segments":[],"categories_sizes":[],"default_left":[0,0,0,0,0,0,0,0,0,0,0,0,0,0,0,0,0,0,0,0,0,0,0,0,0,0,0,0,0],"id":23,"left_children":[1,3,5,7,9,11,13,-1,15,17,19,21,23,25,27,-1,-1,-1,-1,-1,-1,-1,-1,-1,-1,-1,-1,-1,-1],"loss_changes":[1.0482319E1,7.811593E0,1.6288725E1,3.3147955E0,6.8241353E0,1.1187921E1,1.0516338E1,0E0,3.0396118E0,3.408186E0,6.5949936E0,9.942537E0,9.586513E0,7.9584465E0,4.446752E0,0E0,0E0,0E0,0E0,0E0,0E0,0E0,0E0,0E0,0E0,0E0,0E0,0E0,0E0],"parents":[2147483647,0,0,1,1,2,2,3,3,4,4,5,5,6,6,8,8,9,9,10,10,11,11,12,12,13,13,14,14],"right_children":[2,4,6,8,10,12,14,-1,16,18,20,22,24,26,28,-1,-1,-1,-1,-1,-1,-1,-1,-1,-1,-1,-1,-1,-1],"split_conditions":[4.9892857E1,2.6195193E-2,-1.0598E3,3E0,-3.244418E-3,2.2931457E0,2.0061392E-2,-1.7139895E-2,-5.410304E2,9.658777E-1,-2.613E3,4E2,4.9169E0,9.561397E-1,2.27E2,5.0241776E-2,-1.9518277E-2,-1.993237E-2,5.03922E-2,-5.0905824E-2,1.0896447E-2,4.9084935E-2,-1.39266625E-2,4.0084407E-2,-1.4470252E-2,3.872321E-2,-7.024673E-2,-3.9067667E-2,2.4884112E-2],"split_indices":[7,27,38,40,14,33,18,0,28,9,32,32,19,9,45,0,0,0,0,0,0,0,0,0,0,0,0,0,0],"split_type":[0,0,0,0,0,0,0,0,0,0,0,0,0,0,0,0,0,0,0,0,0,0,0,0,0,0,0,0,0],"sum_hessian":[1.7627965E2,4.6441658E1,1.29838E2,2.2859142E1,2.3582516E1,1.01527275E2,2.8310719E1,1.8140478E0,2.1045095E1,7.8867135E0,1.5695803E1,2.7012085E1,7.451519E1,1.8542349E1,9.768369E0,1.9868698E1,1.1763973E0,1.6623704E0,6.2243433E0,7.31832E0,8.377483E0,1.8289425E1,8.72266E0,8.173952E0,6.634124E1,1.2177342E0,1.7324615E1,3.2637267E0,6.504642E0],"tree_param":{"num_deleted":"0","num_feature":"46","num_nodes":"29","size_leaf_vector":"1"}},{"base_weights":[2.7542874E-2,4.769371E-1,-1.5237957E-1,8.338625E-1,5.4766506E-2,-7.9176575E-3,-7.791211E-1,1.0793942E0,1.8540876E-1,5.5935886E-2,-1.9788665E-1,3.2516664E-1,-3.6411458E-1,2.6110768E-1,-1.1238014E0,5.0030653E-3,6.1312754E-2,-3.770173E-2,5.5840146E-2,2.5506008E-2,-3.7485775E-2,2.7848784E-2,-1.9699836E-2,-4.5934845E-2,-1.0974606E-3,3.685185E-2,-3.2200266E-2,-5.7190484E-3,-6.392508E-2],"categories":[],"categories_nodes":[],"categories_segments":[],"categories_sizes":[],"default_left":[0,0,0,0,0,0,0,0,0,0,0,0,0,0,0,0,0,0,0,0,0,0,0,0,0,0,0,0,0],"id":24,"left_children":[1,3,5,7,9,11,13,15,17,-1,19,21,23,25,27,-1,-1,-1,-1,-1,-1,-1,-1,-1,-1,-1,-1,-1,-1],"loss_changes":[1.3967498E1,7.394058E0,1.11731205E1,4.0483418E0,6.589377E0,1.2143446E1,8.582567E0,2.6312237E0,8.311066E0,0E0,8.193785E0,9.039116E0,9.363345E0,3.3027966E0,2.59486E0,0E0,0E0,0E0,0E0,0E0,0E0,0E0,0E0,0E0,0E0,0E0,0E0,0E0,0E0],"parents":[2147483647,0,0,1,1,2,2,3,3,4,4,5,5,6,6,7,7,8,8,10,10,11,11,12,12,13,13,14,14],"right_children":[2,4,6,8,10,12,14,16,18,-1,20,22,24,26,28,-1,-1,-1,-1,-1,-1,-1,-1,-1,-1,-1,-1,-1,-1],"split_conditions":[4.995E1,2.6195193E-2,-1.05855E3,7.029371E-2,2.6284E1,4.54E2,4.861E0,5.1239245E-3,1.4127E-2,5.5935886E-2,1.0006554E0,6.716286E1,6.427E1,6.062E1,9.653713E-1,5.0030653E-3,6.1312754E-2,-3.770173E-2,5.5840146E-2,2.5506008E-2,-3.7485775E-2,2.7848784E-2,-1.9699836E-2,-4.5934845E-2,-1.0974606E-3,3.685185E-2,-3.2200266E-2,-5.7190484E-3,-6.392508E-2],"split_indices":[3,27,38,15,8,32,19,23,18,0,9,6,6,4,9,0,0,0,0,0,0,0,0,0,0,0,0,0,0],"split_type":[0,0,0,0,0,0,0,0,0,0,0,0,0,0,0,0,0,0,0,0,0,0,0,0,0,0,0,0,0],"sum_hessian":[1.7084631E2,4.837322E1,1.224731E2,2.5683687E1,2.2689531E1,1.0035437E2,2.2118727E1,1.8147657E1,7.53603E0,3.696264E0,1.8993267E1,5.1904716E1,4.844965E1,5.565318E0,1.6553408E1,2.5857923E0,1.5561866E1,3.8466053E0,3.6894243E0,8.352471E0,1.0640797E1,3.9422974E1,1.2481745E1,1.784366E1,3.060599E1,3.7691228E0,1.7961955E0,2.4309309E0,1.4122478E1],"tree_param":{"num_deleted":"0","num_feature":"46","num_nodes":"29","size_leaf_vector":"1"}},{"base_weights":[-4.1955043E-2,9.4395566E-1,-1.03726104E-1,1.2337942E0,-1.3188911E-2,1.2419607E-1,-3.2511434E-1,1.0455536E-2,6.989213E-2,-2.452273E-1,3.5694546E-1,-4.6810997E-1,6.781889E-1,-2.3611968E-2,3.20833E-2,4.7429003E-2,4.520489E-3,-4.56013E-2,-1.1182842E-2,5.4633904E-2,-3.5342116E-2],"categories":[],"categories_nodes":[],"categories_segments":[],"categories_sizes":[],"default_left":[0,0,0,0,0,0,0,0,0,0,0,0,0,0,0,0,0,0,0,0,0],"id":25,"left_children":[1,3,5,7,-1,9,11,-1,-1,13,15,17,19,-1,-1,-1,-1,-1,-1,-1,-1],"loss_changes":[1.07993965E1,3.9867449E0,8.429772E0,1.1552258E0,0E0,7.1936045E0,1.2457101E1,0E0,0E0,6.8537464E0,7.9736476E0,7.89699E0,7.0664454E0,0E0,0E0,0E0,0E0,0E0,0E0,0E0,0E0],"parents":[2147483647,0,0,1,1,2,2,3,3,5,5,6,6,9,9,10,10,11,11,12,12],"right_children":[2,4,6,8,-1,10,12,-1,-1,14,16,18,20,-1,-1,-1,-1,-1,-1,-1,-1],"split_conditions":[2.7E1,1.6358323E-2,5.9236332E1,1.5790069E0,-1.3188911E-2,7.208954E-3,3.0467235E-2,1.0455536E-2,6.989213E-2,8.558E3,1.42E2,6.554E1,1.0241E2,-2.3611968E-2,3.20833E-2,4.7429003E-2,4.520489E-3,-4.56013E-2,-1.1182842E-2,5.4633904E-2,-3.5342116E-2],"split_indices":[45,18,8,33,0,23,18,0,0,32,45,3,24,0,0,0,0,0,0,0,0],"split_type":[0,0,0,0,0,0,0,0,0,0,0,0,0,0,0,0,0,0,0,0,0],"sum_hessian":[1.7472006E2,9.459417E0,1.6526065E2,7.61125E0,1.8481677E0,8.164502E1,8.361563E1,1.3642867E0,6.2469635E0,3.153638E1,5.0108635E1,7.365185E1,9.963786E0,2.5481571E1,6.05481E0,1.4768275E1,3.534036E1,2.5185398E1,4.8466446E1,7.8312573E0,2.1325283E0],"tree_param":{"num_deleted":"0","num_feature":"46","num_nodes":"21","size_leaf_vector":"1"}},{"base_weights":[-4.572321E-2,-2.3966311E-1,3.4149754E-1,-3.9953896E-1,1.2246287E-1,4.1370702E-1,-5.7579733E-2,-5.283994E-1,3.7755215E-1,9.786391E-1,-2.4705297E-1,2.7020687E-1,1.2064596E0,2.8353075E-2,-3.239299E-2,4.358025E-2,-2.7293203E-2,5.88919E-2,-1.798451E-2,3.4422543E-2,-3.4249097E-2,2.47401E-2,-4.7328673E-2,7.007163E-2,6.754325E-3],"categories":[],"categories_nodes":[],"categories_segments":[],"categories_sizes":[],"default_left":[0,0,0,0,0,0,0,0,0,0,0,0,0,0,0,0,0,0,0,0,0,0,0,0,0],"id":26,"left_children":[1,3,5,7,9,11,-1,13,15,17,19,21,23,-1,-1,-1,-1,-1,-1,-1,-1,-1,-1,-1,-1],"loss_changes":[1.26580305E1,6.542885E0,6.546135E0,8.014937E0,1.1352531E1,5.866638E0,0E0,9.182823E0,5.8064923E0,3.2999887E0,1.0848968E1,1.3416801E1,1.493247E0,0E0,0E0,0E0,0E0,0E0,0E0,0E0,0E0,0E0,0E0,0E0,0E0],"parents":[2147483647,0,0,1,1,2,2,3,3,4,4,5,5,7,7,8,8,9,9,10,10,11,11,12,12],"right_children":[2,4,6,8,10,12,-1,14,16,18,20,22,24,-1,-1,-1,-1,-1,-1,-1,-1,-1,-1,-1,-1],"split_conditions":[5.308E0,2.33606E-2,7.337E1,8.9496E4,6.566E1,6.283E1,-5.7579733E-2,2.7E1,1E0,7.2738E-2,2.4392309E-2,5.8666E1,-1.9967437E-3,2.8353075E-2,-3.239299E-2,4.358025E-2,-2.7293203E-2,5.88919E-2,-1.798451E-2,3.4422543E-2,-3.4249097E-2,2.47401E-2,-4.7328673E-2,7.007163E-2,6.754325E-3],"split_indices":[19,18,4,31,0,4,0,45,42,13,17,8,14,0,0,0,0,0,0,0,0,0,0,0,0],"split_type":[0,0,0,0,0,0,0,0,0,0,0,0,0,0,0,0,0,0,0,0,0,0,0,0,0],"sum_hessian":[1.6646466E2,1.1116742E2,5.529724E1,7.7048E1,3.411942E1,5.3435875E1,1.8613666E0,6.636338E1,1.068462E1,9.789199E0,2.4330221E1,4.6381054E1,7.0548234E0,6.156933E0,6.0206448E1,6.997093E0,3.6875274E0,8.625314E0,1.1638852E0,7.575462E0,1.675476E1,3.965485E1,6.726201E0,5.707988E0,1.3468356E0],"tree_param":{"num_deleted":"0","num_feature":"46","num_nodes":"25","size_leaf_vector":"1"}},{"base_weights":[4.5974087E-2,1.0264565E0,-1.5641188E-2,6.487592E-2,4.0899187E-2,-6.0290086E-1,7.057651E-2,-3.7305728E-2,3.857299E-2,4.8031923E-1,-9.72417E-1,-4.113037E-1,2.0302777E-1,5.175945E-2,-3.4647733E-3,-5.4568052E-2,1.6652921E-2,-3.3913117E-2,2.8430382E-2,2.3763612E-2,-6.1722393E-3],"categories":[],"categories_nodes":[],"categories_segments":[],"categories_sizes":[],"default_left":[0,0,0,0,0,0,0,0,0,0,0,0,0,0,0,0,0,0,0,0,0],"id":27,"left_children":[1,3,5,-1,7,9,11,-1,-1,13,15,17,19,-1,-1,-1,-1,-1,-1,-1,-1],"loss_changes":[1.0379874E1,2.6606474E0,8.264823E0,0E0,2.4291167E0,8.83027E0,9.178545E0,0E0,0E0,1.8966266E0,2.8339834E0,8.509108E0,1.0052799E1,0E0,0E0,0E0,0E0,0E0,0E0,0E0,0E0],"parents":[2147483647,0,0,1,1,2,2,4,4,5,5,6,6,9,9,10,10,11,11,12,12],"right_children":[2,4,6,-1,8,10,12,-1,-1,14,16,18,20,-1,-1,-1,-1,-1,-1,-1,-1],"split_conditions":[2.7E1,1.610271E-2,-8.468882E2,6.487592E-2,1.4267397E-2,5.227E1,6.20499E-3,-3.7305728E-2,3.857299E-2,-2.972E3,5.3898E0,2.42E2,1.0071427E0,5.175945E-2,-3.4647733E-3,-5.4568052E-2,1.6652921E-2,-3.3913117E-2,2.8430382E-2,2.3763612E-2,-6.1722393E-3],"split_indices":[45,18,29,0,16,0,23,0,0,32,19,45,9,0,0,0,0,0,0,0,0],"split_type":[0,0,0,0,0,0,0,0,0,0,0,0,0,0,0,0,0,0,0,0,0],"sum_hessian":[1.7055037E2,9.158131E0,1.6139223E2,6.9344006E0,2.2237296E0,1.9894035E1,1.414982E2,1.0602547E0,1.1634749E0,4.9839497E0,1.4910087E1,3.0053421E1,1.1144478E2,2.0404794E0,2.9434705E0,1.3815358E1,1.0947282E0,2.3860819E1,6.192602E0,6.0520847E1,5.0923927E1],"tree_param":{"num_deleted":"0","num_feature":"46","num_nodes":"21","size_leaf_vector":"1"}},{"base_weights":[-1.7439725E-2,2.3705697E-1,-2.3291609E-1,-2.4536751E-1,4.1461846E-1,-1.00667894E-1,-9.386365E-1,1.0009665E0,-6.8325853E-1,6.786295E-1,-1.902769E-1,6.772275E-1,-2.4465753E-1,3.9257824E-2,-1.1548338E0,5.2237944E-3,6.0303707E-2,-4.6282723E-3,-6.424745E-2,4.1186042E-2,-1.5148366E-2,-2.9672557E-2,3.047186E-2,6.0454227E-2,-1.2419476E-2,2.2231124E-2,-2.0805076E-2,-2.114322E-2,-6.3010745E-2],"categories":[],"categories_nodes":[],"categories_segments":[],"categories_sizes":[],"default_left":[0,0,0,0,0,0,0,0,0,0,0,0,0,0,0,0,0,0,0,0,0,0,0,0,0,0,0,0,0],"id":28,"left_children":[1,3,5,7,9,11,13,15,17,19,21,23,25,-1,27,-1,-1,-1,-1,-1,-1,-1,-1,-1,-1,-1,-1,-1,-1],"loss_changes":[9.307794E0,6.770712E0,8.479907E0,1.2458079E1,9.276706E0,8.957551E0,6.265498E0,9.799795E-1,5.766414E0,5.9599285E0,6.225008E0,6.466418E0,8.098739E0,0E0,4.838524E-1,0E0,0E0,0E0,0E0,0E0,0E0,0E0,0E0,0E0,0E0,0E0,0E0,0E0,0E0],"parents":[2147483647,0,0,1,1,2,2,3,3,4,4,5,5,6,6,7,7,8,8,9,9,10,10,11,11,12,12,14,14],"right_children":[2,4,6,8,10,12,14,16,18,20,22,24,26,-1,28,-1,-1,-1,-1,-1,-1,-1,-1,-1,-1,-1,-1,-1,-1],"split_conditions":[5.831E1,1.0832692E0,-1.0598E3,-5.098266E-2,1.0233709E0,-8.3899386E-2,9.561397E-1,-4.336686E-2,3E2,7.788114E0,3.911302E-2,6.536E1,2.2931457E0,3.9257824E-2,-1.0583E3,5.2237944E-3,6.0303707E-2,-4.6282723E-3,-6.424745E-2,4.1186042E-2,-1.5148366E-2,-2.9672557E-2,3.047186E-2,6.0454227E-2,-1.2419476E-2,2.2231124E-2,-2.0805076E-2,-2.114322E-2,-6.3010745E-2],"split_indices":[4,33,38,15,9,15,9,13,45,33,26,0,33,0,38,0,0,0,0,0,0,0,0,0,0,0,0,0,0],"split_type":[0,0,0,0,0,0,0,0,0,0,0,0,0,0,0,0,0,0,0,0,0,0,0,0,0,0,0,0,0],"sum_hessian":[1.6772563E2,7.685404E1,9.087159E1,2.057394E1,5.6280098E1,7.7492546E1,1.3379041E1,5.0148096E0,1.5559131E1,3.9094933E1,1.718517E1,1.1525176E1,6.596738E1,1.1977141E0,1.2181327E1,1.2147431E0,3.8000662E0,8.433559E0,7.1255717E0,3.4200535E1,4.894395E0,1.1596658E1,5.5885105E0,7.124951E0,4.400225E0,1.2822381E1,5.3144993E1,2.1638818E0,1.0017445E1],"tree_param":{"num_deleted":"0","num_feature":"46","num_nodes":"29","size_leaf_vector":"1"}},{"base_weights":[1.355713E-2,8.727651E-1,-3.8049724E-2,6.21705E-2,-2.1330876E-2,-1.8390615E-1,3.7408975E-1,1.6701618E-1,-4.6043214E-1,1.0736233E0,-1.03065334E-1,1.96608E-2,-2.5143592E-2,-4.13041E-2,-1.954457E-3,6.70399E-2,5.62869E-3,3.961583E-2,-2.8498907E-2],"categories":[],"categories_nodes":[],"categories_segments":[],"categories_sizes":[],"default_left":[0,0,0,0,0,0,0,0,0,0,0,0,0,0,0,0,0,0,0],"id":29,"left_children":[1,3,5,-1,-1,7,9,11,13,15,17,-1,-1,-1,-1,-1,-1,-1,-1],"loss_changes":[7.436606E0,5.106727E0,9.594511E0,0E0,0E0,1.1499591E1,1.4046469E1,8.169863E0,1.0151469E1,4.218685E0,1.1209657E1,0E0,0E0,0E0,0E0,0E0,0E0,0E0,0E0],"parents":[2147483647,0,0,1,1,2,2,5,5,6,6,7,7,8,8,9,9,10,10],"right_children":[2,4,6,-1,-1,8,10,12,14,16,18,-1,-1,-1,-1,-1,-1,-1,-1],"split_conditions":[2.7E1,1.6358323E-2,2.33606E-2,6.21705E-2,-2.1330876E-2,5.227E1,6.566E1,2.3707183E-2,5.2327E0,3.545837E-2,2.4392309E-2,1.96608E-2,-2.5143592E-2,-4.13041E-2,-1.954457E-3,6.70399E-2,5.62869E-3,3.961583E-2,-2.8498907E-2],"split_indices":[45,18,18,0,0,0,0,13,21,17,17,0,0,0,0,0,0,0,0],"split_type":[0,0,0,0,0,0,0,0,0,0,0,0,0,0,0,0,0,0,0],"sum_hessian":[1.6596498E2,8.502027E0,1.5746295E2,6.648608E0,1.8534182E0,1.1671221E2,4.075075E1,5.161137E1,6.510084E1,1.6017796E1,2.4732954E1,3.8891846E1,1.2719525E1,3.433963E1,3.0761208E1,1.2224274E1,3.7935228E0,8.238106E0,1.6494848E1],"tree_param":{"num_deleted":"0","num_feature":"46","num_nodes":"19","size_leaf_vector":"1"}},{"base_weights":[3.653996E-2,-2.0681648E-2,9.3319285E-1,3.384959E-2,-8.734881E-1,-1.7939888E-2,1.1413997E0,1.0382062E0,-1.8792568E-2,-6.713148E-2,1.995331E-1,1.28486855E-2,6.2204774E-2,-1.8412381E-2,6.7251526E-2,2.099779E-3,-5.140081E-2,5.8498766E-2,-4.4519816E-2],"categories":[],"categories_nodes":[],"categories_segments":[],"categories_sizes":[],"default_left":[0,0,0,0,0,0,0,0,0,0,0,0,0,0,0,0,0,0,0],"id":30,"left_children":[1,3,5,7,9,-1,11,13,15,-1,17,-1,-1,-1,-1,-1,-1,-1,-1],"loss_changes":[8.735925E0,7.5017123E0,3.1568565E0,8.054998E0,5.1478176E0,0E0,5.009022E-1,3.7693443E0,8.9629545E0,0E0,5.0817943E0,0E0,0E0,0E0,0E0,0E0,0E0,0E0,0E0],"parents":[2147483647,0,0,1,1,2,2,3,3,4,4,6,6,7,7,8,8,10,10],"right_children":[2,4,6,8,10,-1,12,14,16,-1,18,-1,-1,-1,-1,-1,-1,-1,-1],"split_conditions":[1.3962E4,1.0826E2,3E0,-1.85955E3,8.1005E1,-1.7939888E-2,1.221708E0,7.2544334E1,7.079E1,-6.713148E-2,8.055E1,1.28486855E-2,6.2204774E-2,-1.8412381E-2,6.7251526E-2,2.099779E-3,-5.140081E-2,5.8498766E-2,-4.4519816E-2],"split_indices":[32,25,39,38,7,0,33,8,0,0,0,0,0,0,0,0,0,0,0],"split_type":[0,0,0,0,0,0,0,0,0,0,0,0,0,0,0,0,0,0,0],"sum_hessian":[1.6888847E2,1.5967542E2,9.213056E0,1.5098148E2,8.693941E0,1.1782652E0,8.034791E0,6.5869765E0,1.443945E2,5.8743315E0,2.8196099E0,1.200266E0,6.8345246E0,1.1437846E0,5.443192E0,1.3709528E2,7.2992144E0,1.4527136E0,1.3668963E0],"tree_param":{"num_deleted":"0","num_feature":"46","num_nodes":"19","size_leaf_vector":"1"}},{"base_weights":[-5.0963922E-3,-6.469489E-2,8.4957683E-1,1.6476406E-1,-2.8353977E-1,-1.4318625E-2,1.0471933E0,6.02829E-1,-2.2426138E-2,5.589088E-1,-3.7831396E-1,8.695019E-3,1.1318156E0,5.508169E-2,5.0466154E-3,-6.501949E-3,5.5394333E-2,-2.2604499E-2,6.51262E-2,3.137393E-2,-2.336852E-2,6.1697353E-2,9.383447E-3],"categories":[],"categories_nodes":[],"categories_segments":[],"categories_sizes":[],"default_left":[0,0,0,0,0,0,0,0,0,0,0,0,0,0,0,0,0,0,0,0,0,0,0],"id":31,"left_children":[1,3,5,7,9,-1,11,13,15,17,19,-1,21,-1,-1,-1,-1,-1,-1,-1,-1,-1,-1],"loss_changes":[8.700032E0,8.060462E0,2.7993355E0,6.4536004E0,6.7624774E0,0E0,5.199375E-1,5.7840614E0,6.954231E0,7.1299944E0,6.9528666E0,0E0,6.035547E-1,0E0,0E0,0E0,0E0,0E0,0E0,0E0,0E0,0E0,0E0],"parents":[2147483647,0,0,1,1,2,2,3,3,4,4,6,6,7,7,8,8,9,9,10,10,12,12],"right_children":[2,4,6,8,10,-1,12,14,16,18,20,-1,22,-1,-1,-1,-1,-1,-1,-1,-1,-1,-1],"split_conditions":[1.2762E4,5.9505665E1,6E0,-1.0661E3,4.8242E0,-1.4318625E-2,4.8135E0,6.2799E4,5.6196E0,1.94751E3,2.3E1,8.695019E-3,5.5204E0,5.508169E-2,5.0466154E-3,-6.501949E-3,5.5394333E-2,-2.2604499E-2,6.51262E-2,3.137393E-2,-2.336852E-2,6.1697353E-2,9.383447E-3],"split_indices":[32,8,40,38,21,0,19,31,19,37,45,0,19,0,0,0,0,0,0,0,0,0,0],"split_type":[0,0,0,0,0,0,0,0,0,0,0,0,0,0,0,0,0,0,0,0,0,0,0],"sum_hessian":[1.6872002E2,1.5858575E2,1.0134275E1,7.753616E1,8.104958E1,1.4352072E0,8.699068E0,2.254819E1,5.4987972E1,7.7007036E0,7.3348885E1,1.0383568E0,7.6607113E0,1.0709613E1,1.1838577E1,5.1015896E1,3.9720783E0,3.429749E0,4.270955E0,5.4745164E0,6.787437E1,6.6359353E0,1.0247757E0],"tree_param":{"num_deleted":"0","num_feature":"46","num_nodes":"23","size_leaf_vector":"1"}},{"base_weights":[7.075008E-2,3.0714706E-1,-2.6060966E-1,-1.153174E-1,5.205574E-1,9.7960025E-1,-3.821E-1,4.9986515E-2,-2.4914107E-1,-5.421709E-2,5.7872117E-1,6.352508E-2,-1.0760919E-2,-2.338927E-1,-1.2262964E0,-1.8205815E-4,-6.369481E-2,5.6801047E-2,1.9138498E-2,-3.534203E-2,1.1201124E-2,-1.8710162E-2,-6.493216E-2],"categories":[],"categories_nodes":[],"categories_segments":[],"categories_sizes":[],"default_left":[0,0,0,0,0,0,0,0,0,0,0,0,0,0,0,0,0,0,0,0,0,0,0],"id":32,"left_children":[1,3,5,7,9,11,13,-1,15,-1,17,-1,-1,19,21,-1,-1,-1,-1,-1,-1,-1,-1],"loss_changes":[1.3129409E1,8.867202E0,1.0906971E1,5.2633953E0,6.702738E0,2.5387158E0,7.768965E0,0E0,7.7447696E0,0E0,6.494993E0,0E0,0E0,1.2287694E1,9.2279434E-2,0E0,0E0,0E0,0E0,0E0,0E0,0E0,0E0],"parents":[2147483647,0,0,1,1,2,2,3,3,4,4,5,5,6,6,8,8,10,10,13,13,14,14],"right_children":[2,4,6,8,10,12,14,-1,16,-1,18,-1,-1,20,22,-1,-1,-1,-1,-1,-1,-1,-1],"split_conditions":[6.132E1,2.1586E4,4.8242E0,2.6240334E1,4.7378E0,8.012E1,1.0273E2,4.9986515E-2,7.317071E-2,-5.421709E-2,2.195486E0,6.352508E-2,-1.0760919E-2,1.8376373E-2,4.8982E0,-1.8205815E-4,-6.369481E-2,5.6801047E-2,1.9138498E-2,-3.534203E-2,1.1201124E-2,-1.8710162E-2,-6.493216E-2],"split_indices":[5,31,21,8,21,5,25,0,26,0,33,0,0,16,19,0,0,0,0,0,0,0,0],"split_type":[0,0,0,0,0,0,0,0,0,0,0,0,0,0,0,0,0,0,0,0,0,0,0],"sum_hessian":[1.6558952E2,9.668563E1,6.890389E1,3.26036E1,6.408202E1,5.517402E0,6.3386494E1,2.80031E0,2.9803291E1,1.6241552E0,6.245787E1,4.3861647E0,1.1312379E0,5.5006588E1,8.379908E0,2.4852861E1,4.9504304E0,1.4999816E1,4.7458054E1,2.6791723E1,2.8214863E1,1.1388613E0,7.2410464E0],"tree_param":{"num_deleted":"0","num_feature":"46","num_nodes":"23","size_leaf_vector":"1"}},{"base_weights":[1.5997294E-2,-4.06444E-2,9.373558E-1,6.134936E-1,-1.05348766E-1,-4.6502226E-3,1.0837111E0,-1.4832586E-1,5.989117E-2,-2.3063432E-1,2.297995E-1,1.14418175E-2,5.932345E-2,-3.9645016E-2,4.470065E-2,4.251048E-3,-2.2456536E-2,4.3940917E-2,-7.446462E-3],"categories":[],"categories_nodes":[],"categories_segments":[],"categories_sizes":[],"default_left":[0,0,0,0,0,0,0,0,0,0,0,0,0,0,0,0,0,0,0],"id":33,"left_children":[1,3,5,7,9,-1,11,13,-1,15,17,-1,-1,-1,-1,-1,-1,-1,-1],"loss_changes":[8.777146E0,6.78236E0,1.5695524E0,6.6025023E0,6.15331E0,0E0,4.8461914E-1,5.5158896E0,0E0,7.3661923E0,9.97103E0,0E0,0E0,0E0,0E0,0E0,0E0,0E0,0E0],"parents":[2147483647,0,0,1,1,2,2,3,3,4,4,6,6,7,7,9,9,10,10],"right_children":[2,4,6,8,10,-1,12,14,-1,16,18,-1,-1,-1,-1,-1,-1,-1,-1],"split_conditions":[1.2762E4,4.8E1,6E0,1.0223082E0,2.33606E-2,-4.6502226E-3,4.8135E0,1.6112521E-2,5.989117E-2,5.1635715E1,6.566E1,1.14418175E-2,5.932345E-2,-3.9645016E-2,4.470065E-2,4.251048E-3,-2.2456536E-2,4.3940917E-2,-7.446462E-3],"split_indices":[32,45,40,11,18,0,19,16,0,6,0,0,0,0,0,0,0,0,0],"split_type":[0,0,0,0,0,0,0,0,0,0,0,0,0,0,0,0,0,0,0],"sum_hessian":[1.6645544E2,1.5771556E2,8.73988E0,1.3432841E1,1.4428271E2,1.1323713E0,7.607508E0,6.154751E0,7.2780905E0,1.0524991E2,3.9032814E1,1.1625798E0,6.4449286E0,3.9508696E0,2.2038813E0,4.330268E1,6.1947224E1,1.3897145E1,2.5135668E1],"tree_param":{"num_deleted":"0","num_feature":"46","num_nodes":"19","size_leaf_vector":"1"}},{"base_weights":[2.0240713E-2,-5.253203E-2,5.6391712E-2,7.561406E-2,-4.618826E-1,3.500811E-1,-2.112269E-1,4.964017E-2,-6.2057763E-1,4.708881E-2,7.819931E-3,-1.5662083E-3,-6.1833408E-2,-5.535403E-2,-1.6698863E-2],"categories":[],"categories_nodes":[],"categories_segments":[],"categories_sizes":[],"default_left":[0,0,0,0,0,0,0,0,0,0,0,0,0,0,0],"id":34,"left_children":[1,3,-1,5,7,9,11,-1,13,-1,-1,-1,-1,-1,-1],"loss_changes":[1.3384023E1,8.222249E0,0E0,9.499797E0,9.23879E0,6.9074373E0,1.0876394E1,0E0,4.4118013E0,0E0,0E0,0E0,0E0,0E0,0E0],"parents":[2147483647,0,0,1,1,3,3,4,4,5,5,6,6,8,8],"right_children":[2,4,-1,6,8,10,12,-1,14,-1,-1,-1,-1,-1,-1],"split_conditions":[1.2762E4,-6.3469495E2,5.6391712E-2,6.132E1,2.6240334E1,-1.3184E3,-1.18177E3,4.964017E-2,-2.613E3,4.708881E-2,7.819931E-3,-1.5662083E-3,-6.1833408E-2,-5.535403E-2,-1.6698863E-2],"split_indices":[32,29,0,5,8,38,38,0,32,0,0,0,0,0,0],"split_type":[0,0,0,0,0,0,0,0,0,0,0,0,0,0,0],"sum_hessian":[1.643144E2,1.5507784E2,9.236581E0,1.187262E2,3.635163E1,6.055908E1,5.8167118E1,3.0586174E0,3.3293015E1,1.3981988E1,4.657709E1,5.036216E1,7.804957E0,1.1280911E1,2.2012104E1],"tree_param":{"num_deleted":"0","num_feature":"46","num_nodes":"15","size_leaf_vector":"1"}},{"base_weights":[2.1191346E-2,-3.9365984E-2,9.002524E-1,2.6302641E-2,-6.9517004E-1,-2.2171946E-2,1.098991E0,7.105383E-1,-5.1912084E-2,5.672391E-1,-1.0274749E0,9.901929E-3,5.954924E-2,4.959094E-2,-2.172046E-2,-1.8777786E-2,6.1855777E-3,5.0905097E-2,-1.2622803E-2,-6.367951E-2,5.236731E-3],"categories":[],"categories_nodes":[],"categories_segments":[],"categories_sizes":[],"default_left":[0,0,0,0,0,0,0,0,0,0,0,0,0,0,0,0,0,0,0,0,0],"id":35,"left_children":[1,3,5,7,9,-1,11,13,15,17,19,-1,-1,-1,-1,-1,-1,-1,-1,-1,-1],"loss_changes":[9.146638E0,6.955421E0,3.444212E0,7.9244914E0,6.7487965E0,0E0,5.874424E-1,5.3219337E0,7.617305E0,1.6270595E0,3.474763E0,0E0,0E0,0E0,0E0,0E0,0E0,0E0,0E0,0E0,0E0],"parents":[2147483647,0,0,1,1,2,2,3,3,4,4,6,6,7,7,8,8,9,9,10,10],"right_children":[2,4,6,8,10,-1,12,14,16,18,20,-1,-1,-1,-1,-1,-1,-1,-1,-1,-1],"split_conditions":[1.2762E4,7.475E1,6E0,9.6648514E-1,4.8155E0,-2.2171946E-2,4.8178E0,2.6215015E-2,7.094072E-3,9.665933E-1,1.9347113E-2,9.901929E-3,5.954924E-2,4.959094E-2,-2.172046E-2,-1.8777786E-2,6.1855777E-3,5.0905097E-2,-1.2622803E-2,-6.367951E-2,5.236731E-3],"split_indices":[32,4,40,9,19,0,21,26,23,11,12,0,0,0,0,0,0,0,0,0,0],"split_type":[0,0,0,0,0,0,0,0,0,0,0,0,0,0,0,0,0,0,0,0,0],"sum_hessian":[1.7015508E2,1.6008243E2,1.0072644E1,1.4638422E2,1.369822E1,1.1391914E0,8.933453E0,1.4187254E1,1.3219696E2,2.7071002E0,1.0991119E1,1.1197522E0,7.8137007E0,1.1496611E1,2.6906424E0,4.6101517E1,8.6095436E1,1.590317E0,1.116783E0,8.925959E0,2.0651615E0],"tree_param":{"num_deleted":"0","num_feature":"46","num_nodes":"21","size_leaf_vector":"1"}},{"base_weights":[2.1200325E-2,4.193858E-1,-1.5351939E-1,6.046386E-1,-6.9630444E-1,4.5078876E-3,-4.9624848E-1,5.795883E-2,8.206943E-1,1.9879857E-1,-7.0326164E-2,1.0960766E0,-1.1858125E-1,7.477344E-1,-7.0544195E-1,5.819341E-2,-2.0396765E-2,5.3316902E-2,7.450024E-3,4.0782318E-2,-1.9744992E-2,6.052162E-2,7.862701E-3,5.554073E-2,-9.8048765E-3,5.1761527E-2,-6.0914676E-3,-7.898784E-2,-2.7020415E-2],"categories":[],"categories_nodes":[],"categories_segments":[],"categories_sizes":[],"default_left":[0,0,0,0,0,0,0,0,0,0,0,0,0,0,0,0,0,0,0,0,0,0,0,0,0,0,0,0,0],"id":36,"left_children":[1,3,5,7,9,11,13,15,17,19,-1,21,23,25,27,-1,-1,-1,-1,-1,-1,-1,-1,-1,-1,-1,-1,-1,-1],"loss_changes":[1.1293776E1,1.0650505E1,6.11784E0,5.029022E0,5.055484E0,1.0646811E1,9.802916E0,7.3021235E0,4.9114532E0,1.8601663E0,0E0,6.7170715E-1,7.007236E0,1.53021E0,3.6231174E0,0E0,0E0,0E0,0E0,0E0,0E0,0E0,0E0,0E0,0E0,0E0,0E0,0E0,0E0],"parents":[2147483647,0,0,1,1,2,2,3,3,4,4,5,5,6,6,7,7,8,8,9,9,11,11,12,12,13,13,14,14],"right_children":[2,4,6,8,10,12,14,16,18,20,-1,22,24,26,28,-1,-1,-1,-1,-1,-1,-1,-1,-1,-1,-1,-1,-1,-1],"split_conditions":[5.1635715E1,7.788114E0,-1.31789E3,1.0832692E0,-8.8148E2,5.747857E1,9.6648514E-1,-7.59563E2,2.3707183E-2,1.0030698E0,-7.0326164E-2,7.596E1,4.775E0,-4.336686E-2,6.549E1,5.819341E-2,-2.0396765E-2,5.3316902E-2,7.450024E-3,4.0782318E-2,-1.9744992E-2,6.052162E-2,7.862701E-3,5.554073E-2,-9.8048765E-3,5.1761527E-2,-6.0914676E-3,-7.898784E-2,-2.7020415E-2],"split_indices":[6,33,38,33,38,7,9,29,13,10,0,25,21,13,25,0,0,0,0,0,0,0,0,0,0,0,0,0,0],"split_type":[0,0,0,0,0,0,0,0,0,0,0,0,0,0,0,0,0,0,0,0,0,0,0,0,0,0,0,0,0],"sum_hessian":[1.6040942E2,4.8493233E1,1.119162E2,4.1980682E1,6.512548E0,7.727342E1,3.4642776E1,1.2250882E1,2.9729801E1,3.1998284E0,3.3127196E0,7.0295777E0,7.024384E1,4.6164403E0,3.0026335E1,3.1871922E0,9.06369E0,2.133858E1,8.391222E0,1.3859737E0,1.8138547E0,6.0083995E0,1.0211782E0,3.375699E0,6.686814E1,3.3262086E0,1.2902318E0,3.4065886E0,2.6619747E1],"tree_param":{"num_deleted":"0","num_feature":"46","num_nodes":"29","size_leaf_vector":"1"}},{"base_weights":[2.2693092E-2,2.719738E-1,-2.1390893E-1,7.8004226E-2,5.7227284E-1,-5.505386E-1,9.580386E-2,5.137765E-1,-2.2702277E-1,6.737696E-1,-5.2998245E-2,4.1207653E-2,-6.274385E-1,-7.5335044E-1,2.6301375E-1,4.314826E-2,-2.6166262E-3,-2.6832536E-2,1.898705E-2,3.8959585E-2,-2.883333E-2,-8.677703E-3,-4.3350838E-2,-6.422192E-2,2.850774E-3,3.51563E-2,-1.0333707E-2],"categories":[],"categories_nodes":[],"categories_segments":[],"categories_sizes":[],"default_left":[0,0,0,0,0,0,0,0,0,0,0,0,0,0,0,0,0,0,0,0,0,0,0,0,0,0,0],"id":37,"left_children":[1,3,5,7,9,11,13,15,17,19,-1,-1,21,23,25,-1,-1,-1,-1,-1,-1,-1,-1,-1,-1,-1,-1],"loss_changes":[9.748697E0,4.64131E0,8.899481E0,6.7673306E0,5.9182053E0,4.8310976E0,6.5940256E0,4.1782956E0,5.8636093E0,4.4284334E0,0E0,0E0,4.1137075E0,3.3740292E0,8.078224E0,0E0,0E0,0E0,0E0,0E0,0E0,0E0,0E0,0E0,0E0,0E0,0E0],"parents":[2147483647,0,0,1,1,2,2,3,3,4,4,5,5,6,6,7,7,8,8,9,9,12,12,13,13,14,14],"right_children":[2,4,6,8,10,12,14,16,18,20,-1,-1,22,24,26,-1,-1,-1,-1,-1,-1,-1,-1,-1,-1,-1,-1],"split_conditions":[2.175337E-3,5.254E0,2.3467E-2,-5.6859083E-3,7.291167E1,9.535928E-1,9.889473E-3,8.498466E-3,2.2047736E-2,3.41E2,-5.2998245E-2,4.1207653E-2,2.1611935E-2,1.4924517E-2,5.8140667E1,4.314826E-2,-2.6166262E-3,-2.6832536E-2,1.898705E-2,3.8959585E-2,-2.883333E-2,-8.677703E-3,-4.3350838E-2,-6.422192E-2,2.850774E-3,3.51563E-2,-1.0333707E-2],"split_indices":[13,19,14,22,8,10,16,23,18,45,0,0,27,18,8,0,0,0,0,0,0,0,0,0,0,0,0],"split_type":[0,0,0,0,0,0,0,0,0,0,0,0,0,0,0,0,0,0,0,0,0,0,0,0,0,0,0],"sum_hessian":[1.633009E2,7.944706E1,8.385384E1,4.903443E1,3.041263E1,3.980828E1,4.4045567E1,1.9908329E1,2.9126102E1,2.918504E1,1.2275908E0,1.5941123E0,3.821417E1,6.6695714E0,3.737599E1,1.1988917E1,7.9194117E0,1.9361565E1,9.764538E0,2.7263376E1,1.9216634E0,1.3798024E1,2.4416145E1,3.6756544E0,2.9939172E0,1.9038923E1,1.833707E1],"tree_param":{"num_deleted":"0","num_feature":"46","num_nodes":"27","size_leaf_vector":"1"}},{"base_weights":[3.9074518E-2,2.2032161E-1,-1.5088421E-1,4.2286515E-2,5.3125036E-1,2.8140688E-2,-5.601313E-1,-4.4527087E-2,1.1064394E0,6.5010893E-1,-4.0383186E-2,-8.967577E-1,1.7392573E-1,2.9329017E-1,-8.822371E-1,1.0293096E-2,-2.6394902E-2,1.3979289E-2,7.144742E-2,5.1596947E-2,1.5268882E-3,3.788398E-2,-6.728505E-2,1.3442181E-2,-5.094347E-2,-2.3883944E-2,5.0258297E-2,-5.017502E-2,2.5318539E-2],"categories":[],"categories_nodes":[],"categories_segments":[],"categories_sizes":[],"default_left":[0,0,0,0,0,0,0,0,0,0,0,0,0,0,0,0,0,0,0,0,0,0,0,0,0,0,0,0,0],"id":38,"left_children":[1,3,5,7,9,11,13,15,17,19,-1,21,23,25,27,-1,-1,-1,-1,-1,-1,-1,-1,-1,-1,-1,-1,-1,-1],"loss_changes":[5.6065035E0,4.585572E0,5.849992E0,5.0398245E0,5.334796E0,7.7539816E0,6.9335504E0,6.269996E0,6.973605E-1,6.6664724E0,0E0,6.8391075E0,5.8798633E0,4.543647E0,3.5185108E0,0E0,0E0,0E0,0E0,0E0,0E0,0E0,0E0,0E0,0E0,0E0,0E0,0E0,0E0],"parents":[2147483647,0,0,1,1,2,2,3,3,4,4,5,5,6,6,7,7,8,8,9,9,11,11,12,12,13,13,14,14],"right_children":[2,4,6,8,10,12,14,16,18,20,-1,22,24,26,28,-1,-1,-1,-1,-1,-1,-1,-1,-1,-1,-1,-1,-1,-1],"split_conditions":[3.6624142E-3,5.2568E0,2.1013133E-2,1.2251029E-2,3.41E2,1.0832692E0,5.59E1,8.5613E-3,-3.7656967E-2,-6.3469495E2,-4.0383186E-2,2.6240334E1,7.788114E0,2.5089273E-2,1.1009504E0,1.0293096E-2,-2.6394902E-2,1.3979289E-2,7.144742E-2,5.1596947E-2,1.5268882E-3,3.788398E-2,-6.728505E-2,1.3442181E-2,-5.094347E-2,-2.3883944E-2,5.0258297E-2,-5.017502E-2,2.5318539E-2],"split_indices":[13,21,17,23,45,33,4,23,14,29,0,8,33,18,10,0,0,0,0,0,0,0,0,0,0,0,0,0,0],"split_type":[0,0,0,0,0,0,0,0,0,0,0,0,0,0,0,0,0,0,0,0,0,0,0,0,0,0,0,0,0],"sum_hessian":[1.6087473E2,8.224332E1,7.863142E1,5.3020336E1,2.922298E1,5.534988E1,2.3281536E1,4.9907074E1,3.1132622E0,2.7312809E1,1.9101717E0,6.8350844E0,4.8514797E1,6.4038773E0,1.6877659E1,3.3254932E1,1.665214E1,1.3974262E0,1.7158359E0,1.6486761E1,1.0826048E1,1.3120922E0,5.522992E0,4.565626E1,2.8585336E0,3.2322745E0,3.1716027E0,1.5777212E1,1.1004461E0],"tree_param":{"num_deleted":"0","num_feature":"46","num_nodes":"29","size_leaf_vector":"1"}},{"base_weights":[1.7642694E-2,1.075298E0,-3.0932821E-2,6.446993E-2,-7.4040116E-4,-8.6936794E-2,6.836816E-1,1.3785261E-1,-2.5270215E-1,1.0733484E0,-3.8508344E-1,3.4133673E-2,-1.7483098E-2,3.6906313E-2,-2.0123996E-2,6.713601E-2,5.2650794E-3,2.2774767E-2,-4.8482493E-2],"categories":[],"categories_nodes":[],"categories_segments":[],"categories_sizes":[],"default_left":[0,0,0,0,0,0,0,0,0,0,0,0,0,0,0,0,0,0,0],"id":39,"left_children":[1,3,5,-1,-1,7,9,11,13,15,17,-1,-1,-1,-1,-1,-1,-1,-1],"loss_changes":[7.716522E0,1.5582681E0,5.820671E0,0E0,0E0,5.042136E0,4.8172364E0,1.5559675E1,1.1827659E1,1.9481859E0,2.191599E0,0E0,0E0,0E0,0E0,0E0,0E0,0E0,0E0],"parents":[2147483647,0,0,1,1,2,2,5,5,6,6,7,7,8,8,9,9,10,10],"right_children":[2,4,6,-1,-1,8,10,12,14,16,18,-1,-1,-1,-1,-1,-1,-1,-1],"split_conditions":[2.6595715E1,2.3126008E-2,3.111742E-2,6.446993E-2,-7.4040116E-4,2.1978773E-2,6.626E1,5.945E1,4.8884E0,7.079E1,3.2580532E-2,3.4133673E-2,-1.7483098E-2,3.6906313E-2,-2.0123996E-2,6.713601E-2,5.2650794E-3,2.2774767E-2,-4.8482493E-2],"split_indices":[6,13,18,0,0,27,0,0,21,4,18,0,0,0,0,0,0,0,0],"split_type":[0,0,0,0,0,0,0,0,0,0,0,0,0,0,0,0,0,0,0],"sum_hessian":[1.4854918E2,5.5947914E0,1.4295439E2,4.5235333E0,1.0712581E0,1.3337982E2,9.574565E0,5.668262E1,7.66972E1,7.0132704E0,2.5612948E0,2.6579E1,3.010362E1,9.555609E0,6.7141594E1,5.1837764E0,1.829494E0,1.1411594E0,1.4201353E0],"tree_param":{"num_deleted":"0","num_feature":"46","num_nodes":"19","size_leaf_vector":"1"}},{"base_weights":[2.8223697E-2,2.368736E-1,-1.7385651E-1,-3.7353545E-2,6.392895E-1,-2.71148E-1,5.833624E-1,2.0032658E-1,-4.4944835E-1,1.0715418E0,2.9772747E-1,5.8964235E-1,-3.5067222E-1,5.4261386E-2,-5.704591E-2,2.4646914E-2,-2.1023488E-2,3.1818792E-2,-3.54567E-2,6.0264464E-2,-1.0491148E-2,2.5478665E-2,-3.937381E-2,-3.0051682E-2,5.4043926E-2,-5.8084596E-2,-1.1701419E-2,-2.9971316E-2,3.8998745E-2],"categories":[],"categories_nodes":[],"categories_segments":[],"categories_sizes":[],"default_left":[0,0,0,0,0,0,0,0,0,0,0,0,0,0,0,0,0,0,0,0,0,0,0,0,0,0,0,0,0],"id":40,"left_children":[1,3,5,7,9,11,13,15,17,19,21,23,25,-1,27,-1,-1,-1,-1,-1,-1,-1,-1,-1,-1,-1,-1,-1,-1],"loss_changes":[6.8062177E0,8.781851E0,6.205291E0,4.805571E0,4.437832E0,5.232625E0,3.1675706E0,5.879375E0,5.5038834E0,2.6242342E0,4.857194E0,4.4995837E0,6.1455984E0,0E0,2.8262293E0,0E0,0E0,0E0,0E0,0E0,0E0,0E0,0E0,0E0,0E0,0E0,0E0,0E0,0E0],"parents":[2147483647,0,0,1,1,2,2,3,3,4,4,5,5,6,6,7,7,8,8,9,9,10,10,11,11,12,12,14,14],"right_children":[2,4,6,8,10,12,14,16,18,20,22,24,26,-1,28,-1,-1,-1,-1,-1,-1,-1,-1,-1,-1,-1,-1,-1,-1],"split_conditions":[2.175337E-3,5.2201E0,9.956E3,3.5E1,6.2799E4,4.2E1,1.0416964E0,1.859E3,-6.473696E-2,6.838E1,3.352257E-2,1.0223082E0,-8.5157635E2,5.4261386E-2,2.0675862E-2,2.4646914E-2,-2.1023488E-2,3.1818792E-2,-3.54567E-2,6.0264464E-2,-1.0491148E-2,2.5478665E-2,-3.937381E-2,-3.0051682E-2,5.4043926E-2,-5.8084596E-2,-1.1701419E-2,-2.9971316E-2,3.8998745E-2],"split_indices":[13,21,32,40,31,45,10,32,26,7,27,11,29,0,16,0,0,0,0,0,0,0,0,0,0,0,0,0,0],"split_type":[0,0,0,0,0,0,0,0,0,0,0,0,0,0,0,0,0,0,0,0,0,0,0,0,0,0,0,0,0],"sum_hessian":[1.594457E2,7.836296E1,8.108274E1,4.714386E1,3.12191E1,7.2419785E1,8.66296E0,3.0225092E1,1.6918766E1,1.2836775E1,1.8382326E1,5.582183E0,6.68376E1,4.467417E0,4.1955433E0,2.0682415E1,9.542677E0,2.985389E0,1.3933377E1,1.1677283E1,1.1594912E0,1.5823759E1,2.5585673E0,1.5651072E0,4.0170755E0,7.2775793E0,5.956002E1,2.7181005E0,1.4774425E0],"tree_param":{"num_deleted":"0","num_feature":"46","num_nodes":"29","size_leaf_vector":"1"}},{"base_weights":[2.754433E-2,2.1410438E-1,-1.6832618E-1,1.0243508E-1,6.8058E-1,-1.0619134E0,-5.0930265E-2,3.254298E-1,-2.5654724E-1,1.105119E0,-3.0798435E-1,7.9652965E-3,-6.479977E-2,6.635612E-1,-2.1532816E-1,3.5245102E-2,-3.0982287E-3,3.9074672E-3,-5.4411676E-2,-5.4608225E-3,6.1897587E-2,3.152466E-2,-5.642435E-2,5.7683088E-2,-3.638221E-2,3.07176E-2,-1.8768819E-2],"categories":[],"categories_nodes":[],"categories_segments":[],"categories_sizes":[],"default_left":[0,0,0,0,0,0,0,0,0,0,0,0,0,0,0,0,0,0,0,0,0,0,0,0,0,0,0],"id":41,"left_children":[1,3,5,7,9,11,13,15,17,19,21,-1,-1,23,25,-1,-1,-1,-1,-1,-1,-1,-1,-1,-1,-1,-1],"loss_changes":[5.851512E0,4.199178E0,8.148937E0,5.470851E0,6.9091206E0,2.7877598E0,8.384658E0,6.211E0,7.4187756E0,1.9365444E0,4.9345345E0,0E0,0E0,9.955326E0,7.9053307E0,0E0,0E0,0E0,0E0,0E0,0E0,0E0,0E0,0E0,0E0,0E0,0E0],"parents":[2147483647,0,0,1,1,2,2,3,3,4,4,5,5,6,6,7,7,8,8,9,9,10,10,13,13,14,14],"right_children":[2,4,6,8,10,12,14,16,18,20,22,-1,-1,24,26,-1,-1,-1,-1,-1,-1,-1,-1,-1,-1,-1,-1],"split_conditions":[5.925E1,5.624E1,7.029E1,4.9612858E1,-7.0020764E2,9.6676075E-1,7.463E1,2.6195193E-2,3E1,-8.781234E2,6.003E1,7.9652965E-3,-6.479977E-2,6.499E1,4.9033E0,3.5245102E-2,-3.0982287E-3,3.9074672E-3,-5.4411676E-2,-5.4608225E-3,6.1897587E-2,3.152466E-2,-5.642435E-2,5.7683088E-2,-3.638221E-2,3.07176E-2,-1.8768819E-2],"split_indices":[5,5,24,7,28,9,24,27,40,30,1,0,0,1,19,0,0,0,0,0,0,0,0,0,0,0,0],"split_type":[0,0,0,0,0,0,0,0,0,0,0,0,0,0,0,0,0,0,0,0,0,0,0,0,0,0,0],"sum_hessian":[1.5814656E2,8.0950676E1,7.7195885E1,6.6298996E1,1.4651683E1,8.029773E0,6.916611E1,4.0953026E1,2.534597E1,1.0167393E1,4.4842896E0,1.3429534E0,6.6868196E0,1.2369701E1,5.6796406E1,2.0274014E1,2.0679012E1,1.8718925E1,6.627046E0,1.0200505E0,9.147343E0,2.1997867E0,2.2845032E0,9.273526E0,3.0961757E0,8.725485E0,4.8070923E1],"tree_param":{"num_deleted":"0","num_feature":"46","num_nodes":"27","size_leaf_vector":"1"}},{"base_weights":[-7.491598E-2,-1.1853971E-1,8.2187665E-1,-4.8536873E-1,-4.439928E-3,-1.1035135E-2,5.4401267E-2,7.763762E-1,-6.527406E-1,2.4153003E-1,-2.9233164E-1,5.1724453E-2,-4.1270363E-3,-3.649271E-2,3.5976782E-2,4.0161844E-2,-2.2318373E-3,3.1048397E-2,-2.2720234E-2],"categories":[],"categories_nodes":[],"categories_segments":[],"categories_sizes":[],"default_left":[0,0,0,0,0,0,0,0,0,0,0,0,0,0,0,0,0,0,0],"id":42,"left_children":[1,3,5,7,9,-1,-1,11,13,15,17,-1,-1,-1,-1,-1,-1,-1,-1],"loss_changes":[6.292225E0,6.3546524E0,2.3133154E0,8.114193E0,8.345301E0,0E0,0E0,1.1219633E0,3.9482183E0,1.02529545E1,8.318401E0,0E0,0E0,0E0,0E0,0E0,0E0,0E0,0E0],"parents":[2147483647,0,0,1,1,2,2,3,3,4,4,7,7,8,8,9,9,10,10],"right_children":[2,4,6,8,10,-1,-1,12,14,16,18,-1,-1,-1,-1,-1,-1,-1,-1],"split_conditions":[1.3962E4,6.2564835E-3,4E0,-1.45749E3,6.1047142E1,-1.1035135E-2,5.4401267E-2,6.765E1,5.69306E0,2.1028956E-2,4.9033E0,5.1724453E-2,-4.1270363E-3,-3.649271E-2,3.5976782E-2,4.0161844E-2,-2.2318373E-3,3.1048397E-2,-2.2720234E-2],"split_indices":[32,23,39,38,6,0,0,2,19,27,19,0,0,0,0,0,0,0,0],"split_type":[0,0,0,0,0,0,0,0,0,0,0,0,0,0,0,0,0,0,0],"sum_hessian":[1.5734796E2,1.5087651E2,6.4714446E0,3.5023293E1,1.1585322E2,1.3507868E0,5.120658E0,3.6756334E0,3.1347658E1,6.256217E1,5.3291054E1,2.6691248E0,1.0065087E0,3.0123068E1,1.2245893E0,2.0505585E1,4.2056583E1,7.6049433E0,4.5686108E1],"tree_param":{"num_deleted":"0","num_feature":"46","num_nodes":"19","size_leaf_vector":"1"}},{"base_weights":[3.214628E-2,-1.7454046E-1,2.0611481E-1,-5.945419E-1,4.258378E-2,3.178962E-1,-6.552385E-1,-7.5075483E-1,4.5123422E-1,-4.4594276E-1,2.8476056E-1,1.8668461E-1,9.820019E-1,4.425088E-2,-9.8596764E-1,-1.5403791E-2,-5.456775E-2,4.877087E-2,-1.436096E-2,3.4833413E-2,-4.0199768E-2,-4.432055E-2,2.1935673E-2,3.5218276E-2,1.0251405E-3,1.873572E-2,7.394305E-2,-5.6544166E-2,-6.0475366E-3],"categories":[],"categories_nodes":[],"categories_segments":[],"categories_sizes":[],"default_left":[0,0,0,0,0,0,0,0,0,0,0,0,0,0,0,0,0,0,0,0,0,0,0,0,0,0,0,0,0],"id":43,"left_children":[1,3,5,7,9,11,13,15,17,19,21,23,25,-1,27,-1,-1,-1,-1,-1,-1,-1,-1,-1,-1,-1,-1,-1,-1],"loss_changes":[5.6294556E0,6.5580053E0,8.385064E0,4.337837E0,5.8243947E0,6.4254584E0,6.0082793E0,2.9316425E0,1.7534058E0,7.249254E0,6.3040524E0,5.539999E0,3.1504955E0,0E0,9.629011E-1,0E0,0E0,0E0,0E0,0E0,0E0,0E0,0E0,0E0,0E0,0E0,0E0,0E0,0E0],"parents":[2147483647,0,0,1,1,2,2,3,3,4,4,5,5,6,6,7,7,8,8,9,9,10,10,11,11,12,12,14,14],"right_children":[2,4,6,8,10,12,14,16,18,20,22,24,26,-1,28,-1,-1,-1,-1,-1,-1,-1,-1,-1,-1,-1,-1,-1,-1],"split_conditions":[8.188533E-3,1.463545E-2,7.561E1,8.963E1,5.7068476E-3,7.008E1,4.8242E0,5.842433E1,1.63E2,-7.818573E2,1.4625237E-2,9.725623E-1,6.759071E1,4.425088E-2,1.01663E5,-1.5403791E-2,-5.456775E-2,4.877087E-2,-1.436096E-2,3.4833413E-2,-4.0199768E-2,-4.432055E-2,2.1935673E-2,3.5218276E-2,1.0251405E-3,1.873572E-2,7.394305E-2,-5.6544166E-2,-6.0475366E-3],"split_indices":[23,16,4,24,23,5,21,8,45,29,17,11,7,0,31,0,0,0,0,0,0,0,0,0,0,0,0,0,0],"split_type":[0,0,0,0,0,0,0,0,0,0,0,0,0,0,0,0,0,0,0,0,0,0,0,0,0,0,0,0,0],"sum_hessian":[1.5456032E2,7.0636246E1,8.392407E1,2.347955E1,4.7156693E1,7.48424E1,9.081673E0,2.0673544E1,2.806006E0,1.53502655E1,3.1806427E1,6.3564636E1,1.12777605E1,1.3090887E0,7.7725844E0,9.817812E0,1.0855731E1,1.4534194E0,1.3525865E0,3.4368708E0,1.1913395E1,3.1425228E0,2.8663904E1,1.4659525E1,4.890511E1,5.864286E0,5.413475E0,6.3940415E0,1.3785429E0],"tree_param":{"num_deleted":"0","num_feature":"46","num_nodes":"29","size_leaf_vector":"1"}},{"base_weights":[5.1109586E-3,5.2555136E-2,-7.8904915E-1,-2.5301432E-2,6.02793E-1,-2.0706755E-1,-5.868729E-2,1.9655576E-1,-2.7035773E-1,-2.278604E-1,9.704647E-1,-4.0091705E-2,3.630699E-2,1.5729101E-2,-2.4449755E-2,-2.4266427E-3,-3.4157235E-2,-3.181536E-2,3.863694E-2,-1.1485528E-2,5.63775E-2],"categories":[],"categories_nodes":[],"categories_segments":[],"categories_sizes":[],"default_left":[0,0,0,0,0,0,0,0,0,0,0,0,0,0,0,0,0,0,0,0,0],"id":44,"left_children":[1,3,5,7,9,11,-1,13,15,17,19,-1,-1,-1,-1,-1,-1,-1,-1,-1,-1],"loss_changes":[5.6950197E0,6.1210494E0,1.664731E0,6.8936276E0,5.6291256E0,3.1383545E0,0E0,5.5438066E0,5.4795947E0,3.04311E0,2.6089535E0,0E0,0E0,0E0,0E0,0E0,0E0,0E0,0E0,0E0,0E0],"parents":[2147483647,0,0,1,1,2,2,3,3,4,4,5,5,7,7,8,8,9,9,10,10],"right_children":[2,4,6,8,10,12,-1,14,16,18,20,-1,-1,-1,-1,-1,-1,-1,-1,-1,-1],"split_conditions":[1.0479E2,8.911E1,2.2173485E-2,7.1287914E-3,9.8539174E-1,9.2568E4,-5.868729E-2,8.228E1,6.0381428E1,5.412188E0,-8.574847E2,-4.0091705E-2,3.630699E-2,1.5729101E-2,-2.4449755E-2,-2.4266427E-3,-3.4157235E-2,-3.181536E-2,3.863694E-2,-1.1485528E-2,5.63775E-2],"split_indices":[25,25,26,13,10,31,0,24,6,19,29,0,0,0,0,0,0,0,0,0,0],"split_type":[0,0,0,0,0,0,0,0,0,0,0,0,0,0,0,0,0,0,0,0,0],"sum_hessian":[1.4904805E2,1.4152687E2,7.521179E0,1.24819405E2,1.6707457E1,3.6052701E0,3.9159093E0,6.561447E1,5.9204933E1,5.242876E0,1.146458E1,2.2878911E0,1.317379E0,5.6438923E1,9.1755495E0,3.9237125E1,1.996781E1,3.9816372E0,1.2612392E0,1.2733673E0,1.0191213E1],"tree_param":{"num_deleted":"0","num_feature":"46","num_nodes":"21","size_leaf_vector":"1"}},{"base_weights":[-2.9625535E-2,2.7753994E-1,-1.3465069E-1,5.543563E-1,-4.3645337E-1,5.809034E-2,-4.7304913E-1,-9.304621E-3,8.6464125E-1,4.951346E-1,-9.3245596E-1,6.648102E-1,-1.841411E-1,-4.0289693E-2,-8.5180944E-1,3.0983364E-2,-5.7463862E-2,5.9012044E-2,8.320695E-3,5.81382E-2,-3.935324E-2,-6.062128E-2,1.9085035E-2,3.8905557E-2,-2.9214138E-2,-1.7242175E-2,3.0473426E-2,-2.0187695E-2,3.2156E-2,-6.471041E-2,-1.8104557E-2],"categories":[],"categories_nodes":[],"categories_segments":[],"categories_sizes":[],"default_left":[0,0,0,0,0,0,0,0,0,0,0,0,0,0,0,0,0,0,0,0,0,0,0,0,0,0,0,0,0,0,0],"id":45,"left_children":[1,3,5,7,9,11,13,15,17,19,21,23,25,27,29,-1,-1,-1,-1,-1,-1,-1,-1,-1,-1,-1,-1,-1,-1,-1,-1],"loss_changes":[5.07807E0,8.175274E0,7.665944E0,5.143935E0,5.9019947E0,1.1219153E1,6.9495544E0,8.897026E0,3.9794712E0,4.9760666E0,3.417182E0,3.534298E0,7.191987E0,5.4600077E0,4.443205E0,0E0,0E0,0E0,0E0,0E0,0E0,0E0,0E0,0E0,0E0,0E0,0E0,0E0,0E0,0E0,0E0],"parents":[2147483647,0,0,1,1,2,2,3,3,4,4,5,5,6,6,7,7,8,8,9,9,10,10,11,11,12,12,13,13,14,14],"right_children":[2,4,6,8,10,12,14,16,18,20,22,24,26,28,30,-1,-1,-1,-1,-1,-1,-1,-1,-1,-1,-1,-1,-1,-1,-1,-1],"split_conditions":[-1.45546E3,7.475E1,5.9505665E1,5.4773E4,-1.86696E3,1.906719E-2,9.8307663E-1,6.886E1,7.452E1,2.4392309E-2,4.2250864E-2,-5.322862E2,5.6241E0,6.401143E1,1.6052518E-2,3.0983364E-2,-5.7463862E-2,5.9012044E-2,8.320695E-3,5.81382E-2,-3.935324E-2,-6.062128E-2,1.9085035E-2,3.8905557E-2,-2.9214138E-2,-1.7242175E-2,3.0473426E-2,-2.0187695E-2,3.2156E-2,-6.471041E-2,-1.8104557E-2],"split_indices":[38,4,8,31,38,27,10,0,0,17,16,30,19,6,16,0,0,0,0,0,0,0,0,0,0,0,0,0,0,0,0],"split_type":[0,0,0,0,0,0,0,0,0,0,0,0,0,0,0,0,0,0,0,0,0,0,0,0,0,0,0,0,0,0,0],"sum_hessian":[1.5525182E2,3.913925E1,1.16112564E2,2.8365488E1,1.0773763E1,7.4505135E1,4.160743E1,1.0415249E1,1.795024E1,3.743848E0,7.0299144E0,2.07608E1,5.3744335E1,1.9935795E1,2.1671633E1,7.006101E0,3.4091477E0,1.1886972E1,6.0632663E0,2.5231934E0,1.2206547E0,5.8590965E0,1.1708179E0,1.9379969E1,1.3808308E0,4.5164253E1,8.580083E0,1.328142E1,6.6543756E0,1.0522826E1,1.1148807E1],"tree_param":{"num_deleted":"0","num_feature":"46","num_nodes":"31","size_leaf_vector":"1"}},{"base_weights":[2.3525117E-2,-1.8496972E-2,7.0449084E-1,3.747444E-1,-8.480776E-2,-3.5166327E-2,1.0052773E0,7.166583E-1,-5.405944E-1,2.3639938E-1,-2.0996816E-1,6.8333657E-3,5.573755E-2,5.277581E-2,-9.769048E-3,-5.3689815E-2,1.4013548E-2,5.252419E-2,8.6468404E-5,-5.0820995E-2,-5.923684E-3],"categories":[],"categories_nodes":[],"categories_segments":[],"categories_sizes":[],"default_left":[0,0,0,0,0,0,0,0,0,0,0,0,0,0,0,0,0,0,0,0,0],"id":46,"left_children":[1,3,5,7,9,-1,11,13,15,17,19,-1,-1,-1,-1,-1,-1,-1,-1,-1,-1],"loss_changes":[4.4925404E0,3.901915E0,4.5706935E0,7.147582E0,5.188165E0,0E0,6.016722E-1,5.199256E0,3.1215277E0,6.934855E0,6.705263E0,0E0,0E0,0E0,0E0,0E0,0E0,0E0,0E0,0E0,0E0],"parents":[2147483647,0,0,1,1,2,2,3,3,4,4,6,6,7,7,8,8,9,9,10,10],"right_children":[2,4,6,8,10,-1,12,14,16,18,20,-1,-1,-1,-1,-1,-1,-1,-1,-1,-1],"split_conditions":[1.3962E4,-7.848315E-2,6E0,1.6127767E-2,4.9612858E1,-3.5166327E-2,4.8135E0,4.54E2,3.6865175E-2,-9.8326587E2,5.2331E1,6.8333657E-3,5.573755E-2,5.277581E-2,-9.769048E-3,-5.3689815E-2,1.4013548E-2,5.252419E-2,8.6468404E-5,-5.0820995E-2,-5.923684E-3],"split_indices":[32,15,40,22,7,0,19,32,22,38,8,0,0,0,0,0,0,0,0,0,0],"split_type":[0,0,0,0,0,0,0,0,0,0,0,0,0,0,0,0,0,0,0,0,0],"sum_hessian":[1.5554083E2,1.4741664E2,8.124178E0,2.0600231E1,1.26816414E2,1.1946026E0,6.9295754E0,1.5155959E1,5.444272E0,3.5309814E1,9.15066E1,1.0272608E0,5.9023147E0,1.0935633E1,4.2203264E0,3.1136441E0,2.3306277E0,7.12306E0,2.8186754E1,8.293842E0,8.321276E1],"tree_param":{"num_deleted":"0","num_feature":"46","num_nodes":"21","size_leaf_vector":"1"}},{"base_weights":[-5.831624E-3,-4.367322E-2,7.038827E-1,6.5737925E-2,-3.3607537E-1,-1.8898098E-2,9.36928E-1,-8.8302955E-2,4.7806218E-1,-6.2902393E-3,-9.288441E-1,7.0137093E-3,5.2793663E-2,-2.2058396E-2,4.4044065E-3,-2.717996E-2,3.253674E-2,-4.20227E-2,2.6903186E-2,-6.826082E-3,-6.136347E-2],"categories":[],"categories_nodes":[],"categories_segments":[],"categories_sizes":[],"default_left":[0,0,0,0,0,0,0,0,0,0,0,0,0,0,0,0,0,0,0,0,0],"id":47,"left_children":[1,3,5,7,9,-1,11,13,15,17,19,-1,-1,-1,-1,-1,-1,-1,-1,-1,-1],"loss_changes":[4.182916E0,4.7479625E0,2.3419728E0,6.92298E0,7.889229E0,0E0,4.9383688E-1,5.0003586E0,5.579191E0,1.2692669E1,3.2444725E0,0E0,0E0,0E0,0E0,0E0,0E0,0E0,0E0,0E0,0E0],"parents":[2147483647,0,0,1,1,2,2,3,3,4,4,6,6,7,7,8,8,9,9,10,10],"right_children":[2,4,6,8,10,-1,12,14,16,18,20,-1,-1,-1,-1,-1,-1,-1,-1,-1,-1],"split_conditions":[1.3962E4,-6.3469495E2,9E0,5.3274E0,6.1894E4,-1.8898098E-2,4.8178E0,1.5077353E-2,3.3497143E1,-2.613E3,9.795482E-1,7.0137093E-3,5.2793663E-2,-2.2058396E-2,4.4044065E-3,-2.717996E-2,3.253674E-2,-4.20227E-2,2.6903186E-2,-6.826082E-3,-6.136347E-2],"split_indices":[32,29,40,21,31,0,21,16,6,32,10,0,0,0,0,0,0,0,0,0,0],"split_type":[0,0,0,0,0,0,0,0,0,0,0,0,0,0,0,0,0,0,0,0,0],"sum_hessian":[1.5360469E2,1.4672011E2,6.884576E0,1.0733328E2,3.938683E1,1.1099795E0,5.774596E0,7.8712715E1,2.8620567E1,2.5956577E1,1.3430252E1,1.0332911E0,4.741305E0,2.5733189E1,5.2979527E1,3.8272893E0,2.4793278E1,1.0035028E1,1.5921548E1,4.073237E0,9.357015E0],"tree_param":{"num_deleted":"0","num_feature":"46","num_nodes":"21","size_leaf_vector":"1"}},{"base_weights":[2.316024E-2,-1.4832878E-2,9.142889E-1,2.9455192E-2,-6.0372043E-2,-1.9132535E-3,5.638448E-2,4.0964592E-1,-7.060321E-2,3.9179433E-2,-2.0627744E-2,5.451094E-3,-2.489501E-2],"categories":[],"categories_nodes":[],"categories_segments":[],"categories_sizes":[],"default_left":[0,0,0,0,0,0,0,0,0,0,0,0,0],"id":48,"left_children":[1,3,5,7,-1,-1,-1,9,11,-1,-1,-1,-1],"loss_changes":[5.1685414E0,7.8007274E0,1.3120036E0,5.4585013E0,0E0,0E0,0E0,9.511312E0,8.792223E0,0E0,0E0,0E0,0E0],"parents":[2147483647,0,0,1,1,2,2,3,3,7,7,8,8],"right_children":[2,4,6,8,-1,-1,-1,10,12,-1,-1,-1,-1],"split_conditions":[3.331231E-2,8.012E1,4.9595E0,-1.47288E3,-6.0372043E-2,-1.9132535E-3,5.638448E-2,2.4392309E-2,6.132E1,3.9179433E-2,-2.0627744E-2,5.451094E-3,-2.489501E-2],"split_indices":[18,5,19,38,0,0,0,17,5,0,0,0,0],"split_type":[0,0,0,0,0,0,0,0,0,0,0,0,0],"sum_hessian":[1.5125851E2,1.4601648E2,5.2420325E0,1.4172862E2,4.2878585E0,1.1096393E0,4.1323934E0,2.8884075E1,1.1284455E2,1.988651E1,8.997563E0,7.9971405E1,3.2873142E1],"tree_param":{"num_deleted":"0","num_feature":"46","num_nodes":"13","size_leaf_vector":"1"}},{"base_weights":[4.2432304E-2,7.4665016E-1,-2.7564385E-3,1.0394509E0,-1.3115195E-2,-9.048674E-2,4.010539E-1,6.2985204E-2,1.28033105E-2,-1.6455509E-1,5.30368E-1,-5.2141124E-1,6.4760196E-1,1.0636379E-3,-2.1957157E-2,4.0089544E-2,-2.179338E-2,5.3247135E-2,-6.5276936E-2,-2.3505764E-2,4.3974012E-2],"categories":[],"categories_nodes":[],"categories_segments":[],"categories_sizes":[],"default_left":[0,0,0,0,0,0,0,0,0,0,0,0,0,0,0,0,0,0,0,0,0],"id":49,"left_children":[1,3,5,7,-1,9,11,-1,-1,13,15,17,19,-1,-1,-1,-1,-1,-1,-1,-1],"loss_changes":[4.8956347E0,3.0130744E0,5.190829E0,9.5274687E-1,0E0,5.6215105E0,6.285683E0,0E0,0E0,5.5346003E0,3.7756119E0,8.940448E0,5.877695E0,0E0,0E0,0E0,0E0,0E0,0E0,0E0,0E0],"parents":[2147483647,0,0,1,1,2,2,3,3,5,5,6,6,9,9,10,10,11,11,12,12],"right_children":[2,4,6,8,-1,10,12,-1,-1,14,16,18,20,-1,-1,-1,-1,-1,-1,-1,-1],"split_conditions":[2.7E1,1.6358323E-2,1.1567869E-2,-1.18177E3,-1.3115195E-2,2.93585E-2,2.624E1,6.2985204E-2,1.28033105E-2,6.127E1,1.0241E2,1.0003717E0,-7.884262E2,1.0636379E-3,-2.1957157E-2,4.0089544E-2,-2.179338E-2,5.3247135E-2,-6.5276936E-2,-2.3505764E-2,4.3974012E-2],"split_indices":[45,18,23,38,0,18,5,0,0,5,24,9,30,0,0,0,0,0,0,0,0],"split_type":[0,0,0,0,0,0,0,0,0,0,0,0,0,0,0,0,0,0,0,0,0],"sum_hessian":[1.5277618E2,8.276284E0,1.444999E2,6.3912916E0,1.884993E0,1.19346954E2,2.5152948E1,4.514099E0,1.8771927E0,1.0728298E2,1.2063971E1,5.069701E0,2.0083248E1,6.453283E1,4.2750153E1,9.551167E0,2.5128043E0,1.558534E0,3.511167E0,3.274042E0,1.6809206E1],"tree_param":{"num_deleted":"0","num_feature":"46","num_nodes":"21","size_leaf_vector":"1"}},{"base_weights":[2.009873E-2,-8.529255E-2,3.2298312E-1,7.4438566E-1,-1.4159125E-1,7.898818E-1,-3.7640326E-2,-1.3050372E-2,5.2102912E-2,2.3791395E-2,-4.1967258E-1,9.1679054E-1,-2.537652E-2,6.7435884E-1,-4.8307365E-1,3.56608E-2,-1.1806824E-2,-4.7372635E-2,5.526413E-4,-1.0208892E-2,5.1526975E-2,-3.2958653E-2,6.1770476E-2,-3.7454564E-2,2.8169308E-2],"categories":[],"categories_nodes":[],"categories_segments":[],"categories_sizes":[],"default_left":[0,0,0,0,0,0,0,0,0,0,0,0,0,0,0,0,0,0,0,0,0,0,0,0,0],"id":50,"left_children":[1,3,5,7,9,11,13,-1,-1,15,17,19,-1,21,23,-1,-1,-1,-1,-1,-1,-1,-1,-1,-1],"loss_changes":[4.8450503E0,5.3719926E0,6.6243696E0,2.4640489E0,4.9045353E0,3.283123E0,7.636898E0,0E0,0E0,1.2297259E1,9.045364E0,2.2435684E0,0E0,7.7642727E0,4.5318756E0,0E0,0E0,0E0,0E0,0E0,0E0,0E0,0E0,0E0,0E0],"parents":[2147483647,0,0,1,1,2,2,3,3,4,4,5,5,6,6,9,9,10,10,11,11,13,13,14,14],"right_children":[2,4,6,8,10,12,14,-1,-1,16,18,20,-1,22,24,-1,-1,-1,-1,-1,-1,-1,-1,-1,-1],"split_conditions":[2.33606E-2,2.7E1,6.631E1,2.9788E4,5.914E1,7.654E1,2.4392309E-2,-1.3050372E-2,5.2102912E-2,2.060486E-2,2.0474542E-2,7.7E1,-2.537652E-2,6.52E1,2.1231262E-1,3.56608E-2,-1.1806824E-2,-4.7372635E-2,5.526413E-4,-1.0208892E-2,5.1526975E-2,-3.2958653E-2,6.1770476E-2,-3.7454564E-2,2.8169308E-2],"split_indices":[18,45,0,31,3,4,17,0,0,27,27,45,0,4,15,0,0,0,0,0,0,0,0,0,0],"split_type":[0,0,0,0,0,0,0,0,0,0,0,0,0,0,0,0,0,0,0,0,0,0,0,0,0],"sum_hessian":[1.4991779E2,1.11751335E2,3.816646E1,6.324509E0,1.0542683E2,1.611372E1,2.2052738E1,1.4729099E0,4.851599E0,6.668303E1,3.8743797E1,1.4945198E1,1.1685212E0,8.289122E0,1.3763616E1,1.7780005E1,4.8903023E1,1.6871273E1,2.1872522E1,1.3035951E0,1.3641603E1,2.4029012E0,5.8862205E0,1.1200527E1,2.5630887E0],"tree_param":{"num_deleted":"0","num_feature":"46","num_nodes":"25","size_leaf_vector":"1"}},{"base_weights":[-3.143686E-2,-3.1220248E-1,7.665342E-2,1.2870854E-1,-6.071568E-1,2.7512884E-1,-1.7824855E-1,7.193361E-1,-3.528631E-1,-7.129594E-1,4.3832056E-2,4.223437E-1,-2.6921228E-1,-5.8244264E-1,1.0949884E-1,4.7667738E-2,-2.3066435E-2,-5.6212284E-2,2.4009408E-2,-4.117095E-2,2.8882101E-2,3.3834822E-2,5.878752E-4,3.944149E-2,-2.607115E-2,-3.6209643E-2,2.73201E-2,2.0680537E-2,-1.9118173E-2],"categories":[],"categories_nodes":[],"categories_segments":[],"categories_sizes":[],"default_left":[0,0,0,0,0,0,0,0,0,0,0,0,0,0,0,0,0,0,0,0,0,0,0,0,0,0,0,0,0],"id":51,"left_children":[1,3,5,7,9,11,13,15,17,19,-1,21,23,25,27,-1,-1,-1,-1,-1,-1,-1,-1,-1,-1,-1,-1,-1,-1],"loss_changes":[4.6069026E0,5.562872E0,5.6060095E0,5.2966824E0,4.619567E0,5.09394E0,5.7268586E0,2.7309513E0,7.246951E0,3.9402065E0,0E0,5.1414165E0,4.1046357E0,3.6610703E0,4.5385647E0,0E0,0E0,0E0,0E0,0E0,0E0,0E0,0E0,0E0,0E0,0E0,0E0,0E0,0E0],"parents":[2147483647,0,0,1,1,2,2,3,3,4,4,5,5,6,6,7,7,8,8,9,9,11,11,12,12,13,13,14,14],"right_children":[2,4,6,8,10,12,14,16,18,20,-1,22,24,26,28,-1,-1,-1,-1,-1,-1,-1,-1,-1,-1,-1,-1,-1,-1],"split_conditions":[6.7146197E-3,-7.785444E2,1.0071427E0,-1.0583E3,3.0150663E-2,6.935571E1,1.0257299E0,7.104E3,2.1E1,5.663E0,4.3832056E-2,6.2099E4,4.8261E0,5.6118E0,1.0980117E0,4.7667738E-2,-2.3066435E-2,-5.6212284E-2,2.4009408E-2,-4.117095E-2,2.8882101E-2,3.3834822E-2,5.878752E-4,3.944149E-2,-2.607115E-2,-3.6209643E-2,2.73201E-2,2.0680537E-2,-1.9118173E-2],"split_indices":[23,28,9,38,18,7,10,32,40,21,0,31,19,21,11,0,0,0,0,0,0,0,0,0,0,0,0,0,0],"split_type":[0,0,0,0,0,0,0,0,0,0,0,0,0,0,0,0,0,0,0,0,0,0,0,0,0,0,0,0,0],"sum_hessian":[1.5001378E2,4.1174427E1,1.0883935E2,1.6729721E1,2.4444706E1,6.1148037E1,4.769131E1,7.2922964E0,9.437424E0,2.330261E1,1.1420949E0,4.830757E1,1.2840467E1,1.9406778E1,2.8284533E1,6.246675E0,1.0456215E0,4.718589E0,4.718835E0,2.1798882E1,1.5037287E0,2.9428736E1,1.8878834E1,2.0621092E0,1.0778358E1,1.7560192E1,1.8465865E0,1.7576382E1,1.070815E1],"tree_param":{"num_deleted":"0","num_feature":"46","num_nodes":"29","size_leaf_vector":"1"}},{"base_weights":[-1.070908E-2,7.456304E-1,-5.4278597E-2,-9.093127E-3,5.1762283E-2,1.1523941E-1,-2.2535668E-1,-1.2915555E-2,5.718474E-1,-1.0516802E0,-1.1010507E-1,7.4874274E-3,-2.7687361E-2,4.378147E-2,-1.991797E-2,-9.55873E-3,-6.6585064E-2,8.872269E-3,-1.8244205E-2],"categories":[],"categories_nodes":[],"categories_segments":[],"categories_sizes":[],"default_left":[0,0,0,0,0,0,0,0,0,0,0,0,0,0,0,0,0,0,0],"id":52,"left_children":[1,3,5,-1,-1,7,9,11,13,15,17,-1,-1,-1,-1,-1,-1,-1,-1],"loss_changes":[5.0308294E0,2.422176E0,4.2055883E0,0E0,0E0,4.2821426E0,6.747669E0,5.187178E0,5.0739408E0,1.8428402E0,4.7801824E0,0E0,0E0,0E0,0E0,0E0,0E0,0E0,0E0],"parents":[2147483647,0,0,1,1,2,2,5,5,6,6,7,7,8,8,9,9,10,10],"right_children":[2,4,6,-1,-1,8,10,12,14,16,18,-1,-1,-1,-1,-1,-1,-1,-1],"split_conditions":[2.7E1,-1.7665828E-2,3.2459863E-3,-9.093127E-3,5.1762283E-2,8.7203E4,1.24227675E-2,6.2799E4,5.0601218E-2,1.016491E0,5.777E1,7.4874274E-3,-2.7687361E-2,4.378147E-2,-1.991797E-2,-9.55873E-3,-6.6585064E-2,8.872269E-3,-1.8244205E-2],"split_indices":[45,26,13,0,0,31,17,31,26,11,4,0,0,0,0,0,0,0,0],"split_type":[0,0,0,0,0,0,0,0,0,0,0,0,0,0,0,0,0,0,0],"sum_hessian":[1.5043706E2,7.3163433E0,1.4312071E2,1.8294817E0,5.4868617E0,7.205207E1,7.1068634E1,5.7020103E1,1.503197E1,7.7044787E0,6.3364155E1,4.439168E1,1.2628422E1,1.1521841E1,3.5101297E0,2.304735E0,5.399744E0,2.9910217E1,3.3453938E1],"tree_param":{"num_deleted":"0","num_feature":"46","num_nodes":"19","size_leaf_vector":"1"}},{"base_weights":[-4.0681725E-3,1.7795512E-1,-1.7413619E-1,4.2485416E-1,-6.7329854E-2,-3.1534806E-1,1.9311838E-1,-4.0747996E-2,5.095237E-1,-6.0683984E-1,2.8585112E-1,-4.3552157E-1,4.0658322E-1,6.228747E-1,-3.5028315E-1,-4.46869E-2,2.9192036E-2,1.1740669E-2,-4.4259973E-2,-4.067389E-2,2.2649083E-2,3.5286333E-2,-2.51643E-2,-2.2865677E-2,3.2995593E-2,5.3391337E-2,-3.4634438E-3,-6.0392674E-2,4.810339E-3],"categories":[],"categories_nodes":[],"categories_segments":[],"categories_sizes":[],"default_left":[0,0,0,0,0,0,0,0,0,0,0,0,0,0,0,0,0,0,0,0,0,0,0,0,0,0,0,0,0],"id":53,"left_children":[1,3,5,7,9,11,13,-1,15,17,19,21,23,25,27,-1,-1,-1,-1,-1,-1,-1,-1,-1,-1,-1,-1,-1,-1],"loss_changes":[4.6134143E0,4.388713E0,4.055881E0,4.196069E0,7.2196417E0,5.037123E0,5.3590856E0,0E0,4.1018944E0,3.7104921E0,4.599573E0,4.1065693E0,2.1645145E0,3.9704938E0,4.083624E0,0E0,0E0,0E0,0E0,0E0,0E0,0E0,0E0,0E0,0E0,0E0,0E0,0E0,0E0],"parents":[2147483647,0,0,1,1,2,2,3,3,4,4,5,5,6,6,8,8,9,9,10,10,11,11,12,12,13,13,14,14],"right_children":[2,4,6,8,10,12,14,-1,16,18,20,22,24,26,28,-1,-1,-1,-1,-1,-1,-1,-1,-1,-1,-1,-1,-1,-1],"split_conditions":[2.175337E-3,6.079E1,5.3898E0,-8.84858E2,6.576E1,5.253942E-2,3.1831834E-2,-4.0747996E-2,4.7378E0,1.7852046E-2,7.102E1,9.6928984E-1,1.6587324E-2,4.1E1,1.4625237E-2,-4.46869E-2,2.9192036E-2,1.1740669E-2,-4.4259973E-2,-4.067389E-2,2.2649083E-2,3.5286333E-2,-2.51643E-2,-2.2865677E-2,3.2995593E-2,5.3391337E-2,-3.4634438E-3,-6.0392674E-2,4.810339E-3],"split_indices":[13,5,21,30,5,13,13,0,21,27,25,10,14,40,17,0,0,0,0,0,0,0,0,0,0,0,0,0,0],"split_type":[0,0,0,0,0,0,0,0,0,0,0,0,0,0,0,0,0,0,0,0,0,0,0,0,0,0,0,0,0],"sum_hessian":[1.4702867E2,7.099575E1,7.603292E1,3.5016624E1,3.597913E1,5.501906E1,