{"learner":{"attributes":{"scikit_learn":"{\"_estimator_type\": \"classifier\"}"},"feature_names":["price_to_ma7_ratio","price_to_ma14_ratio","price_to_ma30_ratio","return_1d","return_3d","return_7d","return_14d","volatility_5d","volatility_10d","volatility_20d","usd_brl_lag_1","usd_brl_return_7d","usd_brl_volatility_14d","wti_lag_1","wti_return_7d","wti_volatility_14d","crush_spread","crush_spread_ma7","crush_spread_lag_1","cftc_noncomm_net","cftc_noncomm_net_chg_1w","cftc_long_short_ratio","wasde_soyoil_stock_to_use","wasde_soy_prod_brazil","wasde_world_production","month","week_of_year","quarter","is_planting_season","is_flowering_season","is_harvest_season","days_to_next_harvest","dxy_close","dxy_lag_1","dxy_return_7d","dxy_volatility_14d","sunflower_close","sunflower_return_30d","market_avg_price_30d","price_vs_market_avg"],"feature_types":["float","float","float","float","float","float","float","float","float","float","float","float","float","float","float","float","float","float","float","float","float","float","float","float","float","int","int","int","int","int","int","int","float","float","float","float","float","float","float","float"],"gradient_booster":{"model":{"gbtree_model_param":{"num_parallel_tree":"1","num_trees":"157"},"iteration_indptr":[0,1,2,3,4,5,6,7,8,9,10,11,12,13,14,15,16,17,18,19,20,21,22,23,24,25,26,27,28,29,30,31,32,33,34,35,36,37,38,39,40,41,42,43,44,45,46,47,48,49,50,51,52,53,54,55,56,57,58,59,60,61,62,63,64,65,66,67,68,69,70,71,72,73,74,75,76,77,78,79,80,81,82,83,84,85,86,87,88,89,90,91,92,93,94,95,96,97,98,99,100,101,102,103,104,105,106,107,108,109,110,111,112,113,114,115,116,117,118,119,120,121,122,123,124,125,126,127,128,129,130,131,132,133,134,135,136,137,138,139,140,141,142,143,144,145,146,147,148,149,150,151,152,153,154,155,156,157],"tree_info":[0,0,0,0,0,0,0,0,0,0,0,0,0,0,0,0,0,0,0,0,0,0,0,0,0,0,0,0,0,0,0,0,0,0,0,0,0,0,0,0,0,0,0,0,0,0,0,0,0,0,0,0,0,0,0,0,0,0,0,0,0,0,0,0,0,0,0,0,0,0,0,0,0,0,0,0,0,0,0,0,0,0,0,0,0,0,0,0,0,0,0,0,0,0,0,0,0,0,0,0,0,0,0,0,0,0,0,0,0,0,0,0,0,0,0,0,0,0,0,0,0,0,0,0,0,0,0,0,0,0,0,0,0,0,0,0,0,0,0,0,0,0,0,0,0,0,0,0,0,0,0,0,0,0,0,0,0],"trees":[{"base_weights":[1.1813203E-2,-4.5644543E-1,6.360254E-1,6.8688554E-1,-7.1135974E-1,9.8887616E-1,1.7330756E-2,-1.9540798E-2,2.2925688E-2,1.9001432E-2,-1.6942106E-2,2.6336236E-2,6.12034E-3,7.843879E-3,-2.996243E-2],"categories":[],"categories_nodes":[],"categories_segments":[],"categories_sizes":[],"default_left":[0,0,0,0,0,0,0,0,0,0,0,0,0,0,0],"id":0,"left_children":[1,3,5,7,9,11,13,-1,-1,-1,-1,-1,-1,-1,-1],"loss_changes":[6.228434E1,3.597828E1,1.9920174E1,1.8771976E1,2.4189869E1,1.28557625E1,2.0222769E1,0E0,0E0,0E0,0E0,0E0,0E0,0E0,0E0],"parents":[2147483647,0,0,1,1,2,2,3,3,4,4,5,5,6,6],"right_children":[2,4,6,8,10,12,14,-1,-1,-1,-1,-1,-1,-1,-1],"split_conditions":[5.2568E0,5.1155E1,5.827E1,2.7318333E1,4.775E0,6.1496086E-2,5.5453E0,-1.9540798E-2,2.2925688E-2,1.9001432E-2,-1.6942106E-2,2.6336236E-2,6.12034E-3,7.843879E-3,-2.996243E-2],"split_indices":[10,38,38,38,10,39,10,0,0,0,0,0,0,0,0],"split_type":[0,0,0,0,0,0,0,0,0,0,0,0,0,0,0],"sum_hessian":[2.1109569E2,1.2076869E2,9.0326996E1,2.1708422E1,9.906027E1,5.714056E1,3.318644E1,4.491398E0,1.7217024E1,7.2361407E0,9.182413E1,3.7677837E1,1.9462723E1,2.7197908E1,5.98853E0],"tree_param":{"num_deleted":"0","num_feature":"40","num_nodes":"15","size_leaf_vector":"1"}},{"base_weights":[-1.925498E-2,-4.8269203E-1,6.053787E-1,5.1213706E-1,-6.941956E-1,9.5418125E-1,2.6278386E-2,-2.5750678E-2,2.0123597E-2,1.9434879E-2,-1.6267909E-2,2.7367303E-2,6.009175E-3,8.138066E-3,-2.4595058E-2],"categories":[],"categories_nodes":[],"categories_segments":[],"categories_sizes":[],"default_left":[0,0,0,0,0,0,0,0,0,0,0,0,0,0,0],"id":1,"left_children":[1,3,5,7,9,11,13,-1,-1,-1,-1,-1,-1,-1,-1],"loss_changes":[6.2190014E1,2.6300758E1,1.8460651E1,2.1328917E1,2.1867584E1,1.5271851E1,1.7626675E1,0E0,0E0,0E0,0E0,0E0,0E0,0E0,0E0],"parents":[2147483647,0,0,1,1,2,2,3,3,4,4,5,5,6,6],"right_children":[2,4,6,8,10,12,14,-1,-1,-1,-1,-1,-1,-1,-1],"split_conditions":[5.2584E0,5.1292E1,5.8169334E1,2.7318333E1,4.775E0,1.9595984E-2,5.5074E0,-2.5750678E-2,2.0123597E-2,1.9434879E-2,-1.6267909E-2,2.7367303E-2,6.009175E-3,8.138066E-3,-2.4595058E-2],"split_indices":[10,38,38,38,10,4,10,0,0,0,0,0,0,0,0],"split_type":[0,0,0,0,0,0,0,0,0,0,0,0,0,0,0],"sum_hessian":[2.1282532E2,1.2230804E2,9.051727E1,2.119478E1,1.0111326E2,5.6087227E1,3.4430046E1,4.2450967E0,1.6949684E1,6.481603E0,9.463166E1,3.339823E1,2.2688992E1,2.6938751E1,7.491293E0],"tree_param":{"num_deleted":"0","num_feature":"40","num_nodes":"15","size_leaf_vector":"1"}},{"base_weights":[-2.0695774E-2,5.4034823E-1,-5.45208E-1,-2.821521E-2,1.0784068E0,-6.637612E-1,1.2434068E0,2.34532E-2,-8.042081E-3,2.7094344E-2,6.237687E-3,-1.8986529E-2,-3.3522246E-4,3.048188E-2,8.291305E-3],"categories":[],"categories_nodes":[],"categories_segments":[],"categories_sizes":[],"default_left":[0,0,0,0,0,0,0,0,0,0,0,0,0,0,0],"id":2,"left_children":[1,3,5,7,9,11,13,-1,-1,-1,-1,-1,-1,-1,-1],"loss_changes":[6.3131622E1,3.1746819E1,2.4332062E1,2.3796598E1,1.11261635E1,1.964803E1,1.089139E0,0E0,0E0,0E0,0E0,0E0,0E0,0E0,0E0],"parents":[2147483647,0,0,1,1,2,2,3,3,4,4,5,5,6,6],"right_children":[2,4,6,8,10,12,14,-1,-1,-1,-1,-1,-1,-1,-1],"split_conditions":[5.8838E1,5.3232E0,1.1059E2,1.906719E-2,3.024834E-2,1.49912E3,1.0156597E0,2.34532E-2,-8.042081E-3,2.7094344E-2,6.237687E-3,-1.8986529E-2,-3.3522246E-4,3.048188E-2,8.291305E-3],"split_indices":[38,10,33,15,4,36,0,0,0,0,0,0,0,0,0],"split_type":[0,0,0,0,0,0,0,0,0,0,0,0,0,0,0],"sum_hessian":[2.1253204E2,1.026753E2,1.0985674E2,5.0383205E1,5.2292095E1,1.0361764E2,6.239105E0,1.1459827E1,3.8923378E1,3.7584682E1,1.470741E1,7.117509E1,3.244255E1,3.9917305E0,2.247375E0],"tree_param":{"num_deleted":"0","num_feature":"40","num_nodes":"15","size_leaf_vector":"1"}},{"base_weights":[2.7639706E-2,5.366944E-1,-4.6208617E-1,7.963788E-1,-4.0550825E-1,-6.2350917E-1,8.4663564E-1,2.1064363E-2,5.527267E-3,2.3387522E-2,-1.367079E-2,-1.4753802E-2,2.5431033E-2,2.7640015E-2,-7.1523464E-3],"categories":[],"categories_nodes":[],"categories_segments":[],"categories_sizes":[],"default_left":[0,0,0,0,0,0,0,0,0,0,0,0,0,0,0],"id":3,"left_children":[1,3,5,7,9,11,13,-1,-1,-1,-1,-1,-1,-1,-1],"loss_changes":[5.4832996E1,2.6704252E1,2.4217014E1,1.1252003E1,1.1475522E1,2.3488289E1,8.83517E0,0E0,0E0,0E0,0E0,0E0,0E0,0E0,0E0],"parents":[2147483647,0,0,1,1,2,2,3,3,4,4,5,5,6,6],"right_children":[2,4,6,8,10,12,14,-1,-1,-1,-1,-1,-1,-1,-1],"split_conditions":[5.8838E1,4.4668606E-3,3.0467235E-2,2.6195193E-2,-5.352635E-2,1.1135E2,3.515803E-2,2.1064363E-2,5.527267E-3,2.3387522E-2,-1.367079E-2,-1.4753802E-2,2.5431033E-2,2.7640015E-2,-7.1523464E-3],"split_indices":[38,35,9,15,5,33,4,0,0,0,0,0,0,0,0],"split_type":[0,0,0,0,0,0,0,0,0,0,0,0,0,0,0],"sum_hessian":[2.1795547E2,1.06821724E2,1.1113374E2,8.386274E1,2.2958988E1,9.939726E1,1.1736483E1,5.499554E1,2.8867195E1,2.9913623E0,1.9967627E1,9.416194E1,5.2353187E0,7.990028E0,3.7464547E0],"tree_param":{"num_deleted":"0","num_feature":"40","num_nodes":"15","size_leaf_vector":"1"}},{"base_weights":[-8.392456E-3,6.753546E-1,-3.178388E-1,1.1920347E0,1.16468064E-1,-3.471737E-2,-2.0481229E-1,2.9997012E-2,3.7276454E-3,1.4986317E-2,-8.754388E-3,-6.0240724E-3,2.3134118E-2],"categories":[],"categories_nodes":[],"categories_segments":[],"categories_sizes":[],"default_left":[0,0,0,0,0,0,0,0,0,0,0,0,0],"id":4,"left_children":[1,3,5,7,9,-1,11,-1,-1,-1,-1,-1,-1],"loss_changes":[4.5575E1,1.9241817E1,2.3559395E1,1.0744343E1,1.214913E1,0E0,1.89124E1,0E0,0E0,0E0,0E0,0E0,0E0],"parents":[2147483647,0,0,1,1,2,2,3,3,4,4,6,6],"right_children":[2,4,6,8,10,-1,12,-1,-1,-1,-1,-1,-1],"split_conditions":[6.386E1,2.6263691E-2,9.1095E2,7.6379165E-2,2.897156E-3,-3.471737E-2,1.2762E4,2.9997012E-2,3.7276454E-3,1.4986317E-2,-8.754388E-3,-6.0240724E-3,2.3134118E-2],"split_indices":[13,15,36,39,4,0,20,0,0,0,0,0,0],"split_type":[0,0,0,0,0,0,0,0,0,0,0,0,0],"sum_hessian":[2.1338557E2,6.61155E1,1.4727007E2,3.3766304E1,3.2349194E1,9.747893E0,1.3752217E2,2.5311918E1,8.454388E0,1.4921286E1,1.7427906E1,1.2905534E2,8.466841E0],"tree_param":{"num_deleted":"0","num_feature":"40","num_nodes":"13","size_leaf_vector":"1"}},{"base_weights":[5.3759385E-3,4.1899553E-1,-5.1041114E-1,1.3950273E0,1.5684599E-1,-6.4795846E-1,2.8685357E-2,1.3535825E-4,3.104673E-2,1.1511966E-2,-6.239168E-3,-1.4975348E-2,2.6318751E-2],"categories":[],"categories_nodes":[],"categories_segments":[],"categories_sizes":[],"default_left":[0,0,0,0,0,0,0,0,0,0,0,0,0],"id":5,"left_children":[1,3,5,7,9,11,-1,-1,-1,-1,-1,-1,-1],"loss_changes":[4.668416E1,3.0851835E1,2.7085548E1,5.8658905E0,1.9398544E1,1.9918823E1,0E0,0E0,0E0,0E0,0E0,0E0,0E0],"parents":[2147483647,0,0,1,1,2,2,3,3,4,4,5,5],"right_children":[2,4,6,8,10,12,-1,-1,-1,-1,-1,-1,-1],"split_conditions":[1.0069E2,8.2E1,1.2762E4,9.013E1,6.386E1,3.304335E-2,2.8685357E-2,1.3535825E-4,3.104673E-2,1.1511966E-2,-6.239168E-3,-1.4975348E-2,2.6318751E-2],"split_indices":[32,31,20,32,13,9,0,0,0,0,0,0,0],"split_type":[0,0,0,0,0,0,0,0,0,0,0,0,0],"sum_hessian":[2.1682309E2,1.2043311E2,9.638998E1,2.4583323E1,9.584979E1,9.066974E1,5.720237E0,2.7289388E0,2.1854383E1,5.0417767E1,4.5432026E1,8.668099E1,3.988747E0],"tree_param":{"num_deleted":"0","num_feature":"40","num_nodes":"13","size_leaf_vector":"1"}},{"base_weights":[7.884078E-3,4.9666956E-1,-4.7278208E-1,7.653874E-1,-4.7282758E-1,-5.835211E-1,2.5957733E-2,2.4501424E-2,8.995235E-3,2.403751E-2,-1.5789857E-2,-1.4050792E-2,1.7437784E-2],"categories":[],"categories_nodes":[],"categories_segments":[],"categories_sizes":[],"default_left":[0,0,0,0,0,0,0,0,0,0,0,0,0],"id":6,"left_children":[1,3,5,7,9,11,-1,-1,-1,-1,-1,-1,-1],"loss_changes":[5.0977406E1,2.8386833E1,2.2296507E1,1.1797634E1,1.3882212E1,1.9193794E1,0E0,0E0,0E0,0E0,0E0,0E0,0E0],"parents":[2147483647,0,0,1,1,2,2,3,3,4,4,5,5],"right_children":[2,4,6,8,10,12,-1,-1,-1,-1,-1,-1,-1],"split_conditions":[5.8838E1,4.4668606E-3,1.1135E2,1.906719E-2,-5.2783586E-2,3.304335E-2,2.5957733E-2,2.4501424E-2,8.995235E-3,2.403751E-2,-1.5789857E-2,-1.4050792E-2,1.7437784E-2],"split_indices":[38,35,33,15,5,9,0,0,0,0,0,0,0],"split_type":[0,0,0,0,0,0,0,0,0,0,0,0,0],"sum_hessian":[2.1497862E2,1.0657256E2,1.0840607E2,8.3608986E1,2.2963573E1,1.0268068E2,5.725385E0,3.242743E1,5.118156E1,3.2368524E0,1.9726723E1,9.5195946E1,7.4847317E0],"tree_param":{"num_deleted":"0","num_feature":"40","num_nodes":"13","size_leaf_vector":"1"}},{"base_weights":[-4.9959227E-2,-4.7538078E-1,5.294557E-1,-5.7752705E-1,2.8217236E-2,7.566396E-1,-2.0866664E-2,-1.4322728E-2,8.950807E-3,2.1362798E-2,-9.741462E-4,-2.4941009E-2,8.5769E-3],"categories":[],"categories_nodes":[],"categories_segments":[],"categories_sizes":[],"default_left":[0,0,0,0,0,0,0,0,0,0,0,0,0],"id":7,"left_children":[1,3,5,7,-1,9,11,-1,-1,-1,-1,-1,-1],"loss_changes":[5.359034E1,2.5056175E1,1.1528793E1,1.781826E1,0E0,1.6710407E1,1.6073994E1,0E0,0E0,0E0,0E0,0E0,0E0],"parents":[2147483647,0,0,1,1,2,2,3,3,5,5,6,6],"right_children":[2,4,6,8,-1,10,12,-1,-1,-1,-1,-1,-1],"split_conditions":[5.2584E0,1.2762E4,4.2E1,1.008121E-1,2.8217236E-2,6.1496086E-2,-2.8512702E0,-1.4322728E-2,8.950807E-3,2.1362798E-2,-9.741462E-4,-2.4941009E-2,8.5769E-3],"split_indices":[10,20,26,37,0,39,16,0,0,0,0,0,0],"split_type":[0,0,0,0,0,0,0,0,0,0,0,0,0],"sum_hessian":[2.1538783E2,1.2430177E2,9.108605E1,1.1859938E2,5.7023935E0,6.420575E1,2.6880299E1,1.04427925E2,1.4171455E1,4.583196E1,1.8373795E1,6.735507E0,2.0144793E1],"tree_param":{"num_deleted":"0","num_feature":"40","num_nodes":"13","size_leaf_vector":"1"}},{"base_weights":[-1.2319815E-2,5.013154E-1,-5.1985514E-1,3.8094196E-2,9.839972E-1,-6.37465E-1,2.5911333E-2,2.1997506E-2,-7.0260917E-3,2.2154845E-2,-8.1882E-3,-1.5275E-2,1.3860081E-2],"categories":[],"categories_nodes":[],"categories_segments":[],"categories_sizes":[],"default_left":[0,0,0,0,0,0,0,0,0,0,0,0,0],"id":8,"left_children":[1,3,5,7,9,11,-1,-1,-1,-1,-1,-1,-1],"loss_changes":[5.669424E1,2.4132948E1,2.427106E1,2.3865309E1,1.0023159E1,1.8511944E1,0E0,0E0,0E0,0E0,0E0,0E0,0E0],"parents":[2147483647,0,0,1,1,2,2,3,3,4,4,5,5],"right_children":[2,4,6,8,10,12,-1,-1,-1,-1,-1,-1,-1],"split_conditions":[5.8838E1,5.3426E0,1.1135E2,1.906719E-2,3.41E2,3.23612E-2,2.5911333E-2,2.1997506E-2,-7.0260917E-3,2.2154845E-2,-8.1882E-3,-1.5275E-2,1.3860081E-2],"split_indices":[38,10,33,15,31,9,0,0,0,0,0,0,0],"split_type":[0,0,0,0,0,0,0,0,0,0,0,0,0],"sum_hessian":[2.1547957E2,1.071023E2,1.08377266E2,5.5203453E1,5.189885E1,1.0241725E2,5.9600196E0,1.4315588E1,4.0887863E1,4.7674774E1,4.2240777E0,9.369131E1,8.725938E0],"tree_param":{"num_deleted":"0","num_feature":"40","num_nodes":"13","size_leaf_vector":"1"}},{"base_weights":[-1.0204779E-2,-4.3776777E-1,5.8861876E-1,5.434209E-1,-6.466759E-1,8.4395015E-1,5.7518367E-2,2.646683E-2,-7.357242E-3,1.9272253E-2,-1.54703455E-2,2.3733405E-2,5.6491564E-3,7.778748E-3,-2.8414944E-2],"categories":[],"categories_nodes":[],"categories_segments":[],"categories_sizes":[],"default_left":[0,0,0,0,0,0,0,0,0,0,0,0,0,0,0],"id":9,"left_children":[1,3,5,7,9,11,13,-1,-1,-1,-1,-1,-1,-1,-1],"loss_changes":[5.5078976E1,2.6075226E1,1.21047E1,1.6712292E1,2.2728397E1,1.1474396E1,1.5505935E1,0E0,0E0,0E0,0E0,0E0,0E0,0E0,0E0],"parents":[2147483647,0,0,1,1,2,2,3,3,4,4,5,5,6,6],"right_children":[2,4,6,8,10,12,14,-1,-1,-1,-1,-1,-1,-1,-1],"split_conditions":[5.2568E0,5.1155E1,5.8838E1,2.6542919E-2,4.775E0,1.9595984E-2,5.5564E0,2.646683E-2,-7.357242E-3,1.9272253E-2,-1.54703455E-2,2.3733405E-2,5.6491564E-3,7.778748E-3,-2.8414944E-2],"split_indices":[10,38,38,15,10,4,10,0,0,0,0,0,0,0,0],"split_type":[0,0,0,0,0,0,0,0,0,0,0,0,0,0,0],"sum_hessian":[2.131166E2,1.2449529E2,8.862131E1,2.1572668E1,1.0292262E2,5.945075E1,2.9170555E1,1.13426E1,1.0230068E1,7.2356505E0,9.568697E1,3.5931118E1,2.351963E1,2.4425299E1,4.7452564E0],"tree_param":{"num_deleted":"0","num_feature":"40","num_nodes":"15","size_leaf_vector":"1"}},{"base_weights":[3.8263306E-2,-3.6257097E-1,5.752635E-1,-4.5382532E-1,2.7371466E-2,8.8778216E-1,-3.1469963E-2,-2.9656707E-4,-1.6605865E-2,2.27798E-2,-1.899208E-3,1.0356079E-2,-2.4539666E-2],"categories":[],"categories_nodes":[],"categories_segments":[],"categories_sizes":[],"default_left":[0,0,0,0,0,0,0,0,0,0,0,0,0],"id":10,"left_children":[1,3,5,7,-1,9,11,-1,-1,-1,-1,-1,-1],"loss_changes":[4.6569443E1,2.0285196E1,1.7556446E1,1.9797106E1,0E0,1.5547409E1,2.2134241E1,0E0,0E0,0E0,0E0,0E0,0E0],"parents":[2147483647,0,0,1,1,2,2,3,3,5,5,6,6],"right_children":[2,4,6,8,-1,10,12,-1,-1,-1,-1,-1,-1],"split_conditions":[5.2568E0,1.2762E4,5.8666E1,1.021E2,2.7371466E-2,1.779138E-1,4.6E1,-2.9656707E-4,-1.6605865E-2,2.27798E-2,-1.899208E-3,1.0356079E-2,-2.4539666E-2],"split_indices":[10,20,38,33,0,37,26,0,0,0,0,0,0],"split_type":[0,0,0,0,0,0,0,0,0,0,0,0,0],"sum_hessian":[2.1438344E2,1.2294107E2,9.144236E1,1.17511215E2,5.4298577E0,6.0048912E1,3.1393446E1,5.5074787E1,6.243643E1,4.7467995E1,1.2580917E1,2.1901995E1,9.491451E0],"tree_param":{"num_deleted":"0","num_feature":"40","num_nodes":"13","size_leaf_vector":"1"}},{"base_weights":[-2.0177465E-2,-3.5819048E-1,4.9733233E-1,-4.662631E-1,2.8446874E-2,-1.960231E-1,7.015485E-1,8.882844E-3,-1.1823042E-2,1.4380973E-2,-1.9678326E-2,-2.2126094E-2,1.5576736E-2],"categories":[],"categories_nodes":[],"categories_segments":[],"categories_sizes":[],"default_left":[0,0,0,0,0,0,0,0,0,0,0,0,0],"id":11,"left_children":[1,3,5,7,-1,9,11,-1,-1,-1,-1,-1,-1],"loss_changes":[3.7566948E1,2.5762955E1,1.2154224E1,1.4661289E1,0E0,1.5355061E1,1.0579002E1,0E0,0E0,0E0,0E0,0E0,0E0],"parents":[2147483647,0,0,1,1,2,2,3,3,5,5,6,6],"right_children":[2,4,6,8,-1,10,12,-1,-1,-1,-1,-1,-1],"split_conditions":[5.2772E0,1.2762E4,-2.6044127E-2,4.8665E0,2.8446874E-2,1.3095189E3,1.1055023E-2,8.882844E-3,-1.1823042E-2,1.4380973E-2,-1.9678326E-2,-2.2126094E-2,1.5576736E-2],"split_indices":[10,20,14,10,0,36,15,0,0,0,0,0,0],"split_type":[0,0,0,0,0,0,0,0,0,0,0,0,0],"sum_hessian":[2.1274188E2,1.288748E2,8.386708E1,1.2222629E2,6.648508E0,1.9090633E1,6.477645E1,1.4725975E1,1.0750031E2,8.884977E0,1.0205655E1,2.2378078E0,6.2538643E1],"tree_param":{"num_deleted":"0","num_feature":"40","num_nodes":"13","size_leaf_vector":"1"}},{"base_weights":[2.1310471E-2,4.9984652E-1,-4.054725E-1,-2.7105408E-2,1.0067093E0,-5.09693E-1,2.5333589E-2,2.3136523E-2,-6.7984383E-3,2.4391454E-2,1.8535947E-3,1.7827325E-2,-1.2557104E-2],"categories":[],"categories_nodes":[],"categories_segments":[],"categories_sizes":[],"default_left":[0,0,0,0,0,0,0,0,0,0,0,0,0],"id":12,"left_children":[1,3,5,7,9,11,-1,-1,-1,-1,-1,-1,-1],"loss_changes":[4.3926823E1,2.7103598E1,2.0545666E1,1.9369415E1,1.0241592E1,1.8968868E1,0E0,0E0,0E0,0E0,0E0,0E0,0E0],"parents":[2147483647,0,0,1,1,2,2,3,3,4,4,5,5],"right_children":[2,4,6,8,10,12,-1,-1,-1,-1,-1,-1,-1],"split_conditions":[5.827E1,5.3232E0,1.1135E2,1.880805E-2,1.779138E-1,2.7E1,2.5333589E-2,2.3136523E-2,-6.7984383E-3,2.4391454E-2,1.8535947E-3,1.7827325E-2,-1.2557104E-2],"split_indices":[38,10,33,15,37,31,0,0,0,0,0,0,0],"split_type":[0,0,0,0,0,0,0,0,0,0,0,0,0],"sum_hessian":[2.1309158E2,1.0037434E2,1.12717255E2,4.9676E1,5.0698338E1,1.06784454E2,5.9327993E0,9.823055E0,3.985294E1,4.0609245E1,1.0089091E1,7.985513E0,9.879894E1],"tree_param":{"num_deleted":"0","num_feature":"40","num_nodes":"13","size_leaf_vector":"1"}},{"base_weights":[2.5178548E-2,-2.811613E-1,6.396596E-1,-3.8860857E-1,2.705999E-2,9.4973916E-1,-1.2526202E-1,1.5788104E-3,-1.3400644E-2,2.1658381E-2,-1.291763E-2,1.0133339E-2,-2.4325456E-2],"categories":[],"categories_nodes":[],"categories_segments":[],"categories_sizes":[],"default_left":[0,0,0,0,0,0,0,0,0,0,0,0,0],"id":13,"left_children":[1,3,5,7,-1,9,11,-1,-1,-1,-1,-1,-1],"loss_changes":[4.072258E1,2.5997047E1,1.7186323E1,1.8231386E1,0E0,1.2102158E1,1.5692353E1,0E0,0E0,0E0,0E0,0E0,0E0],"parents":[2147483647,0,0,1,1,2,2,3,3,5,5,6,6],"right_children":[2,4,6,8,-1,10,12,-1,-1,-1,-1,-1,-1],"split_conditions":[5.3232E0,1.2762E4,5.8169334E1,1.0069E2,2.705999E-2,3.41E2,5.5074E0,1.5788104E-3,-1.3400644E-2,2.1658381E-2,-1.291763E-2,1.0133339E-2,-2.4325456E-2],"split_indices":[10,20,38,32,0,31,10,0,0,0,0,0,0],"split_type":[0,0,0,0,0,0,0,0,0,0,0,0,0],"sum_hessian":[2.1437785E2,1.4342033E2,7.095751E1,1.3532442E2,8.095921E0,5.031819E1,2.063932E1,5.1487606E1,8.383681E1,4.6591118E1,3.7270718E0,1.3416737E1,7.2225833E0],"tree_param":{"num_deleted":"0","num_feature":"40","num_nodes":"13","size_leaf_vector":"1"}},{"base_weights":[5.029968E-2,-3.471377E-1,5.8497787E-1,5.0941265E-1,-5.2991074E-1,8.503865E-1,2.1413052E-2,-1.9686008E-2,2.005253E-2,2.0117292E-2,-1.3289409E-2,2.4628865E-2,1.2458365E-3,6.964522E-3,-3.0256411E-2],"categories":[],"categories_nodes":[],"categories_segments":[],"categories_sizes":[],"default_left":[0,0,0,0,0,0,0,0,0,0,0,0,0,0,0],"id":14,"left_children":[1,3,5,7,9,11,13,-1,-1,-1,-1,-1,-1,-1,-1],"loss_changes":[4.52706E1,1.9413605E1,1.3563221E1,1.7445343E1,2.2219393E1,1.8759258E1,1.5786236E1,0E0,0E0,0E0,0E0,0E0,0E0,0E0,0E0],"parents":[2147483647,0,0,1,1,2,2,3,3,4,4,5,5,6,6],"right_children":[2,4,6,8,10,12,14,-1,-1,-1,-1,-1,-1,-1,-1],"split_conditions":[5.2568E0,5.1155E1,5.8838E1,2.7318333E1,4.775E0,1.0576522E0,5.5564E0,-1.9686008E-2,2.005253E-2,2.0117292E-2,-1.3289409E-2,2.4628865E-2,1.2458365E-3,6.964522E-3,-3.0256411E-2],"split_indices":[10,38,38,38,10,2,10,0,0,0,0,0,0,0,0],"split_type":[0,0,0,0,0,0,0,0,0,0,0,0,0,0,0],"sum_hessian":[2.1108142E2,1.2128129E2,8.980014E1,2.101397E1,1.0026732E2,6.0703243E1,2.9096895E1,4.998622E0,1.6015348E1,7.7236366E0,9.254368E1,4.030475E1,2.0398497E1,2.4622744E1,4.474152E0],"tree_param":{"num_deleted":"0","num_feature":"40","num_nodes":"15","size_leaf_vector":"1"}},{"base_weights":[-1.3020795E-2,4.0522647E-1,-4.1541702E-1,9.664797E-1,8.008633E-2,-5.390245E-1,1.0362895E0,2.3128226E-2,2.2875073E-3,-3.6926172E-3,1.5174801E-2,-1.3158797E-2,2.324374E-2,2.8366964E-2,2.2482574E-3],"categories":[],"categories_nodes":[],"categories_segments":[],"categories_sizes":[],"default_left":[0,0,0,0,0,0,0,0,0,0,0,0,0,0,0],"id":15,"left_children":[1,3,5,7,9,11,13,-1,-1,-1,-1,-1,-1,-1,-1],"loss_changes":[3.6282017E1,1.9215519E1,2.027116E1,6.323719E0,1.248055E1,2.2060919E1,3.061862E0,0E0,0E0,0E0,0E0,0E0,0E0,0E0,0E0],"parents":[2147483647,0,0,1,1,2,2,3,3,4,4,5,5,6,6],"right_children":[2,4,6,8,10,12,14,-1,-1,-1,-1,-1,-1,-1,-1],"split_conditions":[5.8838E1,3.4549849E-3,3.304335E-2,1.0295432E0,5.4305E0,1.1059E2,3.515803E-2,2.3128226E-2,2.2875073E-3,-3.6926172E-3,1.5174801E-2,-1.3158797E-2,2.324374E-2,2.8366964E-2,2.2482574E-3],"split_indices":[38,35,9,0,10,32,4,0,0,0,0,0,0,0,0],"split_type":[0,0,0,0,0,0,0,0,0,0,0,0,0,0,0],"sum_hessian":[2.1357779E2,1.0472278E2,1.08855E2,3.769008E1,6.70327E1,1.0089303E2,7.9619746E0,3.0340767E1,7.3493123E0,4.877666E1,1.8256033E1,9.471683E1,6.176201E0,5.216857E0,2.7451177E0],"tree_param":{"num_deleted":"0","num_feature":"40","num_nodes":"15","size_leaf_vector":"1"}},{"base_weights":[-1.363195E-2,-3.4992844E-1,4.4419923E-1,-4.571617E-1,2.7295787E-2,8.176704E-1,2.0583399E-2,-1.2111716E-2,8.209286E-3,1.0542544E-2,2.7930152E-2,7.4656717E-3,-1.5099474E-2],"categories":[],"categories_nodes":[],"categories_segments":[],"categories_sizes":[],"default_left":[0,0,0,0,0,0,0,0,0,0,0,0,0],"id":16,"left_children":[1,3,5,7,-1,9,11,-1,-1,-1,-1,-1,-1],"loss_changes":[3.2292076E1,2.2949366E1,1.4036966E1,1.5356937E1,0E0,7.2153397E0,1.20752945E1,0E0,0E0,0E0,0E0,0E0,0E0],"parents":[2147483647,0,0,1,1,2,2,3,3,5,5,6,6],"right_children":[2,4,6,8,-1,10,12,-1,-1,-1,-1,-1,-1],"split_conditions":[5.2568E0,1.2762E4,8.633688E-3,4.664176E0,2.7295787E-2,8.35312E0,5.8169334E1,-1.2111716E-2,8.209286E-3,1.0542544E-2,2.7930152E-2,7.4656717E-3,-1.5099474E-2],"split_indices":[10,20,4,21,0,16,38,0,0,0,0,0,0],"split_type":[0,0,0,0,0,0,0,0,0,0,0,0,0],"sum_hessian":[2.077242E2,1.1989321E2,8.783098E1,1.1355584E2,6.3373713E0,4.618384E1,4.164714E1,9.695621E1,1.659963E1,3.2253433E1,1.39304085E1,2.8980465E1,1.2666675E1],"tree_param":{"num_deleted":"0","num_feature":"40","num_nodes":"13","size_leaf_vector":"1"}},{"base_weights":[-3.5147216E-2,3.525353E-1,-4.0298676E-1,-6.263064E-2,7.7374667E-1,-5.08256E-1,2.6889225E-2,-4.923275E-3,2.5437135E-2,1.8151183E-2,-1.2336837E-2,-1.6741907E-2,1.8287224E-3],"categories":[],"categories_nodes":[],"categories_segments":[],"categories_sizes":[],"default_left":[0,0,0,0,0,0,0,0,0,0,0,0,0],"id":17,"left_children":[1,3,5,7,9,11,-1,-1,-1,-1,-1,-1,-1],"loss_changes":[3.0091068E1,1.8022278E1,2.0676832E1,1.3376789E1,1.043499E1,2.0643671E1,0E0,0E0,0E0,0E0,0E0,0E0,0E0],"parents":[2147483647,0,0,1,1,2,2,3,3,4,4,5,5],"right_children":[2,4,6,8,10,12,-1,-1,-1,-1,-1,-1,-1],"split_conditions":[5.8838E1,5.3426E0,1.1135E2,1.1787E4,3.41E2,1.49622E3,2.6889225E-2,-4.923275E-3,2.5437135E-2,1.8151183E-2,-1.2336837E-2,-1.6741907E-2,1.8287224E-3],"split_indices":[38,10,33,20,31,36,0,0,0,0,0,0,0],"split_type":[0,0,0,0,0,0,0,0,0,0,0,0,0],"sum_hessian":[2.0901375E2,1.01782364E2,1.0723138E2,5.1687756E1,5.009461E1,1.0183186E2,5.399518E0,4.614413E1,5.543624E0,4.5878624E1,4.2159834E0,6.52183E1,3.6613564E1],"tree_param":{"num_deleted":"0","num_feature":"40","num_nodes":"13","size_leaf_vector":"1"}},{"base_weights":[-3.7814563E-3,5.868376E-1,-2.3975815E-1,1.0495863E0,2.1425524E-1,-3.1090816E-2,-1.4343257E-1,2.4931815E-2,4.569777E-3,-9.955184E-3,1.3838955E-2,-4.581218E-3,2.1053541E-2],"categories":[],"categories_nodes":[],"categories_segments":[],"categories_sizes":[],"default_left":[0,0,0,0,0,0,0,0,0,0,0,0,0],"id":18,"left_children":[1,3,5,7,9,-1,11,-1,-1,-1,-1,-1,-1],"loss_changes":[3.0237898E1,1.0454144E1,1.952927E1,4.2800407E0,1.2582689E1,0E0,1.5434554E1,0E0,0E0,0E0,0E0,0E0,0E0],"parents":[2147483647,0,0,1,1,2,2,3,3,4,4,6,6],"right_children":[2,4,6,8,10,-1,12,-1,-1,-1,-1,-1,-1],"split_conditions":[6.386E1,3.6624142E-3,9.1095E2,3.15E2,1.4362508E-2,-3.1090816E-2,1.2762E4,2.4931815E-2,4.569777E-3,-9.955184E-3,1.3838955E-2,-4.581218E-3,2.1053541E-2],"split_indices":[13,4,36,31,9,0,20,0,0,0,0,0,0],"split_type":[0,0,0,0,0,0,0,0,0,0,0,0,0],"sum_hessian":[2.1494818E2,6.0938976E1,1.540092E2,2.6370125E1,3.456885E1,9.41935E0,1.4458986E2,2.070208E1,5.6680446E0,1.3896731E1,2.067212E1,1.3559967E2,8.990186E0],"tree_param":{"num_deleted":"0","num_feature":"40","num_nodes":"13","size_leaf_vector":"1"}},{"base_weights":[-8.582998E-3,4.0761253E-1,-3.9022902E-1,1.1350362E0,7.4605346E-2,-5.013251E-1,1.1671243E0,2.8706737E-2,4.134011E-3,-3.6442326E-3,2.3491632E-2,1.9242505E-2,-1.2787123E-2,2.8893208E-2,6.3537196E-3],"categories":[],"categories_nodes":[],"categories_segments":[],"categories_sizes":[],"default_left":[0,0,0,0,0,0,0,0,0,0,0,0,0,0,0],"id":19,"left_children":[1,3,5,7,9,11,13,-1,-1,-1,-1,-1,-1,-1,-1],"loss_changes":[3.3447132E1,2.4317543E1,1.9588093E1,8.709995E0,2.0225067E1,2.2053326E1,1.3766546E0,0E0,0E0,0E0,0E0,0E0,0E0,0E0,0E0],"parents":[2147483647,0,0,1,1,2,2,3,3,4,4,5,5,6,6],"right_children":[2,4,6,8,10,12,14,-1,-1,-1,-1,-1,-1,-1,-1],"split_conditions":[5.842433E1,1.906719E-2,1.1088E2,1.0250134E0,2.18404E-2,2.7E1,1.0217626E0,2.8706737E-2,4.134011E-3,-3.6442326E-3,2.3491632E-2,1.9242505E-2,-1.2787123E-2,2.8893208E-2,6.3537196E-3],"split_indices":[38,15,32,0,9,31,0,0,0,0,0,0,0,0,0],"split_type":[0,0,0,0,0,0,0,0,0,0,0,0,0,0,0],"sum_hessian":[2.0857065E2,9.973684E1,1.0883382E2,3.0564041E1,6.91728E1,1.022199E2,6.6139126E0,2.2528614E1,8.035427E0,5.6776196E1,1.2396603E1,8.464566E0,9.375533E1,4.415762E0,2.1981506E0],"tree_param":{"num_deleted":"0","num_feature":"40","num_nodes":"15","size_leaf_vector":"1"}},{"base_weights":[1.0724071E-2,-3.3027062E-1,4.822869E-1,-4.2326668E-1,2.5949245E-2,7.5394857E-1,-8.997553E-2,8.149331E-3,-1.11454455E-2,5.8722105E-3,2.3349572E-2,-2.237143E-2,6.5707173E-3],"categories":[],"categories_nodes":[],"categories_segments":[],"categories_sizes":[],"default_left":[0,0,0,0,0,0,0,0,0,0,0,0,0],"id":20,"left_children":[1,3,5,7,-1,9,11,-1,-1,-1,-1,-1,-1],"loss_changes":[3.4779606E1,1.9635202E1,1.4177296E1,1.3862572E1,0E0,1.1523594E1,1.3460359E1,0E0,0E0,0E0,0E0,0E0,0E0],"parents":[2147483647,0,0,1,1,2,2,3,3,5,5,6,6],"right_children":[2,4,6,8,-1,10,12,-1,-1,-1,-1,-1,-1],"split_conditions":[5.2568E0,1.2762E4,1.9595984E-2,4.8665E0,2.5949245E-2,9.445791E-3,5.3647E0,8.149331E-3,-1.11454455E-2,5.8722105E-3,2.3349572E-2,-2.237143E-2,6.5707173E-3],"split_indices":[10,20,4,10,0,12,10,0,0,0,0,0,0],"split_type":[0,0,0,0,0,0,0,0,0,0,0,0,0],"sum_hessian":[2.1429994E2,1.2454156E2,8.9758385E1,1.18538475E2,6.0030823E0,6.0649605E1,2.9108778E1,1.6456013E1,1.0208246E2,2.9787636E1,3.0861969E1,7.9248714E0,2.1183907E1],"tree_param":{"num_deleted":"0","num_feature":"40","num_nodes":"13","size_leaf_vector":"1"}},{"base_weights":[-6.369434E-3,4.1033614E-1,-3.6841217E-1,1.0295869E0,5.9077553E-2,-4.5919982E-1,2.3606459E-2,2.5500463E-2,4.2313766E-3,1.960542E-2,-3.1723212E-3,-1.1515285E-2,1.8760657E-2],"categories":[],"categories_nodes":[],"categories_segments":[],"categories_sizes":[],"default_left":[0,0,0,0,0,0,0,0,0,0,0,0,0],"id":21,"left_children":[1,3,5,7,9,11,-1,-1,-1,-1,-1,-1,-1],"loss_changes":[3.2332817E1,2.1613329E1,1.6732756E1,7.1430016E0,1.3242278E1,1.88342E1,0E0,0E0,0E0,0E0,0E0,0E0,0E0],"parents":[2147483647,0,0,1,1,2,2,3,3,4,4,5,5],"right_children":[2,4,6,8,10,12,-1,-1,-1,-1,-1,-1,-1],"split_conditions":[5.8169334E1,3.4549849E-3,1.1135E2,2.635828E-2,1.8008426E-2,3.304335E-2,2.3606459E-2,2.5500463E-2,4.2313766E-3,1.960542E-2,-3.1723212E-3,-1.1515285E-2,1.8760657E-2],"split_indices":[38,35,33,15,15,9,0,0,0,0,0,0,0],"split_type":[0,0,0,0,0,0,0,0,0,0,0,0,0],"sum_hessian":[2.1231386E2,9.8643425E1,1.1367044E2,3.5003292E1,6.364013E1,1.0806553E2,5.604914E0,2.6312943E1,8.69035E0,1.1477448E1,5.216268E1,1.00114105E2,7.951424E0],"tree_param":{"num_deleted":"0","num_feature":"40","num_nodes":"13","size_leaf_vector":"1"}},{"base_weights":[1.7444968E-2,3.3724976E-1,-3.950799E-1,1.1630757E0,1.22427054E-1,-1.0362824E0,-6.913589E-2,-4.4536046E-3,2.7070936E-2,-1.8250857E-2,4.7689197E-3,-2.5031995E-2,1.6352748E-2,-2.7748063E-2,1.8637413E-3],"categories":[],"categories_nodes":[],"categories_segments":[],"categories_sizes":[],"default_left":[0,0,0,0,0,0,0,0,0,0,0,0,0,0,0],"id":22,"left_children":[1,3,5,7,9,11,13,-1,-1,-1,-1,-1,-1,-1,-1],"loss_changes":[2.8047976E1,2.1098454E1,1.9336052E1,7.0453033E0,1.1941663E1,1.3908665E1,1.3648814E1,0E0,0E0,0E0,0E0,0E0,0E0,0E0,0E0],"parents":[2147483647,0,0,1,1,2,2,3,3,4,4,5,5,6,6],"right_children":[2,4,6,8,10,12,14,-1,-1,-1,-1,-1,-1,-1,-1],"split_conditions":[1.0134E2,8.2E1,1.531254E-2,9.013E1,-4.839995E1,1.0962E2,9.1095E2,-4.4536046E-3,2.7070936E-2,-1.8250857E-2,4.7689197E-3,-2.5031995E-2,1.6352748E-2,-2.7748063E-2,1.8637413E-3],"split_indices":[33,31,7,32,18,32,36,0,0,0,0,0,0,0,0],"split_type":[0,0,0,0,0,0,0,0,0,0,0,0,0,0,0],"sum_hessian":[2.1059158E2,1.1873005E2,9.186153E1,2.3598413E1,9.513164E1,3.0224352E1,6.1637177E1,2.9260437E0,2.0672369E1,8.950607E0,8.618103E1,2.7288683E1,2.9356685E0,5.9148164E0,5.572236E1],"tree_param":{"num_deleted":"0","num_feature":"40","num_nodes":"15","size_leaf_vector":"1"}},{"base_weights":[2.484089E-2,-2.794716E-1,4.444592E-1,-3.7718084E-1,2.5859736E-2,6.9465977E-1,-5.1250916E-2,9.119911E-3,-1.0328184E-2,2.057546E-2,3.3341958E-3,-2.3999251E-2,4.2795343E-3],"categories":[],"categories_nodes":[],"categories_segments":[],"categories_sizes":[],"default_left":[0,0,0,0,0,0,0,0,0,0,0,0,0],"id":23,"left_children":[1,3,5,7,-1,9,11,-1,-1,-1,-1,-1,-1],"loss_changes":[2.7194704E1,1.9546196E1,1.1135988E1,1.4123056E1,0E0,1.0482794E1,9.781605E0,0E0,0E0,0E0,0E0,0E0,0E0],"parents":[2147483647,0,0,1,1,2,2,3,3,5,5,6,6],"right_children":[2,4,6,8,-1,10,12,-1,-1,-1,-1,-1,-1],"split_conditions":[5.2584E0,1.2762E4,1.9595984E-2,5.1155E1,2.5859736E-2,5.842433E1,-4.159639E-2,9.119911E-3,-1.0328184E-2,2.057546E-2,3.3341958E-3,-2.3999251E-2,4.2795343E-3],"split_indices":[10,20,4,38,0,38,14,0,0,0,0,0,0],"split_type":[0,0,0,0,0,0,0,0,0,0,0,0,0],"sum_hessian":[2.1099321E2,1.22493416E2,8.8499794E1,1.16073074E2,6.4203486E0,5.8547615E1,2.9952177E1,1.6530817E1,9.954225E1,3.5024376E1,2.3523237E1,4.9515E0,2.5000677E1],"tree_param":{"num_deleted":"0","num_feature":"40","num_nodes":"13","size_leaf_vector":"1"}},{"base_weights":[2.0567214E-2,4.480685E-1,-3.7255743E-1,-1.06641404E-1,7.8736764E-1,-6.2440157E-1,2.6634696E-1,8.28251E-3,-1.5477192E-2,2.1371115E-2,1.579872E-3,-1.5232265E-2,2.2641962E-2,1.7174337E-2,-1.6903209E-2],"categories":[],"categories_nodes":[],"categories_segments":[],"categories_sizes":[],"default_left":[0,0,0,0,0,0,0,0,0,0,0,0,0,0,0],"id":24,"left_children":[1,3,5,7,9,11,13,-1,-1,-1,-1,-1,-1,-1,-1],"loss_changes":[3.5784184E1,1.9277905E1,1.801865E1,1.4219784E1,1.2786728E1,2.0751745E1,2.209498E1,0E0,0E0,0E0,0E0,0E0,0E0,0E0,0E0],"parents":[2147483647,0,0,1,1,2,2,3,3,4,4,5,5,6,6],"right_children":[2,4,6,8,10,12,14,-1,-1,-1,-1,-1,-1,-1,-1],"split_conditions":[5.842433E1,2.1586E4,1.49912E3,5.1155E1,1.779138E-1,1.1135E2,7.625267E1,8.28251E-3,-1.5477192E-2,2.1371115E-2,1.579872E-3,-1.5232265E-2,2.2641962E-2,1.7174337E-2,-1.6903209E-2],"split_indices":[38,19,36,38,37,33,38,0,0,0,0,0,0,0,0],"split_type":[0,0,0,0,0,0,0,0,0,0,0,0,0,0,0],"sum_hessian":[2.1093013E2,1.009801E2,1.09950035E2,3.858476E1,6.2395348E1,7.887979E1,3.107024E1,2.1902298E1,1.6682459E1,4.403788E1,1.8357466E1,7.355217E1,5.3276243E0,2.0390526E1,1.0679714E1],"tree_param":{"num_deleted":"0","num_feature":"40","num_nodes":"15","size_leaf_vector":"1"}},{"base_weights":[-4.7435667E-2,-3.5051158E-1,3.6849326E-1,-4.3582985E-1,2.4167955E-2,7.645273E-1,2.875463E-2,-1.2136222E-3,-1.5353922E-2,-7.338618E-3,1.8273069E-2,-1.7194044E-2,5.8814324E-3],"categories":[],"categories_nodes":[],"categories_segments":[],"categories_sizes":[],"default_left":[0,0,0,0,0,0,0,0,0,0,0,0,0],"id":25,"left_children":[1,3,5,7,-1,9,11,-1,-1,-1,-1,-1,-1],"loss_changes":[2.6816708E1,1.6952961E1,1.2050628E1,1.4729179E1,0E0,7.559889E0,1.2012083E1,0E0,0E0,0E0,0E0,0E0,0E0],"parents":[2147483647,0,0,1,1,2,2,3,3,5,5,6,6],"right_children":[2,4,6,8,-1,10,12,-1,-1,-1,-1,-1,-1],"split_conditions":[5.2568E0,1.2762E4,3.6624142E-3,1.021E2,2.4167955E-2,-2.7699485E-2,5.3495E0,-1.2136222E-3,-1.5353922E-2,-7.338618E-3,1.8273069E-2,-1.7194044E-2,5.8814324E-3],"split_indices":[10,20,4,33,0,3,10,0,0,0,0,0,0],"split_type":[0,0,0,0,0,0,0,0,0,0,0,0,0],"sum_hessian":[2.107084E2,1.21981285E2,8.872711E1,1.1636034E2,5.6209517E0,4.0391872E1,4.833524E1,5.5551727E1,6.080861E1,4.6627502E0,3.5729122E1,1.0606228E1,3.772901E1],"tree_param":{"num_deleted":"0","num_feature":"40","num_nodes":"13","size_leaf_vector":"1"}},{"base_weights":[-2.7014874E-2,-2.9922083E-1,5.1617503E-1,-4.0585166E-1,1.2521902E0,8.134292E-1,-1.8556365E-1,-6.252751E-4,-1.3288579E-2,9.251235E-3,2.824366E-2,1.8375989E-2,-7.2878776E-3,-2.3404162E-2,9.244656E-3],"categories":[],"categories_nodes":[],"categories_segments":[],"categories_sizes":[],"default_left":[0,0,0,0,0,0,0,0,0,0,0,0,0,0,0],"id":26,"left_children":[1,3,5,7,9,11,13,-1,-1,-1,-1,-1,-1,-1,-1],"loss_changes":[3.1154903E1,2.371823E1,1.4827436E1,1.2934841E1,5.612669E-1,6.787674E0,1.45586405E1,0E0,0E0,0E0,0E0,0E0,0E0,0E0,0E0],"parents":[2147483647,0,0,1,1,2,2,3,3,4,4,5,5,6,6],"right_children":[2,4,6,8,10,12,14,-1,-1,-1,-1,-1,-1,-1,-1],"split_conditions":[5.3232E0,1.2762E4,5.8169334E1,1.0134E2,-2.2924883E-2,3.41E2,6.0628E1,-6.252751E-4,-1.3288579E-2,9.251235E-3,2.824366E-2,1.8375989E-2,-7.2878776E-3,-2.3404162E-2,9.244656E-3],"split_indices":[10,20,38,32,11,31,38,0,0,0,0,0,0,0,0],"split_type":[0,0,0,0,0,0,0,0,0,0,0,0,0,0,0],"sum_hessian":[2.0866154E2,1.3930266E2,6.935888E1,1.3103484E2,8.267826E0,4.8609074E1,2.0749805E1,5.4413124E1,7.6621704E1,2.1124122E0,6.1554136E0,4.4655033E1,3.9540422E0,7.9011426E0,1.2848662E1],"tree_param":{"num_deleted":"0","num_feature":"40","num_nodes":"15","size_leaf_vector":"1"}},{"base_weights":[4.9305014E-2,-4.288373E-2,1.1925303E0,2.5412256E-1,-4.2208612E-1,-8.4588735E-4,2.808807E-2,2.415052E-2,1.0909336E-6,-2.1320028E-2,-1.7853689E-3],"categories":[],"categories_nodes":[],"categories_segments":[],"categories_sizes":[],"default_left":[0,0,0,0,0,0,0,0,0,0,0],"id":27,"left_children":[1,3,5,7,9,-1,-1,-1,-1,-1,-1],"loss_changes":[2.218773E1,2.2106546E1,4.3135777E0,2.6861797E1,1.8504923E1,0E0,0E0,0E0,0E0,0E0,0E0],"parents":[2147483647,0,0,1,1,2,2,3,3,4,4],"right_children":[2,4,6,8,10,-1,-1,-1,-1,-1,-1],"split_conditions":[1.2762E4,1.0134E2,6E0,8.2E1,1.531254E-2,-8.4588735E-4,2.808807E-2,2.415052E-2,1.0909336E-6,-2.1320028E-2,-1.7853689E-3],"split_indices":[20,33,26,31,7,0,0,0,0,0,0],"split_type":[0,0,0,0,0,0,0,0,0,0,0],"sum_hessian":[2.0903952E2,1.9433128E2,1.4708227E1,1.0916152E2,8.516977E1,2.3389473E0,1.236928E1,2.2058245E1,8.710328E1,2.8076002E1,5.7093765E1],"tree_param":{"num_deleted":"0","num_feature":"40","num_nodes":"11","size_leaf_vector":"1"}},{"base_weights":[6.6133826E-3,-2.3843507E-1,5.461061E-1,-3.3805496E-1,2.4398793E-2,7.712627E-1,-1.1273519E-1,-7.4295275E-4,-1.260593E-2,2.0086762E-2,2.9333849E-3,-2.4606388E-2,1.2849895E-2],"categories":[],"categories_nodes":[],"categories_segments":[],"categories_sizes":[],"default_left":[0,0,0,0,0,0,0,0,0,0,0,0,0],"id":28,"left_children":[1,3,5,7,-1,9,11,-1,-1,-1,-1,-1,-1],"loss_changes":[2.7704412E1,2.1445442E1,9.796259E0,1.2039573E1,0E0,7.123333E0,1.5758084E1,0E0,0E0,0E0,0E0,0E0,0E0],"parents":[2147483647,0,0,1,1,2,2,3,3,5,5,6,6],"right_children":[2,4,6,8,-1,10,12,-1,-1,-1,-1,-1,-1],"split_conditions":[5.3312E0,1.2762E4,5.842433E1,-3.331744E-4,2.4398793E-2,3.024834E-2,6.0628E1,-7.4295275E-4,-1.260593E-2,2.0086762E-2,2.9333849E-3,-2.4606388E-2,1.2849895E-2],"split_indices":[10,20,38,4,0,4,38,0,0,0,0,0,0],"split_type":[0,0,0,0,0,0,0,0,0,0,0,0,0],"sum_hessian":[2.075765E2,1.4312451E2,6.4451996E1,1.3473068E2,8.393821E0,4.7908726E1,1.6543268E1,6.734071E1,6.738998E1,3.421672E1,1.3692005E1,6.4120336E0,1.0131235E1],"tree_param":{"num_deleted":"0","num_feature":"40","num_nodes":"13","size_leaf_vector":"1"}},{"base_weights":[2.0442076E-2,3.6533904E-1,-3.1195477E-1,9.7174793E-1,8.896665E-2,1.0367373E0,-4.0935954E-1,2.7072294E-2,8.526612E-3,-2.8826348E-3,2.242479E-2,3.1429593E-2,-3.1810845E-3,-1.0541047E-2,1.8414784E-2],"categories":[],"categories_nodes":[],"categories_segments":[],"categories_sizes":[],"default_left":[0,0,0,0,0,0,0,0,0,0,0,0,0,0,0],"id":29,"left_children":[1,3,5,7,9,11,13,-1,-1,-1,-1,-1,-1,-1,-1],"loss_changes":[2.4086979E1,1.7190258E1,1.4484102E1,6.2143536E0,1.7622559E1,5.120579E0,1.6656855E1,0E0,0E0,0E0,0E0,0E0,0E0,0E0,0E0],"parents":[2147483647,0,0,1,1,2,2,3,3,4,4,5,5,6,6],"right_children":[2,4,6,8,10,12,14,-1,-1,-1,-1,-1,-1,-1,-1],"split_conditions":[5.8838E1,1.906719E-2,4.775E0,6.1496086E-2,2.18404E-2,1.9236673E-2,3.304335E-2,2.7072294E-2,8.526612E-3,-2.8826348E-3,2.242479E-2,3.1429593E-2,-3.1810845E-3,-1.0541047E-2,1.8414784E-2],"split_indices":[38,15,10,39,9,7,9,0,0,0,0,0,0,0,0],"split_type":[0,0,0,0,0,0,0,0,0,0,0,0,0,0,0],"sum_hessian":[2.0811072E2,1.0208628E2,1.06024445E2,3.1172447E1,7.091383E1,6.491927E0,9.953252E1,1.72875E1,1.3884948E1,5.8578857E1,1.2334978E1,4.2453465E0,2.246581E0,9.184752E1,7.684996E0],"tree_param":{"num_deleted":"0","num_feature":"40","num_nodes":"15","size_leaf_vector":"1"}},{"base_weights":[2.3855057E-2,-5.834286E-2,1.1290166E0,2.408201E-1,-3.275011E-1,2.166664E-3,2.5655149E-2,1.5297081E-2,-1.7140034E-3,-8.908095E-3,1.9101873E-2],"categories":[],"categories_nodes":[],"categories_segments":[],"categories_sizes":[],"default_left":[0,0,0,0,0,0,0,0,0,0,0],"id":30,"left_children":[1,3,5,7,9,-1,-1,-1,-1,-1,-1],"loss_changes":[1.9110117E1,1.5867607E1,2.2434902E0,1.619933E1,1.6476055E1,0E0,0E0,0E0,0E0,0E0,0E0],"parents":[2147483647,0,0,1,1,2,2,3,3,4,4],"right_children":[2,4,6,8,10,-1,-1,-1,-1,-1,-1],"split_conditions":[1.2762E4,5.9236332E1,6E0,2.1565033E-2,3.304335E-2,2.166664E-3,2.5655149E-2,1.5297081E-2,-1.7140034E-3,-8.908095E-3,1.9101873E-2],"split_indices":[20,38,26,15,9,0,0,0,0,0,0],"split_type":[0,0,0,0,0,0,0,0,0,0,0],"sum_hessian":[2.0864148E2,1.9507939E2,1.356209E1,9.243992E1,1.0263947E2,2.0716827E0,1.1490407E1,3.4833263E1,5.760665E1,9.44697E1,8.169767E0],"tree_param":{"num_deleted":"0","num_feature":"40","num_nodes":"11","size_leaf_vector":"1"}},{"base_weights":[-3.5010353E-3,-2.6864323E-1,3.807603E-1,-3.5736948E-1,2.4178484E-2,7.857814E-1,5.0090846E-2,-4.4556658E-4,-1.2683161E-2,8.916999E-3,2.9576425E-2,-1.7156146E-2,5.2378676E-3],"categories":[],"categories_nodes":[],"categories_segments":[],"categories_sizes":[],"default_left":[0,0,0,0,0,0,0,0,0,0,0,0,0],"id":31,"left_children":[1,3,5,7,-1,9,11,-1,-1,-1,-1,-1,-1],"loss_changes":[2.1864626E1,1.715229E1,1.1695857E1,1.1300569E1,0E0,8.635256E0,9.817561E0,0E0,0E0,0E0,0E0,0E0,0E0],"parents":[2147483647,0,0,1,1,2,2,3,3,5,5,6,6],"right_children":[2,4,6,8,-1,10,12,-1,-1,-1,-1,-1,-1],"split_conditions":[5.2772E0,1.2762E4,3.6624142E-3,1.0192E2,2.4178484E-2,7.1326413E0,-2.7862076E-2,-4.4556658E-4,-1.2683161E-2,8.916999E-3,2.9576425E-2,-1.7156146E-2,5.2378676E-3],"split_indices":[10,20,4,33,0,18,14,0,0,0,0,0,0],"split_type":[0,0,0,0,0,0,0,0,0,0,0,0,0],"sum_hessian":[2.1259938E2,1.2597612E2,8.662326E1,1.19585075E2,6.3910437E0,3.8315773E1,4.8307484E1,5.4952038E1,6.463304E1,2.6965597E1,1.1350178E1,8.572424E0,3.9735058E1],"tree_param":{"num_deleted":"0","num_feature":"40","num_nodes":"13","size_leaf_vector":"1"}},{"base_weights":[1.7634802E-2,4.2742193E-1,-3.5068572E-1,9.98682E-1,1.1189585E-1,-4.411729E-1,2.2969214E-2,2.3894629E-2,1.6162221E-3,1.820964E-2,-2.913483E-3,-2.1119379E-3,-1.8251136E-2],"categories":[],"categories_nodes":[],"categories_segments":[],"categories_sizes":[],"default_left":[0,0,0,0,0,0,0,0,0,0,0,0,0],"id":32,"left_children":[1,3,5,7,9,11,-1,-1,-1,-1,-1,-1,-1],"loss_changes":[3.1574715E1,1.773362E1,1.5518366E1,6.417904E0,1.3604164E1,1.6601118E1,0E0,0E0,0E0,0E0,0E0,0E0,0E0],"parents":[2147483647,0,0,1,1,2,2,3,3,4,4,5,5],"right_children":[2,4,6,8,10,12,-1,-1,-1,-1,-1,-1,-1],"split_conditions":[5.827E1,3.4549849E-3,1.1135E2,1.0295432E0,2.060486E-2,1.0359E2,2.2969214E-2,2.3894629E-2,1.6162221E-3,1.820964E-2,-2.913483E-3,-2.1119379E-3,-1.8251136E-2],"split_indices":[38,35,33,0,15,33,0,0,0,0,0,0,0],"split_type":[0,0,0,0,0,0,0,0,0,0,0,0,0],"sum_hessian":[2.0720378E2,9.800483E1,1.0919896E2,3.410058E1,6.390425E1,1.0367331E2,5.525651E0,2.76859E1,6.4146776E0,1.4930514E1,4.8973736E1,6.157459E1,4.2098717E1],"tree_param":{"num_deleted":"0","num_feature":"40","num_nodes":"13","size_leaf_vector":"1"}},{"base_weights":[4.245867E-3,-2.677615E-1,3.8220814E-1,5.62042E-1,-4.301104E-1,6.49895E-1,-2.8535247E-2,-8.799841E-3,2.2727313E-2,-1.0157527E-2,2.5074752E-2,1.5107092E-2,-1.9984432E-2,2.6052125E-2,-4.93811E-3],"categories":[],"categories_nodes":[],"categories_segments":[],"categories_sizes":[],"default_left":[0,0,0,0,0,0,0,0,0,0,0,0,0,0,0],"id":33,"left_children":[1,3,5,7,9,11,13,-1,-1,-1,-1,-1,-1,-1,-1],"loss_changes":[2.1548512E1,1.6662785E1,9.662394E0,1.2382505E1,1.458198E1,1.0383722E1,1.0778197E1,0E0,0E0,0E0,0E0,0E0,0E0,0E0,0E0],"parents":[2147483647,0,0,1,1,2,2,3,3,4,4,5,5,6,6],"right_children":[2,4,6,8,10,12,14,-1,-1,-1,-1,-1,-1,-1,-1],"split_conditions":[5.2568E0,4.8665E0,3.2596283E-2,2.330147E-2,4.0911045E-2,3.488589E-2,2.7E1,-8.799841E-3,2.2727313E-2,-1.0157527E-2,2.5074752E-2,1.5107092E-2,-1.9984432E-2,2.6052125E-2,-4.93811E-3],"split_indices":[10,10,37,15,7,7,31,0,0,0,0,0,0,0,0],"split_type":[0,0,0,0,0,0,0,0,0,0,0,0,0,0,0],"sum_hessian":[2.0760304E2,1.2089229E2,8.671075E1,1.9379116E1,1.01513176E2,5.214496E1,3.4565792E1,7.183693E0,1.2195423E1,9.7568665E1,3.9445114E0,4.9417282E1,2.7276742E0,4.174998E0,3.0390795E1],"tree_param":{"num_deleted":"0","num_feature":"40","num_nodes":"15","size_leaf_vector":"1"}},{"base_weights":[-3.1381692E-3,-9.802888E-2,1.2437543E0,-3.1147087E-1,3.6815912E-1,2.791191E-2,1.0261542E-2,1.9689966E-2,-7.6874755E-3,2.4462275E-2,2.635875E-3],"categories":[],"categories_nodes":[],"categories_segments":[],"categories_sizes":[],"default_left":[0,0,0,0,0,0,0,0,0,0,0],"id":34,"left_children":[1,3,5,7,9,-1,-1,-1,-1,-1,-1],"loss_changes":[2.4766249E1,1.9466711E1,9.917221E-1,1.344015E1,1.2329452E1,0E0,0E0,0E0,0E0,0E0,0E0],"parents":[2147483647,0,0,1,1,2,2,3,3,4,4],"right_children":[2,4,6,8,10,-1,-1,-1,-1,-1,-1],"split_conditions":[1.2762E4,5.3232E0,1.0741523E-1,2.5546541E-3,8.2E1,2.791191E-2,1.0261542E-2,1.9689966E-2,-7.6874755E-3,2.4462275E-2,2.635875E-3],"split_indices":[20,10,39,35,31,0,0,0,0,0,0],"split_type":[0,0,0,0,0,0,0,0,0,0,0],"sum_hessian":[2.07288E2,1.9348483E2,1.3803156E1,1.3294737E2,6.0537457E1,1.0565806E1,3.2373493E0,6.573787E0,1.2637359E2,1.2098945E1,4.843851E1],"tree_param":{"num_deleted":"0","num_feature":"40","num_nodes":"11","size_leaf_vector":"1"}},{"base_weights":[4.107921E-2,-2.2697832E-1,4.1614324E-1,5.798579E-1,-3.7493873E-1,6.758228E-1,-8.889562E-2,2.1215843E-2,-9.593902E-3,7.987752E-3,-1.0455217E-2,2.4099236E-2,6.6921073E-3,1.8560149E-2,-8.391107E-3],"categories":[],"categories_nodes":[],"categories_segments":[],"categories_sizes":[],"default_left":[0,0,0,0,0,0,0,0,0,0,0,0,0,0,0],"id":35,"left_children":[1,3,5,7,9,11,13,-1,-1,-1,-1,-1,-1,-1,-1],"loss_changes":[2.1659168E1,1.5227877E1,1.1831225E1,1.0785076E1,1.2703377E1,1.0388321E1,1.1060133E1,0E0,0E0,0E0,0E0,0E0,0E0,0E0,0E0],"parents":[2147483647,0,0,1,1,2,2,3,3,4,4,5,5,6,6],"right_children":[2,4,6,8,10,12,14,-1,-1,-1,-1,-1,-1,-1,-1],"split_conditions":[5.2568E0,4.8665E0,1.9595984E-2,-2.4023166E0,5.1155E1,6.2799E4,9.179E1,2.1215843E-2,-9.593902E-3,7.987752E-3,-1.0455217E-2,2.4099236E-2,6.6921073E-3,1.8560149E-2,-8.391107E-3],"split_indices":[10,10,4,18,38,19,33,0,0,0,0,0,0,0,0],"split_type":[0,0,0,0,0,0,0,0,0,0,0,0,0,0,0],"sum_hessian":[2.134916E2,1.24737076E2,8.875452E1,1.887758E1,1.058595E2,5.8392338E1,3.0362179E1,1.2944167E1,5.9334126E0,1.692372E1,8.8935776E1,2.1658926E1,3.673341E1,7.0176854E0,2.3344492E1],"tree_param":{"num_deleted":"0","num_feature":"40","num_nodes":"15","size_leaf_vector":"1"}},{"base_weights":[-3.2315396E-2,3.2420266E-1,-3.5993382E-1,-4.020721E-2,7.343125E-1,-4.536867E-1,2.5119007E-2,1.7967032E-2,-6.987036E-3,1.9448731E-2,-1.8148536E-3,-1.4794715E-2,1.8350206E-3],"categories":[],"categories_nodes":[],"categories_segments":[],"categories_sizes":[],"default_left":[0,0,0,0,0,0,0,0,0,0,0,0,0],"id":36,"left_children":[1,3,5,7,9,11,-1,-1,-1,-1,-1,-1,-1],"loss_changes":[2.4505028E1,1.505151E1,1.7196321E1,1.6207909E1,9.5957985E0,1.6537785E1,0E0,0E0,0E0,0E0,0E0,0E0,0E0],"parents":[2147483647,0,0,1,1,2,2,3,3,4,4,5,5],"right_children":[2,4,6,8,10,12,-1,-1,-1,-1,-1,-1,-1],"split_conditions":[5.8838E1,5.3426E0,1.1135E2,1.906719E-2,1.779138E-1,1.49622E3,2.5119007E-2,1.7967032E-2,-6.987036E-3,1.9448731E-2,-1.8148536E-3,-1.4794715E-2,1.8350206E-3],"split_indices":[38,10,33,15,37,36,0,0,0,0,0,0,0],"split_type":[0,0,0,0,0,0,0,0,0,0,0,0,0],"sum_hessian":[2.0780089E2,9.9516426E1,1.0828446E2,5.317175E1,4.6344677E1,1.03050224E2,5.2342424E0,1.2711302E1,4.046045E1,3.565519E1,1.06894865E1,6.706841E1,3.5981808E1],"tree_param":{"num_deleted":"0","num_feature":"40","num_nodes":"13","size_leaf_vector":"1"}},{"base_weights":[1.7534746E-2,3.719761E-1,-2.854967E-1,9.407324E-1,4.6061255E-2,-3.8068035E-1,9.7128916E-1,2.1834437E-2,4.5925495E-4,6.30434E-3,-1.1060835E-2,1.7016396E-2,-9.9442275E-3,2.6253335E-2,5.4782685E-3],"categories":[],"categories_nodes":[],"categories_segments":[],"categories_sizes":[],"default_left":[0,0,0,0,0,0,0,0,0,0,0,0,0,0,0],"id":37,"left_children":[1,3,5,7,9,11,13,-1,-1,-1,-1,-1,-1,-1,-1],"loss_changes":[2.2324324E1,1.7710377E1,1.3777728E1,4.985058E0,1.0273974E1,1.5876281E1,1.6175065E0,0E0,0E0,0E0,0E0,0E0,0E0,0E0,0E0],"parents":[2147483647,0,0,1,1,2,2,3,3,4,4,5,5,6,6],"right_children":[2,4,6,8,10,12,14,-1,-1,-1,-1,-1,-1,-1,-1],"split_conditions":[5.827E1,3.4686516E-3,3.304335E-2,7.554043E0,5.500609E-2,2.7E1,1.0137888E0,2.1834437E-2,4.5925495E-4,6.30434E-3,-1.1060835E-2,1.7016396E-2,-9.9442275E-3,2.6253335E-2,5.4782685E-3],"split_indices":[38,35,9,21,37,31,0,0,0,0,0,0,0,0,0],"split_type":[0,0,0,0,0,0,0,0,0,0,0,0,0,0,0],"sum_hessian":[2.0585944E2,9.477645E1,1.11082985E2,3.3838394E1,6.0938053E1,1.03910355E2,7.172631E0,2.8734852E1,5.103543E0,4.235736E1,1.8580694E1,8.592671E0,9.531768E1,4.183136E0,2.989495E0],"tree_param":{"num_deleted":"0","num_feature":"40","num_nodes":"15","size_leaf_vector":"1"}},{"base_weights":[2.3175135E-2,3.077262E-1,-2.5343564E-1,8.0439335E-1,8.364576E-2,-3.5060805E-1,2.3176247E-2,2.567457E-2,3.1058788E-3,-4.1256933E-3,1.4929297E-2,4.322165E-3,-1.2900817E-2],"categories":[],"categories_nodes":[],"categories_segments":[],"categories_sizes":[],"default_left":[0,0,0,0,0,0,0,0,0,0,0,0,0],"id":38,"left_children":[1,3,5,7,9,11,-1,-1,-1,-1,-1,-1,-1],"loss_changes":[1.6237185E1,1.1245634E1,1.4831774E1,9.720564E0,1.3963367E1,1.6834488E1,0E0,0E0,0E0,0E0,0E0,0E0,0E0],"parents":[2147483647,0,0,1,1,2,2,3,3,4,4,5,5],"right_children":[2,4,6,8,10,12,-1,-1,-1,-1,-1,-1,-1],"split_conditions":[5.8838E1,1.906719E-2,1.1135E2,1.0576522E0,5.5287E0,2.3E1,2.3176247E-2,2.567457E-2,3.1058788E-3,-4.1256933E-3,1.4929297E-2,4.322165E-3,-1.2900817E-2],"split_indices":[38,15,33,2,10,26,0,0,0,0,0,0,0],"split_type":[0,0,0,0,0,0,0,0,0,0,0,0,0],"sum_hessian":[2.043007E2,1.006495E2,1.036512E2,3.0486778E1,7.016272E1,9.770975E1,5.9414477E0,1.6856949E1,1.3629828E1,4.9323387E1,2.0839336E1,3.37086E1,6.400115E1],"tree_param":{"num_deleted":"0","num_feature":"40","num_nodes":"13","size_leaf_vector":"1"}},{"base_weights":[-5.104892E-4,-7.853329E-2,1.0090425E0,1.6318211E-1,-3.6670047E-1,-2.3861479E-3,2.4391472E-2,2.2015989E-2,-1.1551427E-3,-1.6990734E-2,-2.1096195E-4],"categories":[],"categories_nodes":[],"categories_segments":[],"categories_sizes":[],"default_left":[0,0,0,0,0,0,0,0,0,0,0],"id":39,"left_children":[1,3,5,7,9,-1,-1,-1,-1,-1,-1],"loss_changes":[1.5974793E1,1.3172444E1,3.7104607E0,2.1576977E1,1.4945837E1,0E0,0E0,0E0,0E0,0E0,0E0],"parents":[2147483647,0,0,1,1,2,2,3,3,4,4],"right_children":[2,4,6,8,10,-1,-1,-1,-1,-1,-1],"split_conditions":[1.2762E4,1.0069E2,6E0,8.2E1,6.7146197E-3,-2.3861479E-3,2.4391472E-2,2.2015989E-2,-1.1551427E-3,-1.6990734E-2,-2.1096195E-4],"split_indices":[20,32,26,31,12,0,0,0,0,0,0],"split_type":[0,0,0,0,0,0,0,0,0,0,0],"sum_hessian":[2.0080173E2,1.8725224E2,1.3549486E1,1.0206966E2,8.518258E1,2.2560112E0,1.1293475E1,1.8629597E1,8.344006E1,3.5375263E1,4.9807316E1],"tree_param":{"num_deleted":"0","num_feature":"40","num_nodes":"11","size_leaf_vector":"1"}},{"base_weights":[2.7496977E-2,3.3169374E-1,-2.7724755E-1,-2.4514298E-1,5.608895E-1,8.976593E-1,-3.7908915E-1,1.4165601E-2,-1.4725404E-2,1.8100938E-2,1.69932E-3,3.265908E-2,-1.7430024E-2,-9.721433E-3,1.822116E-2],"categories":[],"categories_nodes":[],"categories_segments":[],"categories_sizes":[],"default_left":[0,0,0,0,0,0,0,0,0,0,0,0,0,0,0],"id":40,"left_children":[1,3,5,7,9,11,13,-1,-1,-1,-1,-1,-1,-1,-1],"loss_changes":[1.9322151E1,1.39227085E1,1.2804873E1,1.4903745E1,1.2352146E1,1.2793577E1,1.4144477E1,0E0,0E0,0E0,0E0,0E0,0E0,0E0,0E0],"parents":[2147483647,0,0,1,1,2,2,3,3,4,4,5,5,6,6],"right_children":[2,4,6,8,10,12,14,-1,-1,-1,-1,-1,-1,-1,-1],"split_conditions":[5.9505665E1,6.2564835E-3,2.7E1,-1.5384747E1,2.6263691E-2,1.0363E2,1.1059E2,1.4165601E-2,-1.4725404E-2,1.8100938E-2,1.69932E-3,3.265908E-2,-1.7430024E-2,-9.721433E-3,1.822116E-2],"split_indices":[38,12,31,16,15,32,32,0,0,0,0,0,0,0,0],"split_type":[0,0,0,0,0,0,0,0,0,0,0,0,0,0,0],"sum_hessian":[2.0644026E2,1.0326872E2,1.0317154E2,2.934473E1,7.3923996E1,7.606304E0,9.556523E1,9.85339E0,1.949134E1,4.2109795E1,3.18142E1,5.4114E0,2.194904E0,8.868611E1,6.879123E0],"tree_param":{"num_deleted":"0","num_feature":"40","num_nodes":"15","size_leaf_vector":"1"}},{"base_weights":[3.293065E-2,3.0604133E-1,-3.0398065E-1,1.0682216E0,1.1164404E-1,-7.598227E-1,-1.4657391E-2,-1.6007029E-2,2.5808394E-2,-4.7275762E-4,2.3141E-2,2.2236902E-2,-1.8282304E-2,1.0736877E-2,-8.533175E-3],"categories":[],"categories_nodes":[],"categories_segments":[],"categories_sizes":[],"default_left":[0,0,0,0,0,0,0,0,0,0,0,0,0,0,0],"id":41,"left_children":[1,3,5,7,9,11,13,-1,-1,-1,-1,-1,-1,-1,-1],"loss_changes":[1.884097E1,1.6627708E1,1.2085712E1,1.0843618E1,1.3008956E1,1.1658745E1,1.3349658E1,0E0,0E0,0E0,0E0,0E0,0E0,0E0,0E0],"parents":[2147483647,0,0,1,1,2,2,3,3,4,4,5,5,6,6],"right_children":[2,4,6,8,10,12,14,-1,-1,-1,-1,-1,-1,-1,-1],"split_conditions":[1.0069E2,8.2E1,1.6112521E-2,2E0,9.958E1,4.8472E0,1.719282E0,-1.6007029E-2,2.5808394E-2,-4.7275762E-4,2.3141E-2,2.2236902E-2,-1.8282304E-2,1.0736877E-2,-8.533175E-3],"split_indices":[32,31,7,26,32,10,21,0,0,0,0,0,0,0,0],"split_type":[0,0,0,0,0,0,0,0,0,0,0,0,0,0,0],"sum_hessian":[2.0275078E2,1.1202859E2,9.072219E1,2.1853146E1,9.017544E1,3.459305E1,5.6129143E1,2.1069477E0,1.9746197E1,8.075369E1,9.421749E0,2.231643E0,3.236141E1,2.3876238E1,3.2252907E1],"tree_param":{"num_deleted":"0","num_feature":"40","num_nodes":"15","size_leaf_vector":"1"}},{"base_weights":[-4.2705186E-2,2.271223E-1,-3.755233E-1,1.0096018E0,3.425992E-2,-7.6909226E-1,-4.664248E-4,-1.1502961E-2,2.524946E-2,-1.0856512E-3,3.0359507E-2,-1.7826691E-2,1.8740512E-2,1.23661505E-2,-7.563931E-3],"categories":[],"categories_nodes":[],"categories_segments":[],"categories_sizes":[],"default_left":[0,0,0,0,0,0,0,0,0,0,0,0,0,0,0],"id":42,"left_children":[1,3,5,7,9,11,13,-1,-1,-1,-1,-1,-1,-1,-1],"loss_changes":[1.852567E1,1.7173079E1,1.36264925E1,1.0009438E1,1.2341582E1,1.0626724E1,1.1637387E1,0E0,0E0,0E0,0E0,0E0,0E0,0E0,0E0],"parents":[2147483647,0,0,1,1,2,2,3,3,4,4,5,5,6,6],"right_children":[2,4,6,8,10,12,14,-1,-1,-1,-1,-1,-1,-1,-1],"split_conditions":[1.0101E2,8.2E1,1.9275337E-2,9.013E1,7.3942E1,1.1135E2,3.0381E4,-1.1502961E-2,2.524946E-2,-1.0856512E-3,3.0359507E-2,-1.7826691E-2,1.8740512E-2,1.23661505E-2,-7.563931E-3],"split_indices":[33,31,8,32,38,32,19,0,0,0,0,0,0,0,0],"split_type":[0,0,0,0,0,0,0,0,0,0,0,0,0,0,0],"sum_hessian":[2.0434148E2,1.1302536E2,9.131611E1,2.151205E1,9.151331E1,4.4045746E1,4.727036E1,2.8494847E0,1.8662565E1,8.727939E1,4.233924E0,4.1447514E1,2.5982351E0,1.7676775E1,2.9593584E1],"tree_param":{"num_deleted":"0","num_feature":"40","num_nodes":"15","size_leaf_vector":"1"}},{"base_weights":[1.4630699E-2,4.867621E-1,-1.744683E-1,6.2697965E-1,-5.552475E-1,-2.7087577E-2,-8.601232E-2,2.3715636E-2,5.3838603E-3,-2.4848899E-2,7.857662E-3,1.378853E-2,-4.6388414E-3],"categories":[],"categories_nodes":[],"categories_segments":[],"categories_sizes":[],"default_left":[0,0,0,0,0,0,0,0,0,0,0,0,0],"id":43,"left_children":[1,3,5,7,9,-1,11,-1,-1,-1,-1,-1,-1],"loss_changes":[1.847845E1,8.995099E0,1.5405979E1,1.0275587E1,5.469768E0,0E0,1.6056541E1,0E0,0E0,0E0,0E0,0E0,0E0],"parents":[2147483647,0,0,1,1,2,2,3,3,4,4,6,6],"right_children":[2,4,6,8,10,-1,12,-1,-1,-1,-1,-1,-1],"split_conditions":[6.386E1,7.788114E0,9.1095E2,3.4549849E-3,3.3446667E1,-2.7087577E-2,-7.848315E-2,2.3715636E-2,5.3838603E-3,-2.4848899E-2,7.857662E-3,1.378853E-2,-4.6388414E-3],"split_indices":[13,21,36,35,38,0,6,0,0,0,0,0,0],"split_type":[0,0,0,0,0,0,0,0,0,0,0,0,0],"sum_hessian":[2.0502168E2,5.8182034E1,1.4683965E2,5.1632435E1,6.5495987E0,9.185399E0,1.3765425E2,1.9063025E1,3.256941E1,3.6039586E0,2.94564E0,2.1279947E1,1.163743E2],"tree_param":{"num_deleted":"0","num_feature":"40","num_nodes":"13","size_leaf_vector":"1"}},{"base_weights":[2.6726877E-2,2.8927472E-1,-2.8506607E-1,1.0499612E0,1.0815408E-1,-2.6653893E-2,-1.3683692E-1,2.7051166E-2,1.4246498E-3,-7.5394276E-4,1.8059542E-2,-1.4872774E-2,2.4442105E-3],"categories":[],"categories_nodes":[],"categories_segments":[],"categories_sizes":[],"default_left":[0,0,0,0,0,0,0,0,0,0,0,0,0],"id":44,"left_children":[1,3,5,7,9,-1,11,-1,-1,-1,-1,-1,-1],"loss_changes":[1.6692684E1,1.5131302E1,1.4395581E1,6.3154182E0,1.0600905E1,0E0,1.3236224E1,0E0,0E0,0E0,0E0,0E0,0E0],"parents":[2147483647,0,0,1,1,2,2,3,3,4,4,6,6],"right_children":[2,4,6,8,10,-1,12,-1,-1,-1,-1,-1,-1],"split_conditions":[1.0058E2,8.2E1,9.1095E2,9.5917806E-2,9.906E1,-2.6653893E-2,1.463545E-2,2.7051166E-2,1.4246498E-3,-7.5394276E-4,1.8059542E-2,-1.4872774E-2,2.4442105E-3],"split_indices":[33,31,36,6,33,0,7,0,0,0,0,0,0],"split_type":[0,0,0,0,0,0,0,0,0,0,0,0,0],"sum_hessian":[2.019087E2,1.0964958E2,9.225912E1,2.0164385E1,8.94852E1,1.0378631E1,8.1880486E1,1.5019996E1,5.144389E0,7.6469795E1,1.30154085E1,2.3869139E1,5.801135E1],"tree_param":{"num_deleted":"0","num_feature":"40","num_nodes":"13","size_leaf_vector":"1"}},{"base_weights":[-7.195254E-3,-2.0677528E-1,4.3474036E-1,-2.6288527E-1,1.0504572E0,7.052749E-1,-5.3945865E-2,1.9754155E-2,-6.431028E-3,7.4156607E-3,2.9666496E-2,1.9367624E-2,6.237025E-4,1.2244898E-2,-1.4070352E-2],"categories":[],"categories_nodes":[],"categories_segments":[],"categories_sizes":[],"default_left":[0,0,0,0,0,0,0,0,0,0,0,0,0,0,0],"id":45,"left_children":[1,3,5,7,9,11,13,-1,-1,-1,-1,-1,-1,-1,-1],"loss_changes":[1.824229E1,1.0325464E1,8.545535E0,1.0717447E1,1.3216043E0,7.468685E0,1.0868798E1,0E0,0E0,0E0,0E0,0E0,0E0,0E0,0E0],"parents":[2147483647,0,0,1,1,2,2,3,3,4,4,5,5,6,6],"right_children":[2,4,6,8,10,12,14,-1,-1,-1,-1,-1,-1,-1,-1],"split_conditions":[5.3312E0,4.0911045E-2,4.1E1,2.5046137E-3,4.404374E-2,1.0576522E0,5.8169334E1,1.9754155E-2,-6.431028E-3,7.4156607E-3,2.9666496E-2,1.9367624E-2,6.237025E-4,1.2244898E-2,-1.4070352E-2],"split_indices":[10,7,26,35,7,2,38,0,0,0,0,0,0,0,0],"split_type":[0,0,0,0,0,0,0,0,0,0,0,0,0,0,0],"sum_hessian":[2.0480594E2,1.4145595E2,6.3349995E1,1.3616963E2,5.286319E0,4.04911E1,2.2858896E1,5.5359097E0,1.3063373E2,2.8101728E0,2.476146E0,2.8646542E1,1.1844559E1,1.1318565E1,1.1540331E1],"tree_param":{"num_deleted":"0","num_feature":"40","num_nodes":"15","size_leaf_vector":"1"}},{"base_weights":[3.3674214E-2,-1.657441E-1,4.3331784E-1,-2.5411E-1,1.1334414E0,6.508238E-1,-1.7855729E-1,8.969198E-3,-7.5745312E-3,7.173161E-3,2.595231E-2,1.7429376E-2,-3.069493E-3,-2.9687392E-2,9.753679E-3],"categories":[],"categories_nodes":[],"categories_segments":[],"categories_sizes":[],"default_left":[0,0,0,0,0,0,0,0,0,0,0,0,0,0,0],"id":46,"left_children":[1,3,5,7,9,11,13,-1,-1,-1,-1,-1,-1,-1,-1],"loss_changes":[1.6494219E1,1.6152834E1,9.282089E0,1.1792328E1,7.1698093E-1,9.387472E0,1.7288921E1,0E0,0E0,0E0,0E0,0E0,0E0,0E0,0E0],"parents":[2147483647,0,0,1,1,2,2,3,3,4,4,5,5,6,6],"right_children":[2,4,6,8,10,12,14,-1,-1,-1,-1,-1,-1,-1,-1],"split_conditions":[5.3312E0,1.2762E4,5.8666E1,-8.3899386E-2,-2.2924883E-2,1.779138E-1,6.0628E1,8.969198E-3,-7.5745312E-3,7.173161E-3,2.595231E-2,1.7429376E-2,-3.069493E-3,-2.9687392E-2,9.753679E-3],"split_indices":[10,20,38,6,11,37,38,0,0,0,0,0,0,0,0],"split_type":[0,0,0,0,0,0,0,0,0,0,0,0,0,0,0],"sum_hessian":[2.0506238E2,1.3719078E2,6.7871605E1,1.2920699E2,7.9837856E0,5.0025253E1,1.784635E1,1.9282698E1,1.0992429E2,2.0094347E0,5.974351E0,3.90212E1,1.1004055E1,5.605457E0,1.2240893E1],"tree_param":{"num_deleted":"0","num_feature":"40","num_nodes":"15","size_leaf_vector":"1"}},{"base_weights":[7.16247E-3,-1.798204E-1,3.8146427E-1,-5.9276325E-1,7.8639194E-2,5.5479944E-1,-2.6823094E-1,2.6264444E-2,-1.4980718E-2,5.8763293E-3,-8.527981E-3,1.6147587E-2,-1.8639435E-4,1.565401E-2,-1.3705366E-2],"categories":[],"categories_nodes":[],"categories_segments":[],"categories_sizes":[],"default_left":[0,0,0,0,0,0,0,0,0,0,0,0,0,0,0],"id":47,"left_children":[1,3,5,7,9,11,13,-1,-1,-1,-1,-1,-1,-1,-1],"loss_changes":[1.4459E1,1.4753406E1,7.8986197E0,1.7285997E1,9.540939E0,7.925783E0,7.273123E0,0E0,0E0,0E0,0E0,0E0,0E0,0E0,0E0],"parents":[2147483647,0,0,1,1,2,2,3,3,4,4,5,5,6,6],"right_children":[2,4,6,8,10,12,14,-1,-1,-1,-1,-1,-1,-1,-1],"split_conditions":[5.3232E0,1.5077353E-2,3.515803E-2,4.8472E0,3.4716465E-2,5.8666E1,9.179E1,2.6264444E-2,-1.4980718E-2,5.8763293E-3,-8.527981E-3,1.6147587E-2,-1.8639435E-4,1.565401E-2,-1.3705366E-2],"split_indices":[10,7,4,10,14,38,33,0,0,0,0,0,0,0,0],"split_type":[0,0,0,0,0,0,0,0,0,0,0,0,0,0,0],"sum_hessian":[2.0461238E2,1.3679558E2,6.7816795E1,5.2162197E1,8.4633385E1,5.364947E1,1.4167328E1,3.4715576E0,4.869064E1,5.9592064E1,2.504132E1,3.6565483E1,1.7083986E1,3.7902043E0,1.0377124E1],"tree_param":{"num_deleted":"0","num_feature":"40","num_nodes":"15","size_leaf_vector":"1"}},{"base_weights":[4.964513E-3,-2.3312372E-1,3.4231964E-1,-3.1128728E-1,2.2198439E-2,5.830075E-1,-1.4007017E-1,7.2037415E-3,-8.556435E-3,2.0634241E-2,6.1138663E-3,-2.1052428E-2,3.9964444E-3],"categories":[],"categories_nodes":[],"categories_segments":[],"categories_sizes":[],"default_left":[0,0,0,0,0,0,0,0,0,0,0,0,0],"id":48,"left_children":[1,3,5,7,-1,9,11,-1,-1,-1,-1,-1,-1],"loss_changes":[1.656733E1,1.3097988E1,9.989632E0,9.361371E0,0E0,6.833584E0,9.356184E0,0E0,0E0,0E0,0E0,0E0,0E0],"parents":[2147483647,0,0,1,1,2,2,3,3,5,5,6,6],"right_children":[2,4,6,8,-1,10,12,-1,-1,-1,-1,-1,-1],"split_conditions":[5.2568E0,1.2762E4,1.8378096E-2,5.1155E1,2.2198439E-2,6.2799E4,1.4110129E-2,7.2037415E-3,-8.556435E-3,2.0634241E-2,6.1138663E-3,-2.1052428E-2,3.9964444E-3],"split_indices":[10,20,4,38,0,19,8,0,0,0,0,0,0],"split_type":[0,0,0,0,0,0,0,0,0,0,0,0,0],"sum_hessian":[2.0427225E2,1.1993626E2,8.4336E1,1.14094055E2,5.842203E0,5.6124268E1,2.8211725E1,1.6801155E1,9.72929E1,2.0158737E1,3.596553E1,7.0700517E0,2.1141674E1],"tree_param":{"num_deleted":"0","num_feature":"40","num_nodes":"13","size_leaf_vector":"1"}},{"base_weights":[2.448936E-2,1.0235265E0,-4.0674783E-2,3.1227766E-2,-2.239797E-2,-2.5577345E-1,3.3403236E-1,-2.3212967E-2,-3.1086057E-3,9.00034E-3,-2.400701E-2],"categories":[],"categories_nodes":[],"categories_segments":[],"categories_sizes":[],"default_left":[0,0,0,0,0,0,0,0,0,0,0],"id":49,"left_children":[1,3,5,-1,-1,7,9,-1,-1,-1,-1],"loss_changes":[1.3463388E1,1.6628391E1,1.5762307E1,0E0,0E0,1.1072634E1,1.3559044E1,0E0,0E0,0E0,0E0],"parents":[2147483647,0,0,1,1,2,2,5,5,6,6],"right_children":[2,4,6,-1,-1,8,10,-1,-1,-1,-1],"split_conditions":[2.7E1,1.9343035E1,9.6756695E-3,3.1227766E-2,-2.239797E-2,9.1095E2,1.0479E2,-2.3212967E-2,-3.1086057E-3,9.00034E-3,-2.400701E-2],"split_indices":[31,17,12,0,0,36,13,0,0,0,0],"split_type":[0,0,0,0,0,0,0,0,0,0,0],"sum_hessian":[2.0516693E2,1.1662422E1,1.9350452E2,9.514774E0,2.1476483E0,1.2313622E2,7.036829E1,1.10718775E1,1.1206434E2,6.600451E1,4.363786E0],"tree_param":{"num_deleted":"0","num_feature":"40","num_nodes":"11","size_leaf_vector":"1"}},{"base_weights":[2.436349E-2,-5.9764873E-2,1.0390493E0,8.8054776E-1,-1.4365192E-1,-4.179026E-3,1.2530484E0,2.3943497E-2,-1.5837753E-2,-1.3652383E-2,4.7994024E-4,8.578334E-3,2.7016843E-2],"categories":[],"categories_nodes":[],"categories_segments":[],"categories_sizes":[],"default_left":[0,0,0,0,0,0,0,0,0,0,0,0,0],"id":50,"left_children":[1,3,5,7,9,-1,11,-1,-1,-1,-1,-1,-1],"loss_changes":[1.7538198E1,1.5113396E1,4.467577E0,9.459004E0,1.5973032E1,0E0,5.8447456E-1,0E0,0E0,0E0,0E0,0E0,0E0],"parents":[2147483647,0,0,1,1,2,2,3,3,4,4,6,6],"right_children":[2,4,6,8,10,-1,12,-1,-1,-1,-1,-1,-1],"split_conditions":[1.224E4,4.2E1,6E0,1.9343035E1,6.2564835E-3,-4.179026E-3,4.4879913E-3,2.3943497E-2,-1.5837753E-2,-1.3652383E-2,4.7994024E-4,8.578334E-3,2.7016843E-2],"split_indices":[20,31,26,17,12,0,12,0,0,0,0,0,0],"split_type":[0,0,0,0,0,0,0,0,0,0,0,0,0],"sum_hessian":[2.0372482E2,1.8899612E2,1.472871E1,1.4701884E1,1.7429424E2,2.1569865E0,1.2571724E1,1.2564191E1,2.1376934E0,4.0437347E1,1.3385689E2,2.001262E0,1.0570461E1],"tree_param":{"num_deleted":"0","num_feature":"40","num_nodes":"13","size_leaf_vector":"1"}},{"base_weights":[5.030729E-3,-6.792542E-2,9.3597627E-1,8.201473E-1,-1.5409438E-1,-3.4899772E-3,2.2756847E-2,2.4753034E-2,-1.8747386E-2,-1.45658E-2,4.3392935E-4],"categories":[],"categories_nodes":[],"categories_segments":[],"categories_sizes":[],"default_left":[0,0,0,0,0,0,0,0,0,0,0],"id":51,"left_children":[1,3,5,7,9,-1,-1,-1,-1,-1,-1],"loss_changes":[1.3830849E1,1.4582207E1,3.6190672E0,1.3776288E1,1.7609985E1,0E0,0E0,0E0,0E0,0E0,0E0],"parents":[2147483647,0,0,1,1,2,2,3,3,4,4],"right_children":[2,4,6,8,10,-1,-1,-1,-1,-1,-1],"split_conditions":[1.224E4,4.8E1,3E0,1.9343035E1,6.2564835E-3,-3.4899772E-3,2.2756847E-2,2.4753034E-2,-1.8747386E-2,-1.45658E-2,4.3392935E-4],"split_indices":[20,31,25,17,12,0,0,0,0,0,0],"split_type":[0,0,0,0,0,0,0,0,0,0,0],"sum_hessian":[2.017037E2,1.8790504E2,1.3798668E1,1.5866293E1,1.7203874E2,2.1985383E0,1.160013E1,1.3026473E1,2.83982E0,3.9402042E1,1.326367E2],"tree_param":{"num_deleted":"0","num_feature":"40","num_nodes":"11","size_leaf_vector":"1"}},{"base_weights":[-1.556113E-2,-2.4536403E-1,3.1373218E-1,-3.1657284E-1,2.1170137E-2,5.1091856E-1,-2.498422E-1,-1.8261845E-3,-1.5480413E-2,1.6015338E-2,-3.436161E-3,-1.2662672E-2,1.17673E-2],"categories":[],"categories_nodes":[],"categories_segments":[],"categories_sizes":[],"default_left":[0,0,0,0,0,0,0,0,0,0,0,0,0],"id":52,"left_children":[1,3,5,7,-1,9,11,-1,-1,-1,-1,-1,-1],"loss_changes":[1.5511828E1,1.15906925E1,9.493098E0,1.1883613E1,0E0,1.2755299E1,7.6998196E0,0E0,0E0,0E0,0E0,0E0,0E0],"parents":[2147483647,0,0,1,1,2,2,3,3,5,5,6,6],"right_children":[2,4,6,8,-1,10,12,-1,-1,-1,-1,-1,-1],"split_conditions":[5.2568E0,1.2762E4,1.0576522E0,3.0060086E-2,2.1170137E-2,4.3E1,7.442417E-2,-1.8261845E-3,-1.5480413E-2,1.6015338E-2,-3.436161E-3,-1.2662672E-2,1.17673E-2],"split_indices":[10,20,2,14,0,26,5,0,0,0,0,0,0],"split_type":[0,0,0,0,0,0,0,0,0,0,0,0,0],"sum_hessian":[2.0296892E2,1.19693596E2,8.327532E1,1.14239334E2,5.454267E0,6.175988E1,2.1515444E1,7.762859E1,3.6610737E1,4.3060448E1,1.8699432E1,1.4907981E1,6.6074634E0],"tree_param":{"num_deleted":"0","num_feature":"40","num_nodes":"13","size_leaf_vector":"1"}},{"base_weights":[7.813783E-3,-1.9359846E-1,4.1626644E-1,-2.4929683E-1,1.1137711E0,6.263302E-1,-2.2803412E-1,1.5317302E-2,-6.3106604E-3,7.665998E-3,2.9375924E-2,1.9182486E-2,8.0928317E-4,1.5933828E-2,-1.255692E-2],"categories":[],"categories_nodes":[],"categories_segments":[],"categories_sizes":[],"default_left":[0,0,0,0,0,0,0,0,0,0,0,0,0,0,0],"id":53,"left_children":[1,3,5,7,9,11,13,-1,-1,-1,-1,-1,-1,-1,-1],"loss_changes":[1.6662903E1,1.0157658E1,9.195468E0,9.3056555E0,9.444213E-1,9.993429E0,7.6304846E0,0E0,0E0,0E0,0E0,0E0,0E0,0E0,0E0],"parents":[2147483647,0,0,1,1,2,2,3,3,4,4,5,5,6,6],"right_children":[2,4,6,8,10,12,14,-1,-1,-1,-1,-1,-1,-1,-1],"split_conditions":[5.3232E0,4.0911045E-2,3.1831834E-2,2.7E1,4.404374E-2,4.1E1,7.5E1,1.5317302E-2,-6.3106604E-3,7.665998E-3,2.9375924E-2,1.9182486E-2,8.0928317E-4,1.5933828E-2,-1.255692E-2],"split_indices":[10,7,4,31,7,26,31,0,0,0,0,0,0,0,0],"split_type":[0,0,0,0,0,0,0,0,0,0,0,0,0,0,0],"sum_hessian":[2.0056613E2,1.3468004E2,6.58861E1,1.2995291E2,4.7271194E0,4.9707626E1,1.6178474E1,7.4704742E0,1.2248244E2,2.2569437E0,2.470176E0,3.1113558E1,1.859407E1,4.2764325E0,1.1902042E1],"tree_param":{"num_deleted":"0","num_feature":"40","num_nodes":"15","size_leaf_vector":"1"}},{"base_weights":[1.0895224E-2,2.9646808E-1,-2.3237908E-1,8.5756636E-1,4.7170473E-3,-3.3486095E-1,8.838961E-1,2.0913688E-2,-3.0559527E-3,4.845268E-3,-1.1225507E-2,1.4630592E-2,-9.363423E-3,2.535361E-2,-1.3452467E-3],"categories":[],"categories_nodes":[],"categories_segments":[],"categories_sizes":[],"default_left":[0,0,0,0,0,0,0,0,0,0,0,0,0,0,0],"id":54,"left_children":[1,3,5,7,9,11,13,-1,-1,-1,-1,-1,-1,-1,-1],"loss_changes":[1.4234834E1,1.5422884E1,1.2956251E1,6.471714E0,8.698275E0,1.5180008E1,3.6454606E0,0E0,0E0,0E0,0E0,0E0,0E0,0E0,0E0],"parents":[2147483647,0,0,1,1,2,2,3,3,4,4,5,5,6,6],"right_children":[2,4,6,8,10,12,14,-1,-1,-1,-1,-1,-1,-1,-1],"split_conditions":[5.827E1,3.4549849E-3,3.304335E-2,7.554043E0,5.500609E-2,4.8242E0,1.0244703E0,2.0913688E-2,-3.0559527E-3,4.845268E-3,-1.1225507E-2,1.4630592E-2,-9.363423E-3,2.535361E-2,-1.3452467E-3],"split_indices":[38,35,9,21,37,10,0,0,0,0,0,0,0,0,0],"split_type":[0,0,0,0,0,0,0,0,0,0,0,0,0,0,0],"sum_hessian":[2.0290707E2,9.323844E1,1.0966863E2,3.1232477E1,6.2005966E1,1.0108806E2,8.580572E0,2.6180119E1,5.0523567E0,4.407638E1,1.7929585E1,1.0883124E1,9.020493E1,5.843478E0,2.7370946E0],"tree_param":{"num_deleted":"0","num_feature":"40","num_nodes":"15","size_leaf_vector":"1"}},{"base_weights":[-1.1880519E-2,1.9416158E-1,-3.4791407E-1,1.13114335E-1,3.2948736E-2,-4.7389868E-1,2.2112742E-2,1.6313309E-2,-1.6813605E-3,2.243218E-3,-1.7047081E-2],"categories":[],"categories_nodes":[],"categories_segments":[],"categories_sizes":[],"default_left":[0,0,0,0,0,0,0,0,0,0,0],"id":55,"left_children":[1,3,5,7,-1,9,-1,-1,-1,-1,-1],"loss_changes":[1.442754E1,1.512233E1,1.5086665E1,1.73204E1,0E0,1.6630556E1,0E0,0E0,0E0,0E0,0E0],"parents":[2147483647,0,0,1,1,2,2,3,3,5,5],"right_children":[2,4,6,8,-1,10,-1,-1,-1,-1,-1],"split_conditions":[1.021E2,7.3942E1,1.1135E2,8.2E1,3.2948736E-2,3.4681E4,2.2112742E-2,1.6313309E-2,-1.6813605E-3,2.243218E-3,-1.7047081E-2],"split_indices":[33,38,33,31,0,19,0,0,0,0,0],"split_type":[0,0,0,0,0,0,0,0,0,0,0],"sum_hessian":[2.064032E2,1.282114E2,7.819181E1,1.2249767E2,5.7137203E0,7.259964E1,5.592164E0,2.607761E1,9.642006E1,2.8951633E1,4.364801E1],"tree_param":{"num_deleted":"0","num_feature":"40","num_nodes":"11","size_leaf_vector":"1"}},{"base_weights":[2.5548922E-2,2.463973E-1,-2.93947E-1,8.3941984E-1,1.3761522E-1,-9.63121E-1,2.1954525E-2,2.2208892E-2,-2.5493365E-3,1.6897837E-2,3.4441752E-4,-2.3996819E-2,1.8682135E-2,-2.3241257E-2,3.3765067E-3],"categories":[],"categories_nodes":[],"categories_segments":[],"categories_sizes":[],"default_left":[0,0,0,0,0,0,0,0,0,0,0,0,0,0,0],"id":56,"left_children":[1,3,5,7,9,11,13,-1,-1,-1,-1,-1,-1,-1,-1],"loss_changes":[1.4344113E1,7.634632E0,1.7593063E1,5.07885E0,8.779757E0,1.3465393E1,1.0299956E1,0E0,0E0,0E0,0E0,0E0,0E0,0E0,0E0],"parents":[2147483647,0,0,1,1,2,2,3,3,4,4,5,5,6,6],"right_children":[2,4,6,8,10,12,14,-1,-1,-1,-1,-1,-1,-1,-1],"split_conditions":[1.0192E2,1E1,1.531254E-2,9.629E1,9.602577E-1,1.0962E2,9.1095E2,2.2208892E-2,-2.5493365E-3,1.6897837E-2,3.4441752E-4,-2.3996819E-2,1.8682135E-2,-2.3241257E-2,3.3765067E-3],"split_indices":[33,26,7,33,1,32,36,0,0,0,0,0,0,0,0],"split_type":[0,0,0,0,0,0,0,0,0,0,0,0,0,0,0],"sum_hessian":[2.0126266E2,1.191383E2,8.212437E1,1.7425755E1,1.0171254E2,2.5679243E1,5.644512E1,1.342935E1,3.996404E0,1.3830682E1,8.788186E1,2.3094515E1,2.5847297E0,5.4711876E0,5.0973934E1],"tree_param":{"num_deleted":"0","num_feature":"40","num_nodes":"15","size_leaf_vector":"1"}},{"base_weights":[-2.0890214E-2,-2.0878933E-1,3.621752E-1,-2.7061915E-1,9.838912E-1,9.86885E-1,1.9217524E-1,6.228081E-3,-7.940175E-3,6.7605E-3,2.3654548E-2,2.3460336E-2,2.5209533E-3,-2.084741E-2,7.5936136E-3],"categories":[],"categories_nodes":[],"categories_segments":[],"categories_sizes":[],"default_left":[0,0,0,0,0,0,0,0,0,0,0,0,0,0,0],"id":57,"left_children":[1,3,5,7,9,11,13,-1,-1,-1,-1,-1,-1,-1,-1],"loss_changes":[1.4714852E1,1.0375551E1,6.957443E0,9.9567175E0,5.1682043E-1,2.191784E0,1.3122874E1,0E0,0E0,0E0,0E0,0E0,0E0,0E0,0E0],"parents":[2147483647,0,0,1,1,2,2,3,3,4,4,5,5,6,6],"right_children":[2,4,6,8,10,12,14,-1,-1,-1,-1,-1,-1,-1,-1],"split_conditions":[5.3232E0,1.2762E4,8.2E1,9.592671E-1,-1.8141052E-2,9.629E1,1.04E2,6.228081E-3,-7.940175E-3,6.7605E-3,2.3654548E-2,2.3460336E-2,2.5209533E-3,-2.084741E-2,7.5936136E-3],"split_indices":[10,20,31,1,11,33,31,0,0,0,0,0,0,0,0],"split_type":[0,0,0,0,0,0,0,0,0,0,0,0,0,0,0],"sum_hessian":[2.0238582E2,1.3608775E2,6.6298065E1,1.3011552E2,5.9722247E0,1.3154214E1,5.314385E1,2.321479E1,1.0690074E2,2.0838149E0,3.8884099E0,1.04477415E1,2.706472E0,6.444402E0,4.6699448E1],"tree_param":{"num_deleted":"0","num_feature":"40","num_nodes":"15","size_leaf_vector":"1"}},{"base_weights":[-1.4490016E-2,1.034395E0,-8.545919E-2,2.9559E-2,-1.5740644E-2,-1.494635E-1,8.400622E-1,2.307247E-3,-7.93371E-3,2.4886169E-2,-1.1554464E-3],"categories":[],"categories_nodes":[],"categories_segments":[],"categories_sizes":[],"default_left":[0,0,0,0,0,0,0,0,0,0,0],"id":58,"left_children":[1,3,5,-1,-1,7,9,-1,-1,-1,-1],"loss_changes":[1.4658248E1,1.1458198E1,1.1040019E1,0E0,0E0,1.1506271E1,4.5252447E0,0E0,0E0,0E0,0E0],"parents":[2147483647,0,0,1,1,2,2,5,5,6,6],"right_children":[2,4,6,-1,-1,8,10,-1,-1,-1,-1],"split_conditions":[2.7E1,1.8567675E1,1.2762E4,2.9559E-2,-1.5740644E-2,2.175337E-3,1.0472305E0,2.307247E-3,-7.93371E-3,2.4886169E-2,-1.1554464E-3],"split_indices":[31,17,20,0,0,4,1,0,0,0,0],"split_type":[0,0,0,0,0,0,0,0,0,0,0],"sum_hessian":[1.9473003E2,1.1480426E1,1.8324959E2,9.354058E0,2.1263676E0,1.7218095E2,1.1068644E1,8.365241E1,8.8528534E1,7.3254724E0,3.743171E0],"tree_param":{"num_deleted":"0","num_feature":"40","num_nodes":"11","size_leaf_vector":"1"}},{"base_weights":[-1.3169198E-3,2.738363E-1,-2.322266E-1,8.2714766E-1,2.694569E-2,-3.196196E-1,9.2931217E-1,2.3447566E-2,-9.4204204E-4,-4.966128E-3,1.3725987E-2,-1.1632572E-2,3.3162865E-3,3.3512325E-3,2.6116917E-2],"categories":[],"categories_nodes":[],"categories_segments":[],"categories_sizes":[],"default_left":[0,0,0,0,0,0,0,0,0,0,0,0,0,0,0],"id":59,"left_children":[1,3,5,7,9,11,13,-1,-1,-1,-1,-1,-1,-1,-1],"loss_changes":[1.2940954E1,1.2673848E1,1.1538361E1,8.856945E0,1.21442375E1,1.3469228E1,2.1140194E0,0E0,0E0,0E0,0E0,0E0,0E0,0E0,0E0],"parents":[2147483647,0,0,1,1,2,2,3,3,4,4,5,5,6,6],"right_children":[2,4,6,8,10,12,14,-1,-1,-1,-1,-1,-1,-1,-1],"split_conditions":[5.827E1,1.906719E-2,1.1059E2,1.0250134E0,5.5315E0,1.49622E3,5.1968E0,2.3447566E-2,-9.4204204E-4,-4.966128E-3,1.3725987E-2,-1.1632572E-2,3.3162865E-3,3.3512325E-3,2.6116917E-2],"split_indices":[38,15,32,0,10,36,10,0,0,0,0,0,0,0,0],"split_type":[0,0,0,0,0,0,0,0,0,0,0,0,0,0,0],"sum_hessian":[2.0167966E2,9.193888E1,1.09740776E2,2.764126E1,6.4297615E1,1.0273586E2,7.0049105E0,1.9470127E1,8.171134E0,4.581088E1,1.8486738E1,6.636228E1,3.6373585E1,2.8293056E0,4.175605E0],"tree_param":{"num_deleted":"0","num_feature":"40","num_nodes":"15","size_leaf_vector":"1"}},{"base_weights":[9.1870164E-4,-7.096409E-2,1.0327656E0,-2.6873672E-1,2.2164054E-1,2.5284482E-2,4.6690376E-3,1.6126316E-2,-6.8804068E-3,-1.1026676E-2,8.067389E-3],"categories":[],"categories_nodes":[],"categories_segments":[],"categories_sizes":[],"default_left":[0,0,0,0,0,0,0,0,0,0,0],"id":60,"left_children":[1,3,5,7,9,-1,-1,-1,-1,-1,-1],"loss_changes":[1.5183631E1,1.1135042E1,2.2351637E0,9.819719E0,1.1313197E1,0E0,0E0,0E0,0E0,0E0,0E0],"parents":[2147483647,0,0,1,1,2,2,3,3,4,4],"right_children":[2,4,6,8,10,-1,-1,-1,-1,-1,-1],"split_conditions":[1.2762E4,5.2568E0,1.0963641E0,4.775E0,1.4236096E-2,2.5284482E-2,4.6690376E-3,1.6126316E-2,-6.8804068E-3,-1.1026676E-2,8.067389E-3],"split_indices":[20,10,2,10,9,0,0,0,0,0,0],"split_type":[0,0,0,0,0,0,0,0,0,0,0],"sum_hessian":[2.027202E2,1.9038818E2,1.2332016E1,1.1365195E2,7.673623E1,9.042044E0,3.2899716E0,6.942412E0,1.0670953E2,1.4314E1,6.242223E1],"tree_param":{"num_deleted":"0","num_feature":"40","num_nodes":"11","size_leaf_vector":"1"}},{"base_weights":[3.4855967E-3,2.4471977E-1,-2.770653E-1,9.530787E-1,7.110681E-2,-6.458994E-1,6.282325E-2,-9.184102E-3,2.3298057E-2,-1.1152105E-3,2.05437E-2,-1.5062965E-2,1.761402E-2,1.4155261E-2,-6.6730804E-3],"categories":[],"categories_nodes":[],"categories_segments":[],"categories_sizes":[],"default_left":[0,0,0,0,0,0,0,0,0,0,0,0,0,0,0],"id":61,"left_children":[1,3,5,7,9,11,13,-1,-1,-1,-1,-1,-1,-1,-1],"loss_changes":[1.3752321E1,1.3367627E1,1.1818459E1,7.1462574E0,1.09176E1,8.35766E0,1.3104069E1,0E0,0E0,0E0,0E0,0E0,0E0,0E0,0E0],"parents":[2147483647,0,0,1,1,2,2,3,3,4,4,5,5,6,6],"right_children":[2,4,6,8,10,12,14,-1,-1,-1,-1,-1,-1,-1,-1],"split_conditions":[1.0058E2,8.2E1,1.9275337E-2,9.008E1,9.958E1,1.1135E2,3.0381E4,-9.184102E-3,2.3298057E-2,-1.1152105E-3,2.05437E-2,-1.5062965E-2,1.761402E-2,1.4155261E-2,-6.6730804E-3],"split_indices":[33,31,8,32,32,32,19,0,0,0,0,0,0,0,0],"split_type":[0,0,0,0,0,0,0,0,0,0,0,0,0,0,0],"sum_hessian":[2.0119897E2,1.08248375E2,9.295061E1,2.0424524E1,8.782385E1,4.414539E1,4.8805218E1,2.5772495E0,1.7847275E1,7.83971E1,9.426747E0,4.1627735E1,2.5176542E0,1.8265999E1,3.0539219E1],"tree_param":{"num_deleted":"0","num_feature":"40","num_nodes":"15","size_leaf_vector":"1"}},{"base_weights":[1.1794708E-2,-5.428325E-2,9.0318364E-1,2.1314234E-1,-3.05548E-1,-5.8523654E-3,2.2594456E-2,1.07038375E-2,-4.539663E-3,-1.7633013E-3,-1.844287E-2],"categories":[],"categories_nodes":[],"categories_segments":[],"categories_sizes":[],"default_left":[0,0,0,0,0,0,0,0,0,0,0],"id":62,"left_children":[1,3,5,7,9,-1,-1,-1,-1,-1,-1],"loss_changes":[1.1845653E1,1.2657382E1,4.197156E0,1.3222134E1,1.2997763E1,0E0,0E0,0E0,0E0,0E0,0E0],"parents":[2147483647,0,0,1,1,2,2,3,3,4,4],"right_children":[2,4,6,8,10,-1,-1,-1,-1,-1,-1],"split_conditions":[1.2762E4,2.175337E-3,6E0,4.54E2,5.089509E-3,-5.8523654E-3,2.2594456E-2,1.07038375E-2,-4.539663E-3,-1.7633013E-3,-1.844287E-2],"split_indices":[20,4,26,20,35,0,0,0,0,0,0],"split_type":[0,0,0,0,0,0,0,0,0,0,0],"sum_hessian":[1.992783E2,1.8639975E2,1.2878563E1,9.036955E1,9.60302E1,2.0507894E0,1.0827773E1,5.192653E1,3.844302E1,7.203001E1,2.400019E1],"tree_param":{"num_deleted":"0","num_feature":"40","num_nodes":"11","size_leaf_vector":"1"}},{"base_weights":[3.004491E-2,9.658797E-1,-3.0757222E-2,2.9591374E-2,-2.107686E-2,-5.043117E-1,1.4804262E-1,6.225389E-3,-1.7291335E-2,-8.797233E-3,6.374949E-3],"categories":[],"categories_nodes":[],"categories_segments":[],"categories_sizes":[],"default_left":[0,0,0,0,0,0,0,0,0,0,0],"id":63,"left_children":[1,3,5,-1,-1,7,9,-1,-1,-1,-1],"loss_changes":[1.136257E1,1.4440597E1,1.5991821E1,0E0,0E0,1.5699919E1,1.4104192E1,0E0,0E0,0E0,0E0],"parents":[2147483647,0,0,1,1,2,2,5,5,6,6],"right_children":[2,4,6,-1,-1,8,10,-1,-1,-1,-1],"split_conditions":[2.7E1,1.9343035E1,6.651026E-3,2.9591374E-2,-2.107686E-2,-1.5384747E1,-2.997782E1,6.225389E-3,-1.7291335E-2,-8.797233E-3,6.374949E-3],"split_indices":[31,17,12,0,0,16,17,0,0,0,0],"split_type":[0,0,0,0,0,0,0,0,0,0,0],"sum_hessian":[1.9816895E2,1.1181622E1,1.8698732E2,9.103315E0,2.0783072E0,5.0751244E1,1.3623608E2,1.5706916E1,3.5044327E1,3.0441463E1,1.05794624E2],"tree_param":{"num_deleted":"0","num_feature":"40","num_nodes":"11","size_leaf_vector":"1"}},{"base_weights":[2.2963312E-2,-4.3676782E-2,9.4845575E-1,6.3500315E-1,-1.2964194E-1,2.4819974E-2,2.9834262E-3,2.1895915E-2,4.3936092E-3,2.4387252E-3,-8.180415E-3],"categories":[],"categories_nodes":[],"categories_segments":[],"categories_sizes":[],"default_left":[0,0,0,0,0,0,0,0,0,0,0],"id":64,"left_children":[1,3,5,7,9,-1,-1,-1,-1,-1,-1],"loss_changes":[1.2532049E1,1.1160247E1,3.071908E0,3.90561E0,1.207606E1,0E0,0E0,0E0,0E0,0E0,0E0],"parents":[2147483647,0,0,1,1,2,2,3,3,4,4],"right_children":[2,4,6,8,10,-1,-1,-1,-1,-1,-1],"split_conditions":[1.2762E4,9.179E1,1.0472305E0,1.0567855E0,2.175337E-3,2.4819974E-2,2.9834262E-3,2.1895915E-2,4.3936092E-3,2.4387252E-3,-8.180415E-3],"split_indices":[20,33,1,2,4,0,0,0,0,0,0],"split_type":[0,0,0,0,0,0,0,0,0,0,0],"sum_hessian":[2.015236E2,1.8887636E2,1.2647238E1,2.0516376E1,1.6835999E2,8.792036E0,3.8552012E0,8.878883E0,1.1637494E1,8.910023E1,7.925976E1],"tree_param":{"num_deleted":"0","num_feature":"40","num_nodes":"11","size_leaf_vector":"1"}},{"base_weights":[2.0519227E-2,-4.505271E-2,8.943131E-1,2.2170058E-2,-8.049666E-1,-5.557355E-3,2.2292124E-2,-2.0318993E-3,1.19278515E-2,1.0104693E-2,-2.4477385E-2],"categories":[],"categories_nodes":[],"categories_segments":[],"categories_sizes":[],"default_left":[0,0,0,0,0,0,0,0,0,0,0],"id":65,"left_children":[1,3,5,7,9,-1,-1,-1,-1,-1,-1],"loss_changes":[1.1547129E1,9.609459E0,4.0465403E0,1.2510705E1,9.160903E0,0E0,0E0,0E0,0E0,0E0,0E0],"parents":[2147483647,0,0,1,1,2,2,3,3,4,4],"right_children":[2,4,6,8,10,-1,-1,-1,-1,-1,-1],"split_conditions":[1.2762E4,1.0427E2,9E0,1.49622E3,4.8242E0,-5.557355E-3,2.2292124E-2,-2.0318993E-3,1.19278515E-2,1.0104693E-2,-2.4477385E-2],"split_indices":[20,13,26,36,10,0,0,0,0,0,0],"split_type":[0,0,0,0,0,0,0,0,0,0,0],"sum_hessian":[1.9983017E2,1.8676337E2,1.3066805E1,1.7247672E2,1.4286643E1,2.0730665E0,1.0993738E1,1.425996E2,2.9877121E1,3.4484246E0,1.0838219E1],"tree_param":{"num_deleted":"0","num_feature":"40","num_nodes":"11","size_leaf_vector":"1"}},{"base_weights":[1.8001166E-3,2.5922823E-1,-2.3153168E-1,7.8957295E-1,-1.8735308E-2,1.0191143E0,-3.2522693E-1,1.9378508E-2,-5.995986E-3,-9.910544E-3,4.7302465E-3,3.0077852E-2,-2.6367346E-3,-8.207093E-3,2.0984912E-2],"categories":[],"categories_nodes":[],"categories_segments":[],"categories_sizes":[],"default_left":[0,0,0,0,0,0,0,0,0,0,0,0,0,0,0],"id":66,"left_children":[1,3,5,7,9,11,13,-1,-1,-1,-1,-1,-1,-1,-1],"loss_changes":[1.2209294E1,1.4260918E1,1.2825864E1,6.9851227E0,8.034976E0,4.5541396E0,1.2474398E1,0E0,0E0,0E0,0E0,0E0,0E0,0E0,0E0],"parents":[2147483647,0,0,1,1,2,2,3,3,4,4,5,5,6,6],"right_children":[2,4,6,8,10,12,14,-1,-1,-1,-1,-1,-1,-1,-1],"split_conditions":[5.8838E1,3.4549849E-3,4.775E0,7.554043E0,6.764829E-3,2.0155633E-2,1.1135E2,1.9378508E-2,-5.995986E-3,-9.910544E-3,4.7302465E-3,3.0077852E-2,-2.6367346E-3,-8.207093E-3,2.0984912E-2],"split_indices":[38,35,10,21,12,7,33,0,0,0,0,0,0,0,0],"split_type":[0,0,0,0,0,0,0,0,0,0,0,0,0,0,0],"sum_hessian":[2.0126488E2,9.563862E1,1.0562626E2,3.2255566E1,6.3383057E1,6.673351E0,9.89529E1,2.7682562E1,4.573003E0,2.1763567E1,4.1619488E1,4.454828E0,2.218523E0,9.372586E1,5.2270417E0],"tree_param":{"num_deleted":"0","num_feature":"40","num_nodes":"15","size_leaf_vector":"1"}},{"base_weights":[6.0807865E-2,9.47126E-1,4.5936615E-3,2.9188477E-2,-2.074858E-2,-4.3986678E-1,1.3141163E-1,6.8767085E-3,-1.6562764E-2,-1.478083E-2,4.6444885E-3],"categories":[],"categories_nodes":[],"categories_segments":[],"categories_sizes":[],"default_left":[0,0,0,0,0,0,0,0,0,0,0],"id":67,"left_children":[1,3,5,-1,-1,7,9,-1,-1,-1,-1],"loss_changes":[9.9740505E0,1.3884511E1,1.0729753E1,0E0,0E0,1.3321164E1,1.3383245E1,0E0,0E0,0E0,0E0],"parents":[2147483647,0,0,1,1,2,2,5,5,6,6],"right_children":[2,4,6,-1,-1,8,10,-1,-1,-1,-1],"split_conditions":[2.7E1,1.9343035E1,6.214091E-3,2.9188477E-2,-2.074858E-2,-1.5384747E1,-4.4131454E1,6.8767085E-3,-1.6562764E-2,-1.478083E-2,4.6444885E-3],"split_indices":[31,17,12,0,0,16,17,0,0,0,0],"split_type":[0,0,0,0,0,0,0,0,0,0,0],"sum_hessian":[1.9927434E2,1.0939823E1,1.8833452E2,8.881867E0,2.0579553E0,4.1260357E1,1.4707416E2,1.3790237E1,2.747012E1,1.4713185E1,1.3236098E2],"tree_param":{"num_deleted":"0","num_feature":"40","num_nodes":"11","size_leaf_vector":"1"}},{"base_weights":[-2.1306885E-2,2.5477245E-1,-2.5927088E-1,8.0175495E-1,8.971251E-3,9.168032E-1,-3.3749393E-1,3.5487239E-3,1.980019E-2,-1.0076484E-2,5.2706464E-3,2.8600266E-2,-2.5668223E-3,1.5435869E-2,-8.662245E-3],"categories":[],"categories_nodes":[],"categories_segments":[],"categories_sizes":[],"default_left":[0,0,0,0,0,0,0,0,0,0,0,0,0,0,0],"id":68,"left_children":[1,3,5,7,9,11,13,-1,-1,-1,-1,-1,-1,-1,-1],"loss_changes":[1.3042407E1,1.2354144E1,1.0114141E1,3.2588787E0,8.636214E0,3.9516115E0,1.1308827E1,0E0,0E0,0E0,0E0,0E0,0E0,0E0,0E0],"parents":[2147483647,0,0,1,1,2,2,3,3,4,4,5,5,6,6],"right_children":[2,4,6,8,10,12,14,-1,-1,-1,-1,-1,-1,-1,-1],"split_conditions":[5.827E1,3.4549849E-3,4.775E0,3.3446667E1,6.7146197E-3,2.0155633E-2,2.7E1,3.5487239E-3,1.980019E-2,-1.0076484E-2,5.2706464E-3,2.8600266E-2,-2.5668223E-3,1.5435869E-2,-8.662245E-3],"split_indices":[38,35,10,38,12,7,31,0,0,0,0,0,0,0,0],"split_type":[0,0,0,0,0,0,0,0,0,0,0,0,0,0,0],"sum_hessian":[1.9651836E2,9.094075E1,1.05577614E2,2.7494751E1,6.3445995E1,5.9156823E0,9.966193E1,6.966863E0,2.052789E1,2.072653E1,4.2719467E1,3.6992483E0,2.2164342E0,7.495075E0,9.2166855E1],"tree_param":{"num_deleted":"0","num_feature":"40","num_nodes":"15","size_leaf_vector":"1"}},{"base_weights":[1.4108298E-2,-4.0862083E-2,1.0547345E0,2.180639E-1,-3.0108348E-1,1.3745841E0,1.0896348E-3,1.4056578E-2,1.0547638E-4,4.979886E-3,-1.1648665E-2,3.2234587E-2,1.0006956E-2],"categories":[],"categories_nodes":[],"categories_segments":[],"categories_sizes":[],"default_left":[0,0,0,0,0,0,0,0,0,0,0,0,0],"id":69,"left_children":[1,3,5,7,9,11,-1,-1,-1,-1,-1,-1,-1],"loss_changes":[1.1417326E1,1.28556185E1,3.1275072E0,9.944885E0,1.5059301E1,8.003969E-1,0E0,0E0,0E0,0E0,0E0,0E0,0E0],"parents":[2147483647,0,0,1,1,2,2,3,3,4,4,5,5],"right_children":[2,4,6,8,10,12,-1,-1,-1,-1,-1,-1,-1],"split_conditions":[3.23612E-2,5.8838E1,3.960634E-2,1.906719E-2,6E0,3.5832163E-2,1.0896348E-3,1.4056578E-2,1.0547638E-4,4.979886E-3,-1.1648665E-2,3.2234587E-2,1.0006956E-2],"split_indices":[9,38,4,15,25,15,0,0,0,0,0,0,0],"split_type":[0,0,0,0,0,0,0,0,0,0,0,0,0],"sum_hessian":[1.9783757E2,1.888238E2,9.013759E0,9.472869E1,9.409512E1,6.5454865E0,2.4682722E0,2.8038218E1,6.6690475E1,3.206006E1,6.203506E1,4.436468E0,2.109018E0],"tree_param":{"num_deleted":"0","num_feature":"40","num_nodes":"13","size_leaf_vector":"1"}},{"base_weights":[7.4021416E-3,-5.767222E-2,8.787385E-1,1.3534914E-1,-3.461605E-1,-2.5072924E-3,2.1893242E-2,2.3598872E-2,5.5835047E-4,-1.9233737E-2,2.2936425E-4],"categories":[],"categories_nodes":[],"categories_segments":[],"categories_sizes":[],"default_left":[0,0,0,0,0,0,0,0,0,0,0],"id":70,"left_children":[1,3,5,7,9,-1,-1,-1,-1,-1,-1],"loss_changes":[1.1325719E1,1.0402383E1,3.2302198E0,1.2608578E1,1.662138E1,0E0,0E0,0E0,0E0,0E0,0E0],"parents":[2147483647,0,0,1,1,2,2,3,3,4,4],"right_children":[2,4,6,8,10,-1,-1,-1,-1,-1,-1],"split_conditions":[1.2762E4,1.0192E2,3E0,4.8E1,1.6240072E-2,-2.5072924E-3,2.1893242E-2,2.3598872E-2,5.5835047E-4,-1.9233737E-2,2.2936425E-4],"split_indices":[20,33,25,31,7,0,0,0,0,0,0],"split_type":[0,0,0,0,0,0,0,0,0,0,0],"sum_hessian":[1.9784851E2,1.8496826E2,1.2880247E1,1.1113861E2,7.382965E1,2.4060512E0,1.04741955E1,9.364349E0,1.0177426E2,2.637214E1,4.7457508E1],"tree_param":{"num_deleted":"0","num_feature":"40","num_nodes":"11","size_leaf_vector":"1"}},{"base_weights":[8.631452E-3,-5.1208124E-2,8.48448E-1,-8.650906E-1,1.1238077E-2,-6.530033E-3,2.1601638E-2,-1.6936421E-4,-2.5110215E-2,5.620713E-3,-4.4098916E-3],"categories":[],"categories_nodes":[],"categories_segments":[],"categories_sizes":[],"default_left":[0,0,0,0,0,0,0,0,0,0,0],"id":71,"left_children":[1,3,5,7,9,-1,-1,-1,-1,-1,-1],"loss_changes":[1.0066971E1,9.520528E0,4.076709E0,4.5284653E0,1.1105048E1,0E0,0E0,0E0,0E0,0E0,0E0],"parents":[2147483647,0,0,1,1,2,2,3,3,4,4],"right_children":[2,4,6,8,10,-1,-1,-1,-1,-1,-1],"split_conditions":[1.2762E4,4.93309E-3,6E0,3.5E1,5.9100334E1,-6.530033E-3,2.1601638E-2,-1.6936421E-4,-2.5110215E-2,5.620713E-3,-4.4098916E-3],"split_indices":[20,12,26,26,38,0,0,0,0,0,0],"split_type":[0,0,0,0,0,0,0,0,0,0,0],"sum_hessian":[1.9845618E2,1.8613266E2,1.2323514E1,1.2347688E1,1.7378497E2,2.003968E0,1.0319547E1,4.234029E0,8.113659E0,8.0178795E1,9.360618E1],"tree_param":{"num_deleted":"0","num_feature":"40","num_nodes":"11","size_leaf_vector":"1"}},{"base_weights":[4.3660667E-2,-1.8761513E-1,3.2977253E-1,2.7774373E-2,-7.2793615E-1,7.6190335E-1,-1.5848948E-2,1.45768E-2,-3.4880524E-3,-1.886432E-2,-2.4621957E-3,2.4398006E-2,8.814796E-3,-1.683731E-2,2.9204774E-3],"categories":[],"categories_nodes":[],"categories_segments":[],"categories_sizes":[],"default_left":[0,0,0,0,0,0,0,0,0,0,0,0,0,0,0],"id":72,"left_children":[1,3,5,7,9,11,13,-1,-1,-1,-1,-1,-1,-1,-1],"loss_changes":[1.3076567E1,1.2752368E1,1.3197243E1,1.1464364E1,4.0365753E0,5.268814E0,6.8814244E0,0E0,0E0,0E0,0E0,0E0,0E0,0E0,0E0],"parents":[2147483647,0,0,1,1,2,2,3,3,4,4,5,5,6,6],"right_children":[2,4,6,8,10,12,14,-1,-1,-1,-1,-1,-1,-1,-1],"split_conditions":[5.238E0,3.4716465E-2,3.6624142E-3,4.902159E0,5.1512E0,6.2799E4,-3.8351793E-2,1.45768E-2,-3.4880524E-3,-1.886432E-2,-2.4621957E-3,2.4398006E-2,8.814796E-3,-1.683731E-2,2.9204774E-3],"split_indices":[10,14,4,10,10,19,14,0,0,0,0,0,0,0,0],"split_type":[0,0,0,0,0,0,0,0,0,0,0,0,0,0,0],"sum_hessian":[1.9568353E2,1.0840204E2,8.7281494E1,7.818397E1,3.0218071E1,3.825135E1,4.9030144E1,1.6904476E1,6.127949E1,2.1728334E1,8.489737E0,1.4412853E1,2.38385E1,7.34142E0,4.168872E1],"tree_param":{"num_deleted":"0","num_feature":"40","num_nodes":"15","size_leaf_vector":"1"}},{"base_weights":[-2.7048022E-2,2.2665393E-1,-2.3454304E-1,7.873848E-1,-3.125204E-2,8.582838E-1,-3.3920997E-1,2.2074025E-2,1.4766499E-3,-6.476433E-3,1.5744893E-2,-6.2010284E-3,2.7166141E-2,-8.406283E-3,2.3075733E-2],"categories":[],"categories_nodes":[],"categories_segments":[],"categories_sizes":[],"default_left":[0,0,0,0,0,0,0,0,0,0,0,0,0,0,0],"id":73,"left_children":[1,3,5,7,9,11,13,-1,-1,-1,-1,-1,-1,-1,-1],"loss_changes":[1.0418548E1,1.2909394E1,1.2736809E1,6.3745117E0,1.5263738E1,6.236659E0,1.2980735E1,0E0,0E0,0E0,0E0,0E0,0E0,0E0,0E0],"parents":[2147483647,0,0,1,1,2,2,3,3,4,4,5,5,6,6],"right_children":[2,4,6,8,10,12,14,-1,-1,-1,-1,-1,-1,-1,-1],"split_conditions":[5.827E1,2.060486E-2,-1.361516E-2,1.0712909E0,2.0061392E-2,1.9004904E-2,1.1135E2,2.2074025E-2,1.4766499E-3,-6.476433E-3,1.5744893E-2,-6.2010284E-3,2.7166141E-2,-8.406283E-3,2.3075733E-2],"split_indices":[38,15,34,2,9,8,33,0,0,0,0,0,0,0,0],"split_type":[0,0,0,0,0,0,0,0,0,0,0,0,0,0,0],"sum_hessian":[1.959038E2,8.8096634E1,1.0780716E2,2.7107464E1,6.098917E1,8.793555E0,9.90136E1,1.8290482E1,8.816982E0,4.5365417E1,1.5623754E1,2.7757096E0,6.0178456E0,9.448084E1,4.53276E0],"tree_param":{"num_deleted":"0","num_feature":"40","num_nodes":"15","size_leaf_vector":"1"}},{"base_weights":[1.4220706E-2,9.575408E-1,-4.2365354E-2,2.8302025E-2,-1.4602067E-2,2.1160078E-1,-2.8006336E-1,-7.844482E-3,8.144956E-3,2.661808E-2,-6.87413E-3],"categories":[],"categories_nodes":[],"categories_segments":[],"categories_sizes":[],"default_left":[0,0,0,0,0,0,0,0,0,0,0],"id":74,"left_children":[1,3,5,-1,-1,7,9,-1,-1,-1,-1],"loss_changes":[1.0505115E1,9.803402E0,1.1281927E1,0E0,0E0,1.1000238E1,1.0676643E1,0E0,0E0,0E0,0E0],"parents":[2147483647,0,0,1,1,2,2,5,5,6,6],"right_children":[2,4,6,-1,-1,8,10,-1,-1,-1,-1],"split_conditions":[2.7E1,1.0363E2,2.175337E-3,2.8302025E-2,-1.4602067E-2,6.214091E-3,4.7229E0,-7.844482E-3,8.144956E-3,2.661808E-2,-6.87413E-3],"split_indices":[31,32,4,0,0,12,10,0,0,0,0],"split_type":[0,0,0,0,0,0,0,0,0,0,0],"sum_hessian":[1.9504326E2,1.0136725E1,1.8490652E2,8.075687E0,2.061038E0,8.9447266E1,9.545927E1,2.1768776E1,6.767848E1,2.9554553E0,9.2503815E1],"tree_param":{"num_deleted":"0","num_feature":"40","num_nodes":"11","size_leaf_vector":"1"}},{"base_weights":[3.633948E-2,-2.9504027E-2,8.69106E-1,1.0809674E-1,-4.3265948E-1,-5.9648603E-3,1.0827639E0,-1.3482313E-3,1.3489864E-2,-2.816654E-2,-3.853924E-3,6.162924E-3,2.4560621E-2],"categories":[],"categories_nodes":[],"categories_segments":[],"categories_sizes":[],"default_left":[0,0,0,0,0,0,0,0,0,0,0,0,0],"id":75,"left_children":[1,3,5,7,9,-1,11,-1,-1,-1,-1,-1,-1],"loss_changes":[1.0921877E1,1.0316534E1,3.9693289E0,1.3959897E1,1.0838394E1,0E0,1.0900412E0,0E0,0E0,0E0,0E0,0E0,0E0],"parents":[2147483647,0,0,1,1,2,2,3,3,4,4,6,6],"right_children":[2,4,6,8,10,-1,12,-1,-1,-1,-1,-1,-1],"split_conditions":[1.224E4,2.936E3,9E0,2.33606E-2,4.237E3,-5.9648603E-3,1.3962E4,-1.3482313E-3,1.3489864E-2,-2.816654E-2,-3.853924E-3,6.162924E-3,2.4560621E-2],"split_indices":[20,20,26,9,20,0,20,0,0,0,0,0,0],"split_type":[0,0,0,0,0,0,0,0,0,0,0,0,0],"sum_hessian":[1.9771939E2,1.8412587E2,1.3593523E1,1.3781886E2,4.630701E1,2.0383816E0,1.1555141E1,1.0599408E2,3.182478E1,8.091814E0,3.8215195E1,2.3949022E0,9.160239E0],"tree_param":{"num_deleted":"0","num_feature":"40","num_nodes":"13","size_leaf_vector":"1"}},{"base_weights":[-4.1695037E-3,-7.167962E-2,1.0080166E0,4.8684925E-1,-1.7876108E-1,2.3839453E-2,6.4565856E-3,1.9023918E-2,-3.0246674E-4,-2.4410263E-2,-2.3116036E-3],"categories":[],"categories_nodes":[],"categories_segments":[],"categories_sizes":[],"default_left":[0,0,0,0,0,0,0,0,0,0,0],"id":76,"left_children":[1,3,5,7,9,-1,-1,-1,-1,-1,-1],"loss_changes":[1.34276085E1,1.1101213E1,1.2086039E0,7.0589542E0,1.0040777E1,0E0,0E0,0E0,0E0,0E0,0E0],"parents":[2147483647,0,0,1,1,2,2,3,3,4,4],"right_children":[2,4,6,8,10,-1,-1,-1,-1,-1,-1],"split_conditions":[1.2762E4,9.232E1,1.0472305E0,1.0551476E0,1.2903631E-2,2.3839453E-2,6.4565856E-3,1.9023918E-2,-3.0246674E-4,-2.4410263E-2,-2.3116036E-3],"split_indices":[20,32,1,2,15,0,0,0,0,0,0],"split_type":[0,0,0,0,0,0,0,0,0,0,0],"sum_hessian":[1.9444576E2,1.8315874E2,1.1287017E1,2.889549E1,1.5426324E2,8.240542E0,3.0464747E0,1.4466714E1,1.4428777E1,7.642202E0,1.4662105E2],"tree_param":{"num_deleted":"0","num_feature":"40","num_nodes":"11","size_leaf_vector":"1"}},{"base_weights":[2.6073411E-2,1.0031742E0,-3.0650588E-2,2.7961917E-2,-9.510288E-3,-4.1286713E-1,1.1677971E-1,6.597907E-3,-1.5395195E-2,4.2249355E-3,-1.5021075E-2],"categories":[],"categories_nodes":[],"categories_segments":[],"categories_sizes":[],"default_left":[0,0,0,0,0,0,0,0,0,0,0],"id":77,"left_children":[1,3,5,-1,-1,7,9,-1,-1,-1,-1],"loss_changes":[1.094799E1,7.1289454E0,1.0593375E1,0E0,0E0,1.4313345E1,1.1477515E1,0E0,0E0,0E0,0E0],"parents":[2147483647,0,0,1,1,2,2,5,5,6,6],"right_children":[2,4,6,-1,-1,8,10,-1,-1,-1,-1],"split_conditions":[2.7E1,1.7682962E1,6.7146197E-3,2.7961917E-2,-9.510288E-3,-1.3942688E1,1.0427E2,6.597907E-3,-1.5395195E-2,4.2249355E-3,-1.5021075E-2],"split_indices":[31,17,12,0,0,18,13,0,0,0,0],"split_type":[0,0,0,0,0,0,0,0,0,0,0],"sum_hessian":[1.9597302E2,9.837183E0,1.8613583E2,7.7763834E0,2.0607996E0,5.131084E1,1.34825E2,1.6780096E1,3.4530743E1,1.2218568E2,1.2639321E1],"tree_param":{"num_deleted":"0","num_feature":"40","num_nodes":"11","size_leaf_vector":"1"}},{"base_weights":[-8.10667E-3,2.329395E-1,-2.3021649E-1,1.5069889E-1,1.2207972E0,4.9204018E-2,-6.588443E-1,-2.154899E-2,4.724518E-3,3.147803E-2,5.0926576E-3,1.6403487E-2,-3.611498E-3,-1.5992643E-2,1.4941662E-2],"categories":[],"categories_nodes":[],"categories_segments":[],"categories_sizes":[],"default_left":[0,0,0,0,0,0,0,0,0,0,0,0,0,0,0],"id":78,"left_children":[1,3,5,7,9,11,13,-1,-1,-1,-1,-1,-1,-1,-1],"loss_changes":[1.0486714E1,7.4485826E0,1.22393E1,9.664014E0,2.0633307E0,1.1352852E1,8.839724E0,0E0,0E0,0E0,0E0,0E0,0E0,0E0,0E0],"parents":[2147483647,0,0,1,1,2,2,3,3,4,4,5,5,6,6],"right_children":[2,4,6,8,10,12,14,-1,-1,-1,-1,-1,-1,-1,-1],"split_conditions":[1.7764873E-3,3.111742E-2,1.0105E2,-1.619403E-1,9.498E1,8.2E1,1.1135E2,-2.154899E-2,4.724518E-3,3.147803E-2,5.0926576E-3,1.6403487E-2,-3.611498E-3,-1.5992643E-2,1.4941662E-2],"split_indices":[4,9,32,37,13,31,33,0,0,0,0,0,0,0,0],"split_type":[0,0,0,0,0,0,0,0,0,0,0,0,0,0,0],"sum_hessian":[1.9386995E2,9.2948364E1,1.0092159E2,8.686895E1,6.079417E0,6.163029E1,3.92913E1,4.9532146E0,8.191573E1,3.957357E0,2.1220605E0,1.3544695E1,4.8085594E1,3.601716E1,3.2741408E0],"tree_param":{"num_deleted":"0","num_feature":"40","num_nodes":"15","size_leaf_vector":"1"}},{"base_weights":[-7.4237416E-4,9.072858E-1,-5.6406587E-2,2.7958373E-2,-1.5953403E-2,-4.4393227E-1,8.860793E-2,3.2920244E-3,-1.654901E-2,3.5691762E-3,-1.4701859E-2],"categories":[],"categories_nodes":[],"categories_segments":[],"categories_sizes":[],"default_left":[0,0,0,0,0,0,0,0,0,0,0],"id":79,"left_children":[1,3,5,-1,-1,7,9,-1,-1,-1,-1],"loss_changes":[1.0078482E1,1.0929555E1,1.0596896E1,0E0,0E0,1.2268797E1,1.0466619E1,0E0,0E0,0E0,0E0],"parents":[2147483647,0,0,1,1,2,2,5,5,6,6],"right_children":[2,4,6,-1,-1,8,10,-1,-1,-1,-1],"split_conditions":[2.7E1,1.0363E2,6.7146197E-3,2.7958373E-2,-1.5953403E-2,-9.081563E0,1.0427E2,3.2920244E-3,-1.654901E-2,3.5691762E-3,-1.4701859E-2],"split_indices":[31,33,12,0,0,17,13,0,0,0,0],"split_type":[0,0,0,0,0,0,0,0,0,0,0],"sum_hessian":[1.97385E2,1.0517525E1,1.8686746E2,8.282219E0,2.235306E0,5.0324047E1,1.3654343E2,1.979551E1,3.0528538E1,1.237505E2,1.2792916E1],"tree_param":{"num_deleted":"0","num_feature":"40","num_nodes":"11","size_leaf_vector":"1"}},{"base_weights":[3.363313E-3,-5.4068264E-2,8.565782E-1,-1.0174202E-1,9.48049E-1,2.169871E-2,2.103918E-3,3.1069345E-3,-7.23302E-3,2.8359653E-2,2.383133E-3],"categories":[],"categories_nodes":[],"categories_segments":[],"categories_sizes":[],"default_left":[0,0,0,0,0,0,0,0,0,0,0],"id":80,"left_children":[1,3,5,7,9,-1,-1,-1,-1,-1,-1],"loss_changes":[9.665264E0,8.92808E0,2.070716E0,1.2032968E1,3.1869497E0,0E0,0E0,0E0,0E0,0E0,0E0],"parents":[2147483647,0,0,1,1,2,2,3,3,4,4],"right_children":[2,4,6,8,10,-1,-1,-1,-1,-1,-1],"split_conditions":[1.2762E4,3.304335E-2,1.0741523E-1,5.9552666E1,1.4347428E-2,2.169871E-2,2.103918E-3,3.1069345E-3,-7.23302E-3,2.8359653E-2,2.383133E-3],"split_indices":[20,9,39,38,4,0,0,0,0,0,0],"split_type":[0,0,0,0,0,0,0,0,0,0,0],"sum_hessian":[1.9529921E2,1.8385986E2,1.1439341E1,1.7636798E2,7.4918866E0,8.37578E0,3.0635607E0,8.904968E1,8.73183E1,4.2952685E0,3.196618E0],"tree_param":{"num_deleted":"0","num_feature":"40","num_nodes":"11","size_leaf_vector":"1"}},{"base_weights":[-1.6499236E-2,-7.572051E-2,8.1270117E-1,1.3483718E-1,-3.279009E-1,-5.4641166E-3,2.0837098E-2,1.2610502E-3,2.8062182E-2,4.7937914E-4,-1.4618206E-2],"categories":[],"categories_nodes":[],"categories_segments":[],"categories_sizes":[],"default_left":[0,0,0,0,0,0,0,0,0,0,0],"id":81,"left_children":[1,3,5,7,9,-1,-1,-1,-1,-1,-1],"loss_changes":[9.691995E0,9.812027E0,3.6445055E0,9.113021E0,1.2046736E1,0E0,0E0,0E0,0E0,0E0,0E0],"parents":[2147483647,0,0,1,1,2,2,3,3,4,4],"right_children":[2,4,6,8,10,-1,-1,-1,-1,-1,-1],"split_conditions":[1.2762E4,1.0069E2,9E0,2.212867E1,1.7764873E-3,-5.4641166E-3,2.0837098E-2,1.2610502E-3,2.8062182E-2,4.7937914E-4,-1.4618206E-2],"split_indices":[20,32,26,17,4,0,0,0,0,0,0],"split_type":[0,0,0,0,0,0,0,0,0,0,0],"sum_hessian":[1.9511446E2,1.8295645E2,1.2158018E1,9.996016E1,8.2996284E1,2.12757E0,1.0030449E1,9.565202E1,4.308134E0,4.500223E1,3.7994057E1],"tree_param":{"num_deleted":"0","num_feature":"40","num_nodes":"11","size_leaf_vector":"1"}},{"base_weights":[1.5215471E-2,8.8305515E-1,-3.571854E-2,2.764978E-2,-1.506554E-2,-4.372824E-1,1.2612204E-1,3.462781E-3,-1.6275391E-2,4.372609E-3,-1.6710868E-2],"categories":[],"categories_nodes":[],"categories_segments":[],"categories_sizes":[],"default_left":[0,0,0,0,0,0,0,0,0,0,0],"id":82,"left_children":[1,3,5,-1,-1,7,9,-1,-1,-1,-1],"loss_changes":[8.755882E0,1.017863E1,1.2233583E1,0E0,0E0,1.2724355E1,1.2339222E1,0E0,0E0,0E0,0E0],"parents":[2147483647,0,0,1,1,2,2,5,5,6,6],"right_children":[2,4,6,-1,-1,8,10,-1,-1,-1,-1],"split_conditions":[2.7E1,1.0363E2,6.651026E-3,2.764978E-2,-1.506554E-2,-9.081563E0,1.0576E2,3.462781E-3,-1.6275391E-2,4.372609E-3,-1.6710868E-2],"split_indices":[31,32,12,0,0,17,13,0,0,0,0],"split_type":[0,0,0,0,0,0,0,0,0,0,0],"sum_hessian":[1.9637184E2,9.980569E0,1.8639127E2,7.741812E0,2.2387571E0,5.3052883E1,1.3333838E2,2.056988E1,3.2483E1,1.2225822E2,1.1080167E1],"tree_param":{"num_deleted":"0","num_feature":"40","num_nodes":"11","size_leaf_vector":"1"}},{"base_weights":[1.2335081E-2,2.3362555E-1,-1.8953411E-1,-3.0645418E-1,3.9594448E-1,5.047477E-2,-5.6067467E-1,2.216666E-2,-1.0308547E-2,-2.4631007E-3,1.335154E-2,1.4056734E-2,-2.9079514E-3,-1.4679901E-2,1.39278965E-2],"categories":[],"categories_nodes":[],"categories_segments":[],"categories_sizes":[],"default_left":[0,0,0,0,0,0,0,0,0,0,0,0,0,0,0],"id":83,"left_children":[1,3,5,7,9,11,13,-1,-1,-1,-1,-1,-1,-1,-1],"loss_changes":[8.90634E0,8.4571E0,9.318632E0,7.354642E0,1.0600781E1,8.392318E0,9.683947E0,0E0,0E0,0E0,0E0,0E0,0E0,0E0,0E0],"parents":[2147483647,0,0,1,1,2,2,3,3,4,4,5,5,6,6],"right_children":[2,4,6,8,10,12,14,-1,-1,-1,-1,-1,-1,-1,-1],"split_conditions":[1.7764873E-3,6.187994E-3,1.0069E2,5.1155E1,-1.2107149E1,8.2E1,9.956E3,2.216666E-2,-1.0308547E-2,-2.4631007E-3,1.335154E-2,1.4056734E-2,-2.9079514E-3,-1.4679901E-2,1.39278965E-2],"split_indices":[4,12,32,38,16,31,20,0,0,0,0,0,0,0,0],"split_type":[0,0,0,0,0,0,0,0,0,0,0,0,0,0,0],"sum_hessian":[1.9738184E2,9.408637E1,1.0329546E2,2.1537432E1,7.254894E1,6.3254257E1,4.004121E1,2.2401571E0,1.9297276E1,2.5302261E1,4.7246677E1,1.3988879E1,4.9265377E1,3.5471035E1,4.570174E0],"tree_param":{"num_deleted":"0","num_feature":"40","num_nodes":"15","size_leaf_vector":"1"}},{"base_weights":[-5.8472387E-2,-1.16077885E-1,8.2490784E-1,-6.3153917E-1,-8.392239E-3,2.2933858E-2,1.7764885E-3,-1.938306E-2,1.167257E-3,-1.2502196E-2,2.215989E-3],"categories":[],"categories_nodes":[],"categories_segments":[],"categories_sizes":[],"default_left":[0,0,0,0,0,0,0,0,0,0,0],"id":84,"left_children":[1,3,5,7,9,-1,-1,-1,-1,-1,-1],"loss_changes":[1.0051486E1,1.02381935E1,2.8149357E0,7.597289E0,1.1481101E1,0E0,0E0,0E0,0E0,0E0,0E0],"parents":[2147483647,0,0,1,1,2,2,3,3,4,4],"right_children":[2,4,6,8,10,-1,-1,-1,-1,-1,-1],"split_conditions":[1.2762E4,1.1118721E-2,1.0472305E0,1.2967479E3,5.7068476E-3,2.2933858E-2,1.7764885E-3,-1.938306E-2,1.167257E-3,-1.2502196E-2,2.215989E-3],"split_indices":[20,7,1,36,12,0,0,0,0,0,0],"split_type":[0,0,0,0,0,0,0,0,0,0,0],"sum_hessian":[1.946418E2,1.835416E2,1.1100206E1,3.0877052E1,1.5266454E2,7.286262E0,3.8139439E0,2.0357534E1,1.0519518E1,2.402971E1,1.2863483E2],"tree_param":{"num_deleted":"0","num_feature":"40","num_nodes":"11","size_leaf_vector":"1"}},{"base_weights":[-1.7053476E-2,3.6012422E-2,-1.0409603E0,-9.552322E-2,4.3779764E-1,1.2943278E-3,-2.7527573E-2,-4.609721E-3,8.65229E-3,2.4851009E-3,1.7713554E-2],"categories":[],"categories_nodes":[],"categories_segments":[],"categories_sizes":[],"default_left":[0,0,0,0,0,0,0,0,0,0,0],"id":85,"left_children":[1,3,5,7,9,-1,-1,-1,-1,-1,-1],"loss_changes":[1.0380801E1,9.6577215E0,3.657402E0,1.0060683E1,6.268177E0,0E0,0E0,0E0,0E0,0E0,0E0],"parents":[2147483647,0,0,1,1,2,2,3,3,4,4],"right_children":[2,4,6,8,10,-1,-1,-1,-1,-1,-1],"split_conditions":[1.0826E2,2.3199683E-2,-3.0100923E-3,5.679437E0,2.43E2,1.2943278E-3,-2.7527573E-2,-4.609721E-3,8.65229E-3,2.4851009E-3,1.7713554E-2],"split_indices":[13,9,34,21,31,0,0,0,0,0,0],"split_type":[0,0,0,0,0,0,0,0,0,0,0],"sum_hessian":[1.893635E2,1.8095024E2,8.413258E0,1.3689581E2,4.405443E1,2.1815827E0,6.231675E0,1.09378075E2,2.7517736E1,2.6800241E1,1.7254187E1],"tree_param":{"num_deleted":"0","num_feature":"40","num_nodes":"11","size_leaf_vector":"1"}},{"base_weights":[9.783646E-3,-2.3543572E-2,4.943096E-2,6.368701E-1,-1.9208014E-2,-1.3541375E-2,1.7120231E-2,1.0839017E-2,-2.28867E-3],"categories":[],"categories_nodes":[],"categories_segments":[],"categories_sizes":[],"default_left":[0,0,0,0,0,0,0,0,0],"id":86,"left_children":[1,-1,3,5,7,-1,-1,-1,-1],"loss_changes":[9.530082E0,0E0,7.8645587E0,6.5974016E0,9.539275E0,0E0,0E0,0E0,0E0],"parents":[2147483647,0,0,2,2,3,3,4,4],"right_children":[2,-1,4,6,8,-1,-1,-1,-1],"split_conditions":[-5.4988274E1,-2.3543572E-2,9.179E1,1.2886992E-2,9.592671E-1,-1.3541375E-2,1.7120231E-2,1.0839017E-2,-2.28867E-3],"split_indices":[17,0,33,8,1,0,0,0,0],"split_type":[0,0,0,0,0,0,0,0,0],"sum_hessian":[1.9922365E2,5.479399E0,1.9374425E2,1.9403444E1,1.743408E2,2.5191607E0,1.6884283E1,2.463886E1,1.4970195E2],"tree_param":{"num_deleted":"0","num_feature":"40","num_nodes":"9","size_leaf_vector":"1"}},{"base_weights":[2.2165816E-2,9.10285E-1,-2.8547939E-2,2.6764302E-2,-1.0215423E-2,-4.3722284E-1,9.3754895E-2,7.6923342E-3,-1.6154304E-2,3.5060036E-3,